SVM-light Version V6.02
2 # kernel type
3 # kernel parameter -d 
0.01 # kernel parameter -g 
1 # kernel parameter -s 
1 # kernel parameter -r 
empty# kernel parameter -u 
8864 # highest feature index 
34904 # number of training documents 
297 # number of support vectors plus 1 
4.0978964 # threshold b, each following line is a SV (starting with alpha*y)
-1.6869310049969676867931411834434 1:0.1106383 2:0.029787229 3:0.055319149 4:0.051063828 5:0.046808511 6:0.080851063 7:0.021276601 8:0.038297869 9:0.051063828 10:0.13617021 11:0.0042553199 12:0.08510638 13:0.01702128 14:0.02553191 15:0.046808511 16:0.080851063 17:0.046808511 18:0.038297869 19:0.0042553199 20:0.029787229 22:0.21367522 23:0.42735043 24:0.21367522 26:0.21367522 27:0.21367522 28:0.42735043 29:0.64102566 30:0.21367522 32:1.7094017 36:0.42735043 37:0.42735043 38:0.21367522 40:0.21367522 41:0.21367522 44:0.21367522 48:0.21367522 50:0.21367522 56:0.21367522 57:0.21367522 58:0.21367522 61:0.42735043 62:0.21367522 64:0.21367522 65:0.21367522 66:0.21367522 68:0.42735043 70:0.64102566 77:0.21367522 80:0.21367522 82:0.21367522 83:0.21367522 84:0.21367522 85:0.21367522 86:0.85470086 89:0.21367522 90:0.21367522 95:0.21367522 98:0.21367522 101:0.21367522 102:0.21367522 105:0.21367522 107:0.21367522 110:0.21367522 116:0.42735043 117:0.21367522 118:0.21367522 119:0.21367522 120:0.21367522 121:2.1367521 126:0.21367522 128:0.21367522 129:0.21367522 130:0.21367522 136:0.42735043 137:0.21367522 140:0.21367522 150:0.42735043 152:0.21367522 158:0.42735043 163:0.21367522 164:0.21367522 165:0.21367522 166:0.42735043 168:0.21367522 169:0.21367522 172:0.21367522 174:0.21367522 182:0.21367522 184:0.21367522 185:0.21367522 186:0.42735043 190:0.64102566 192:0.21367522 195:0.21367522 196:0.21367522 200:0.21367522 201:0.21367522 203:0.21367522 204:0.85470086 206:0.21367522 208:0.42735043 209:0.64102566 210:0.64102566 212:0.21367522 213:0.42735043 214:1.0683761 215:1.0683761 216:0.42735043 217:0.42735043 226:0.21367522 241:0.42735043 243:0.21367522 245:0.21367522 249:0.21367522 250:2.3504274 253:0.21367522 256:0.21367522 257:0.21367522 258:0.21367522 261:0.21367522 276:0.42735043 277:0.21367522 282:0.21367522 286:0.21367522 295:0.21367522 296:0.64102566 301:0.42735043 303:0.42735043 304:0.21367522 306:0.21367522 307:0.21367522 309:0.21367522 316:0.42735043 317:0.21367522 321:1.0683761 323:0.21367522 324:0.21367522 325:0.85470086 330:0.21367522 332:0.42735043 333:0.21367522 335:0.42735043 338:0.21367522 340:0.21367522 342:0.21367522 343:0.42735043 346:0.21367522 347:0.21367522 350:0.21367522 352:0.85470086 358:0.21367522 361:0.21367522 363:0.42735043 365:0.21367522 366:0.42735043 370:0.21367522 372:0.21367522 380:0.21367522 387:0.21367522 406:0.21367522 409:0.21367522 410:0.42735043 412:0.21367522 415:0.21367522 416:0.21367522 450:0.14306152 470:0.28612304 490:0.14306152 521:0.14306152 550:0.14306152 565:0.14306152 566:0.14306152 585:0.14306152 590:0.28612304 610:0.14306152 650:1.0014306 653:0.14306152 721:0.14306152 730:0.14306152 750:0.14306152 758:0.14306152 766:0.14306152 810:0.14306152 829:0.14306152 885:0.14306152 974:0.14306152 1009:0.14306152 1125:0.14306152 1143:0.14306152 1161:0.14306152 1232:0.14306152 1238:0.14306152 1256:0.14306152 1289:0.14306152 1316:0.14306152 1321:0.14306152 1366:0.14306152 1368:0.14306152 1415:0.14306152 1416:0.14306152 1417:0.14306152 1547:0.14306152 1609:0.14306152 1644:0.14306152 1664:0.14306152 1698:0.14306152 1717:0.14306152 1721:0.42918456 1728:0.14306152 1796:0.14306152 1817:0.14306152 1903:0.14306152 1966:0.14306152 2022:0.14306152 2058:0.14306152 2116:0.14306152 2152:0.14306152 2213:0.14306152 2325:0.14306152 2335:0.14306152 2346:0.14306152 2363:0.14306152 2387:0.14306152 2412:0.14306152 2428:0.14306152 2429:0.28612304 2430:0.14306152 2432:0.71530759 2436:0.14306152 2536:0.14306152 2572:0.14306152 2600:0.14306152 2608:0.14306152 2732:0.14306152 2735:0.14306152 2752:0.14306152 2806:0.14306152 3004:0.14306152 3014:0.14306152 3041:0.14306152 3163:0.14306152 3172:0.14306152 3262:0.14306152 3286:0.14306152 3310:0.14306152 3330:0.14306152 3369:0.14306152 3382:0.14306152 3456:0.14306152 3496:0.14306152 3648:0.14306152 3683:0.14306152 3719:0.14306152 3721:0.14306152 3737:0.14306152 3803:0.14306152 3810:0.14306152 3816:0.14306152 3858:0.14306152 3909:0.14306152 3933:0.14306152 4010:0.14306152 4026:0.14306152 4066:0.14306152 4084:0.14306152 4086:0.42918456 4121:0.14306152 4163:0.14306152 4164:0.14306152 4186:0.28612304 4192:0.14306152 4201:0.14306152 4204:0.14306152 4206:0.14306152 4249:0.14306152 4276:0.14306152 4277:0.14306152 4282:0.14306152 4286:0.14306152 4295:0.14306152 4296:0.28612304 4303:0.14306152 4304:0.14306152 4306:0.14306152 4307:0.14306152 4316:0.14306152 4325:0.14306152 4332:0.14306152 4342:0.14306152 4343:0.14306152 4526:0.14306152 4836:0.14306152 4837:0.14306152 4868:0.14306152 4907:0.14306152 4995:0.14306152 5004:0.28612304 5009:0.28612304 5010:0.14306152 5014:0.57224607 5015:0.28612304 5076:0.14306152 5138:0.14306152 5152:0.14306152 5165:0.14306152 5224:0.14306152 5523:0.14306152 5525:0.14306152 5552:0.14306152 5641:0.14306152 5729:0.14306152 5901:0.14306152 5921:0.28612304 5924:0.14306152 6028:0.14306152 6040:0.14306152 6070:0.14306152 6077:0.14306152 6082:0.14306152 6121:0.14306152 6158:0.14306152 6184:0.14306152 6321:0.14306152 6340:0.14306152 6352:0.14306152 6423:0.14306152 6427:0.14306152 6432:0.28612304 6437:0.14306152 6480:0.14306152 6495:0.14306152 6501:0.14306152 6502:0.14306152 6518:0.14306152 6520:0.14306152 6608:0.14306152 6645:0.14306152 6657:0.14306152 6661:0.14306152 6716:0.14306152 6717:0.14306152 6770:0.14306152 6816:0.14306152 6857:0.14306152 6861:0.14306152 6868:0.14306152 6921:0.14306152 6950:0.14306152 7015:0.14306152 7043:0.14306152 7050:0.42918456 7180:0.14306152 7223:0.14306152 7261:0.14306152 7265:0.14306152 7305:0.14306152 7336:0.14306152 7340:0.14306152 7412:0.14306152 7450:0.14306152 7615:0.14306152 7758:0.14306152 8121:0.14306152 8190:0.14306152 8213:0.14306152 8215:0.14306152 8241:0.14306152 8301:0.14306152 8321:0.14306152 8427:0.0085106399 8428:0.0085106399 8430:0.0085106399 8431:0.02553191 8434:0.0085106399 8441:0.0041129999 8442:3.0000001e-06 8443:3.3e-05 8444:0 8845:0.404255 8846:0.0047459998 8847:7.4000003e-05 8848:3.7000002e-05 8849:1e-06 8850:0 8851:0 8852:0 8853:0 8854:0 8855:0 8856:0 8857:0 8858:0 8859:0 8860:0 8861:0 8862:0 8863:0 8864:0.204255 #
-2.1705943152706019816378102404997 1:0.05163043 2:0.01630435 3:0.05163043 4:0.057065219 5:0.046195649 6:0.043478262 7:0.029891299 8:0.043478262 9:0.048913039 10:0.086956523 11:0.046195649 12:0.092391297 13:0.057065219 14:0.065217391 15:0.03804348 16:0.078804351 17:0.05163043 18:0.054347821 19:0.00271739 20:0.03804348 21:0.13623978 22:0.13623978 23:0.13623978 24:0.13623978 29:0.40871936 30:0.13623978 32:0.13623978 33:0.13623978 35:0.13623978 36:0.40871936 37:0.40871936 38:0.27247956 41:0.13623978 43:0.13623978 46:0.13623978 48:0.13623978 58:0.13623978 60:0.13623978 61:0.40871936 62:0.13623978 64:0.27247956 65:0.13623978 66:0.27247956 67:0.27247956 70:0.27247956 71:0.13623978 73:0.13623978 74:0.27247956 76:0.13623978 77:0.13623978 85:0.13623978 86:0.27247956 88:0.13623978 90:0.27247956 91:0.13623978 92:0.40871936 93:0.13623978 94:0.27247956 95:0.27247956 96:0.68119889 97:0.13623978 103:0.13623978 105:0.13623978 108:0.13623978 109:0.13623978 110:0.27247956 111:0.40871936 112:0.13623978 113:0.13623978 114:0.27247956 116:0.27247956 118:0.13623978 120:0.13623978 121:0.13623978 123:0.27247956 124:0.13623978 125:0.13623978 126:0.13623978 128:0.13623978 129:0.13623978 131:0.13623978 132:0.13623978 135:0.27247956 138:0.54495913 141:0.27247956 144:0.27247956 148:0.13623978 150:0.13623978 151:0.13623978 154:0.13623978 158:0.27247956 160:0.13623978 161:0.13623978 164:0.13623978 165:0.13623978 166:0.27247956 167:0.13623978 169:0.13623978 172:0.40871936 173:0.40871936 174:0.13623978 177:0.13623978 180:0.13623978 181:0.13623978 183:0.27247956 184:0.27247956 189:0.54495913 190:0.27247956 191:0.27247956 192:0.13623978 195:0.13623978 197:0.13623978 198:0.27247956 201:0.13623978 202:0.13623978 203:0.27247956 204:0.13623978 205:0.13623978 207:0.27247956 208:0.27247956 209:0.13623978 210:0.13623978 211:0.13623978 212:0.95367849 213:0.27247956 214:0.40871936 216:0.40871936 217:0.13623978 218:0.13623978 220:0.13623978 223:0.13623978 224:0.13623978 225:0.13623978 226:0.13623978 229:0.27247956 231:0.13623978 232:0.54495913 233:0.27247956 236:0.27247956 237:0.13623978 238:0.13623978 241:0.13623978 242:0.13623978 244:0.13623978 246:0.27247956 247:0.13623978 248:0.13623978 250:1.226158 251:0.40871936 252:0.40871936 253:0.27247956 254:0.81743872 255:0.13623978 256:0.13623978 258:0.13623978 260:0.13623978 261:0.13623978 264:0.13623978 265:0.68119889 267:0.13623978 268:0.13623978 271:0.13623978 272:0.13623978 273:0.13623978 276:0.40871936 277:0.40871936 278:0.13623978 280:0.27247956 281:0.27247956 283:0.13623978 284:0.13623978 287:0.27247956 288:0.13623978 290:0.54495913 292:0.40871936 294:0.27247956 295:0.13623978 296:0.27247956 298:0.27247956 300:0.40871936 304:0.54495913 305:0.27247956 308:0.40871936 309:0.27247956 315:0.13623978 316:0.13623978 317:0.13623978 322:0.13623978 323:0.27247956 325:0.40871936 326:0.13623978 328:0.27247956 330:0.27247956 332:0.27247956 333:0.40871936 334:0.27247956 335:0.40871936 336:0.27247956 337:0.40871936 338:0.13623978 339:0.13623978 340:0.13623978 341:0.40871936 346:0.40871936 349:0.27247956 350:0.27247956 352:0.27247956 353:0.13623978 355:0.13623978 356:0.27247956 357:0.27247956 360:0.13623978 361:0.13623978 362:0.13623978 363:0.54495913 364:0.27247956 366:0.13623978 369:0.13623978 370:0.13623978 373:0.27247956 374:0.27247956 375:0.13623978 376:0.13623978 377:0.13623978 378:0.13623978 380:0.13623978 393:0.13623978 403:0.27247956 404:0.13623978 407:0.27247956 408:0.13623978 410:0.40871936 411:0.13623978 412:0.27247956 414:0.13623978 416:0.13623978 424:0.091074683 441:0.091074683 461:0.091074683 492:0.091074683 583:0.091074683 584:0.091074683 589:0.091074683 608:0.091074683 644:0.091074683 672:0.091074683 717:0.091074683 735:0.091074683 736:0.091074683 737:0.091074683 741:0.091074683 752:0.091074683 757:0.091074683 763:0.091074683 777:0.091074683 830:0.091074683 865:0.091074683 938:0.091074683 972:0.091074683 1164:0.091074683 1212:0.091074683 1223:0.091074683 1229:0.091074683 1237:0.091074683 1258:0.091074683 1288:0.091074683 1296:0.091074683 1305:0.091074683 1328:0.091074683 1332:0.091074683 1341:0.091074683 1348:0.091074683 1414:0.18214937 1437:0.091074683 1480:0.091074683 1484:0.091074683 1490:0.091074683 1533:0.091074683 1550:0.091074683 1720:0.091074683 1721:0.091074683 1729:0.091074683 1766:0.091074683 1814:0.091074683 1816:0.091074683 1833:0.091074683 1846:0.091074683 1851:0.091074683 1855:0.091074683 1865:0.091074683 1887:0.091074683 1890:0.091074683 1908:0.091074683 1916:0.091074683 1925:0.091074683 1928:0.18214937 1930:0.091074683 1939:0.091074683 1960:0.091074683 2062:0.091074683 2114:0.091074683 2173:0.091074683 2189:0.091074683 2203:0.091074683 2204:0.091074683 2225:0.091074683 2229:0.091074683 2232:0.091074683 2254:0.091074683 2277:0.091074683 2287:0.091074683 2292:0.091074683 2323:0.18214937 2363:0.091074683 2412:0.091074683 2429:0.091074683 2464:0.091074683 2471:0.091074683 2496:0.091074683 2516:0.091074683 2535:0.091074683 2565:0.091074683 2591:0.091074683 2629:0.091074683 2642:0.091074683 2704:0.091074683 2708:0.091074683 2763:0.091074683 2774:0.091074683 2778:0.091074683 2780:0.091074683 2836:0.091074683 2837:0.091074683 2890:0.091074683 2893:0.091074683 2973:0.091074683 3018:0.091074683 3032:0.091074683 3090:0.091074683 3166:0.091074683 3170:0.091074683 3203:0.091074683 3232:0.091074683 3296:0.091074683 3309:0.091074683 3323:0.091074683 3338:0.091074683 3341:0.091074683 3384:0.091074683 3450:0.18214937 3452:0.091074683 3465:0.091074683 3478:0.091074683 3480:0.091074683 3495:0.091074683 3549:0.091074683 3616:0.091074683 3629:0.091074683 3666:0.091074683 3670:0.091074683 3692:0.091074683 3694:0.091074683 3790:0.091074683 3791:0.091074683 3798:0.18214937 3807:0.091074683 3816:0.091074683 3831:0.091074683 3836:0.091074683 3850:0.091074683 3909:0.091074683 3956:0.091074683 3961:0.091074683 3969:0.091074683 4021:0.091074683 4046:0.091074683 4061:0.091074683 4074:0.091074683 4091:0.091074683 4112:0.091074683 4144:0.18214937 4161:0.091074683 4180:0.091074683 4192:0.091074683 4216:0.091074683 4224:0.091074683 4241:0.091074683 4246:0.091074683 4250:0.27322406 4254:0.091074683 4256:0.091074683 4261:0.091074683 4276:0.091074683 4283:0.091074683 4296:0.091074683 4298:0.091074683 4330:0.091074683 4336:0.091074683 4337:0.091074683 4346:0.091074683 4373:0.091074683 4410:0.091074683 4474:0.091074683 4495:0.091074683 4503:0.091074683 4531:0.091074683 4589:0.091074683 4595:0.091074683 4623:0.091074683 4647:0.091074683 4651:0.091074683 4653:0.091074683 4654:0.091074683 4673:0.091074683 4676:0.091074683 4734:0.18214937 4753:0.091074683 4764:0.091074683 4837:0.091074683 4860:0.091074683 4895:0.091074683 4924:0.091074683 4935:0.091074683 4958:0.091074683 4972:0.091074683 5001:0.091074683 5005:0.091074683 5007:0.091074683 5012:0.36429873 5020:0.091074683 5032:0.18214937 5036:0.091074683 5050:0.18214937 5052:0.091074683 5067:0.091074683 5071:0.091074683 5088:0.091074683 5090:0.091074683 5092:0.091074683 5094:0.091074683 5098:0.091074683 5100:0.091074683 5104:0.091074683 5132:0.091074683 5162:0.091074683 5207:0.091074683 5238:0.091074683 5296:0.091074683 5308:0.091074683 5310:0.091074683 5313:0.091074683 5314:0.091074683 5318:0.091074683 5358:0.091074683 5367:0.091074683 5438:0.091074683 5452:0.091074683 5477:0.091074683 5532:0.091074683 5535:0.091074683 5537:0.091074683 5541:0.091074683 5552:0.091074683 5555:0.091074683 5573:0.091074683 5604:0.091074683 5608:0.091074683 5622:0.091074683 5633:0.091074683 5670:0.091074683 5697:0.091074683 5750:0.091074683 5751:0.091074683 5774:0.091074683 5809:0.091074683 5812:0.091074683 5813:0.18214937 5850:0.091074683 5851:0.091074683 5854:0.091074683 5894:0.091074683 5896:0.091074683 5904:0.091074683 5922:0.091074683 5925:0.091074683 5974:0.091074683 5975:0.091074683 6007:0.091074683 6010:0.091074683 6014:0.091074683 6085:0.091074683 6086:0.091074683 6090:0.091074683 6096:0.091074683 6110:0.091074683 6111:0.091074683 6164:0.091074683 6166:0.091074683 6177:0.091074683 6183:0.091074683 6197:0.091074683 6305:0.091074683 6335:0.091074683 6349:0.091074683 6448:0.091074683 6467:0.091074683 6476:0.091074683 6511:0.18214937 6516:0.091074683 6525:0.091074683 6569:0.091074683 6573:0.091074683 6608:0.091074683 6610:0.091074683 6654:0.18214937 6665:0.18214937 6668:0.091074683 6692:0.091074683 6700:0.091074683 6704:0.091074683 6705:0.091074683 6709:0.091074683 6726:0.091074683 6738:0.091074683 6750:0.091074683 6756:0.091074683 6757:0.091074683 6776:0.091074683 6793:0.091074683 6811:0.091074683 6835:0.091074683 6836:0.091074683 6838:0.091074683 6923:0.091074683 6938:0.18214937 6981:0.091074683 6989:0.091074683 7002:0.091074683 7012:0.091074683 7053:0.091074683 7058:0.091074683 7065:0.091074683 7108:0.091074683 7125:0.091074683 7140:0.091074683 7146:0.18214937 7210:0.091074683 7236:0.091074683 7243:0.091074683 7264:0.091074683 7266:0.091074683 7267:0.091074683 7277:0.091074683 7286:0.091074683 7294:0.091074683 7326:0.091074683 7390:0.091074683 7417:0.091074683 7464:0.091074683 7477:0.091074683 7481:0.091074683 7500:0.091074683 7515:0.091074683 7533:0.091074683 7541:0.091074683 7563:0.091074683 7603:0.091074683 7876:0.091074683 8061:0.091074683 8073:0.091074683 8092:0.091074683 8154:0.091074683 8160:0.091074683 8172:0.091074683 8203:0.091074683 8211:0.091074683 8212:0.091074683 8233:0.091074683 8248:0.091074683 8260:0.091074683 8281:0.091074683 8333:0.091074683 8421:0.0054347799 8422:0.0054347799 8423:0.01358696 8426:0.0081521701 8428:0.0054347799 8431:0.0054347799 8432:0.021739131 8433:0.0054347799 8434:0.0054347799 8435:0.0054347799 8436:0.01086957 8437:0.01086957 8440:0.0054347799 8441:0.011063 8442:7.7999997e-05 8443:0.00022099999 8444:4e-06 8845:0.34510899 8846:0.0084499996 8847:0.00054400001 8848:0.000197 8849:2.7e-05 8850:7.0000001e-06 8851:1e-06 8852:0 8853:0 8854:0 8855:0 8856:0 8857:0 8858:0 8859:0 8860:0 8861:0 8862:0 8863:0 8864:0.19565199 #
-1.0772214059660396578976815362694 1:0.043902442 2:0.0097561004 3:0.043902442 4:0.063414633 5:0.068292677 6:0.078048781 7:0.0097561004 8:0.068292677 9:0.063414633 10:0.11219512 11:0.019512201 12:0.063414633 13:0.058536589 14:0.034146339 15:0.063414633 16:0.043902442 17:0.058536589 18:0.053658541 19:0.024390239 20:0.019512201 23:0.24509804 28:0.7352941 30:0.49019608 36:0.24509804 37:0.24509804 40:0.24509804 45:0.24509804 49:0.24509804 64:0.49019608 65:0.49019608 66:0.24509804 73:0.24509804 75:0.24509804 78:0.24509804 80:0.24509804 81:0.49019608 84:0.24509804 85:0.24509804 88:0.24509804 90:0.49019608 93:0.7352941 95:0.24509804 98:0.24509804 100:0.24509804 101:0.24509804 105:0.24509804 106:0.49019608 109:0.24509804 110:0.49019608 112:0.49019608 114:0.49019608 115:0.7352941 123:0.24509804 124:0.24509804 125:0.24509804 126:0.24509804 127:0.24509804 128:0.49019608 130:0.49019608 132:0.24509804 134:0.24509804 135:0.24509804 137:0.24509804 138:0.24509804 139:0.49019608 150:0.24509804 152:0.24509804 161:0.24509804 165:0.24509804 166:0.49019608 172:0.24509804 173:0.49019608 174:0.24509804 175:0.7352941 176:0.49019608 178:0.24509804 184:0.24509804 185:0.7352941 188:0.24509804 189:0.24509804 190:0.49019608 191:0.24509804 193:0.24509804 196:0.24509804 197:0.24509804 199:0.24509804 203:0.49019608 204:0.49019608 205:0.49019608 206:0.49019608 208:0.7352941 209:0.49019608 212:0.49019608 213:0.24509804 214:0.49019608 216:0.24509804 217:0.24509804 218:0.49019608 220:0.24509804 221:0.24509804 224:0.24509804 232:0.49019608 241:0.24509804 242:0.24509804 243:0.49019608 245:0.24509804 246:0.24509804 248:0.24509804 249:0.24509804 250:0.98039216 256:0.24509804 264:0.49019608 266:0.24509804 268:0.24509804 270:0.24509804 271:0.24509804 272:0.24509804 273:0.49019608 276:0.24509804 277:0.24509804 278:0.24509804 281:0.24509804 283:0.24509804 286:0.49019608 288:0.24509804 297:0.24509804 298:0.24509804 301:0.24509804 305:0.24509804 308:0.24509804 309:0.24509804 310:0.49019608 312:0.24509804 314:0.24509804 315:0.24509804 317:0.24509804 318:0.49019608 319:0.24509804 324:0.24509804 326:0.24509804 329:0.24509804 330:0.49019608 331:0.24509804 333:0.24509804 335:0.24509804 339:0.24509804 341:0.24509804 342:0.24509804 343:0.24509804 346:0.24509804 347:0.24509804 349:0.49019608 350:0.24509804 356:0.24509804 357:0.49019608 364:0.24509804 366:0.49019608 370:0.49019608 372:0.24509804 373:0.24509804 375:0.24509804 377:0.7352941 383:0.24509804 389:0.7352941 395:0.24509804 404:0.24509804 412:0.24509804 416:0.24509804 418:0.24509804 480:0.16420361 566:0.16420361 575:0.16420361 578:0.16420361 605:0.16420361 606:0.16420361 730:0.16420361 804:0.16420361 906:0.16420361 996:0.16420361 1281:0.16420361 1290:0.16420361 1314:0.16420361 1315:0.16420361 1328:0.16420361 1471:0.16420361 1518:0.16420361 1575:0.16420361 1618:0.16420361 1628:0.16420361 1630:0.16420361 1693:0.16420361 1705:0.16420361 1774:0.16420361 1805:0.16420361 1820:0.16420361 1868:0.16420361 1873:0.16420361 1877:0.16420361 1915:0.16420361 1977:0.16420361 2016:0.16420361 2040:0.16420361 2112:0.16420361 2126:0.16420361 2139:0.16420361 2191:0.16420361 2209:0.16420361 2212:0.16420361 2243:0.16420361 2250:0.16420361 2286:0.16420361 2297:0.16420361 2305:0.16420361 2309:0.16420361 2318:0.16420361 2466:0.16420361 2484:0.16420361 2515:0.16420361 2523:0.16420361 2552:0.16420361 2566:0.16420361 2576:0.16420361 2603:0.16420361 2618:0.16420361 2642:0.16420361 2688:0.16420361 2710:0.16420361 2743:0.16420361 2772:0.16420361 2789:0.16420361 2795:0.16420361 3004:0.16420361 3045:0.16420361 3230:0.16420361 3314:0.16420361 3327:0.16420361 3339:0.16420361 3450:0.16420361 3476:0.16420361 3478:0.16420361 3486:0.16420361 3512:0.16420361 3514:0.16420361 3517:0.16420361 3529:0.16420361 3535:0.16420361 3577:0.16420361 3688:0.16420361 3701:0.16420361 3710:0.16420361 3715:0.16420361 3773:0.16420361 3788:0.16420361 3817:0.16420361 3818:0.16420361 3832:0.16420361 3870:0.16420361 3931:0.16420361 3957:0.16420361 3989:0.16420361 4065:0.16420361 4075:0.16420361 4085:0.16420361 4100:0.16420361 4110:0.16420361 4112:0.16420361 4130:0.16420361 4137:0.16420361 4161:0.16420361 4173:0.16420361 4176:0.16420361 4185:0.16420361 4193:0.16420361 4250:0.16420361 4256:0.16420361 4264:0.16420361 4281:0.16420361 4298:0.16420361 4333:0.16420361 4357:0.16420361 4370:0.16420361 4373:0.16420361 4412:0.16420361 4428:0.16420361 4493:0.16420361 4641:0.16420361 4643:0.16420361 4828:0.16420361 4849:0.16420361 4865:0.16420361 4873:0.16420361 4909:0.16420361 4924:0.16420361 4972:0.16420361 4997:0.16420361 5004:0.16420361 5008:0.16420361 5012:0.16420361 5014:0.16420361 5126:0.16420361 5295:0.16420361 5298:0.16420361 5330:0.16420361 5375:0.16420361 5416:0.16420361 5432:0.16420361 5446:0.16420361 5472:0.16420361 5473:0.16420361 5524:0.16420361 5556:0.16420361 5577:0.16420361 5636:0.16420361 5678:0.16420361 5725:0.16420361 5732:0.16420361 5765:0.16420361 5949:0.16420361 5966:0.16420361 6023:0.16420361 6106:0.16420361 6175:0.16420361 6184:0.16420361 6208:0.16420361 6214:0.16420361 6249:0.16420361 6283:0.16420361 6319:0.16420361 6347:0.16420361 6364:0.16420361 6366:0.16420361 6389:0.16420361 6490:0.16420361 6535:0.16420361 6589:0.16420361 6603:0.16420361 6608:0.16420361 6621:0.16420361 6664:0.16420361 6708:0.16420361 6783:0.16420361 6837:0.16420361 6845:0.16420361 6864:0.16420361 6934:0.16420361 6950:0.16420361 6985:0.16420361 6990:0.16420361 7006:0.16420361 7139:0.16420361 7142:0.16420361 7150:0.16420361 7281:0.16420361 7328:0.16420361 7338:0.16420361 7409:0.16420361 7413:0.16420361 7450:0.16420361 7466:0.16420361 7510:0.16420361 7541:0.16420361 7546:0.16420361 7549:0.16420361 7664:0.16420361 7785:0.16420361 7790:0.16420361 7799:0.16420361 7901:0.16420361 8093:0.16420361 8248:0.16420361 8330:0.16420361 8370:0.16420361 8422:0.0097561004 8427:0.0097561004 8428:0.0097561004 8432:0.0097561004 8434:0.0097561004 8435:0.01463415 8437:0.019512201 8441:0.003419 8442:-9.9999997e-06 8443:1.9999999e-05 8444:-0 8845:0.37560999 8846:0.00337 8847:4.8999998e-05 8848:2.2e-05 8849:1e-06 8850:0 8851:0 8852:0 8853:0 8854:0 8855:0 8856:0 8857:0 8858:0 8859:0 8860:0 8861:0 8862:0 8863:0 8864:0.234146 #
0.56956421741934659674910790272406 1:0.029411759 2:0.035294119 3:0.035294119 4:0.041176472 5:0.052941181 6:0.082352944 7:0.0058823498 8:0.088235296 9:0.029411759 10:0.15882353 11:0.01764706 12:0.076470591 13:0.047058821 14:0.035294119 15:0.01176471 16:0.11176471 17:0.052941181 18:0.070588239 19:0.01764706 23:0.295858 30:0.295858 33:0.59171599 36:0.295858 42:0.295858 46:0.295858 50:0.59171599 56:0.59171599 64:0.295858 66:0.295858 70:0.295858 72:0.295858 73:0.59171599 81:0.295858 85:0.295858 88:0.59171599 89:0.295858 92:0.295858 98:0.295858 102:0.59171599 105:0.295858 108:0.295858 110:1.183432 116:0.295858 121:0.295858 128:0.295858 129:0.295858 130:0.59171599 132:0.59171599 134:0.59171599 136:0.59171599 138:0.88757396 150:0.295858 161:0.295858 165:0.295858 166:1.183432 169:0.295858 170:0.295858 173:0.59171599 174:0.295858 175:0.295858 176:0.59171599 185:0.295858 190:0.59171599 192:0.295858 196:0.295858 201:0.295858 203:0.295858 204:0.88757396 206:0.295858 208:0.295858 209:0.295858 210:1.183432 211:0.295858 214:0.59171599 215:0.295858 216:1.183432 217:0.59171599 218:1.183432 219:0.295858 226:0.295858 232:0.295858 238:0.295858 245:0.295858 246:0.295858 248:1.183432 250:0.88757396 252:0.88757396 259:0.295858 262:0.295858 263:0.295858 268:0.295858 276:1.183432 277:0.295858 283:0.295858 286:0.295858 288:0.295858 292:0.295858 297:0.295858 298:0.295858 310:0.295858 317:0.295858 321:0.295858 324:0.59171599 325:0.295858 326:0.88757396 327:0.295858 328:0.295858 329:0.295858 331:0.295858 332:0.59171599 333:0.59171599 334:0.295858 337:0.295858 338:0.295858 339:0.295858 342:0.295858 344:0.295858 345:0.59171599 348:0.295858 352:0.295858 356:0.295858 357:0.295858 358:0.295858 362:0.295858 363:0.295858 365:0.295858 366:0.295858 368:0.59171599 370:1.183432 377:0.59171599 383:0.295858 390:0.295858 396:0.295858 466:0.1984127 611:0.1984127 676:0.3968254 733:0.1984127 850:0.1984127 934:0.1984127 1016:0.1984127 1018:0.1984127 1121:0.1984127 1139:0.1984127 1281:0.1984127 1334:0.1984127 1416:0.1984127 1452:0.1984127 1462:0.1984127 1468:0.1984127 1636:0.1984127 1710:0.1984127 1766:0.1984127 1776:0.1984127 1785:0.1984127 1859:0.1984127 1968:0.1984127 2046:0.1984127 2050:0.1984127 2102:0.1984127 2204:0.1984127 2210:0.1984127 2215:0.1984127 2218:0.1984127 2327:0.1984127 2433:0.1984127 2569:0.1984127 2590:0.1984127 2606:0.1984127 2616:0.1984127 2648:0.1984127 2650:0.1984127 2688:0.1984127 2698:0.1984127 2724:0.1984127 2733:0.1984127 2766:0.1984127 2770:0.3968254 3009:0.1984127 3230:0.1984127 3310:0.1984127 3329:0.1984127 3330:0.1984127 3332:0.1984127 3338:0.1984127 3396:0.1984127 3410:0.1984127 3476:0.1984127 3477:0.1984127 3497:0.1984127 3517:0.1984127 3526:0.1984127 3538:0.1984127 3710:0.1984127 3814:0.1984127 3816:0.1984127 3850:0.1984127 3925:0.1984127 4033:0.1984127 4070:0.1984127 4085:0.1984127 4089:0.1984127 4092:0.1984127 4121:0.1984127 4170:0.1984127 4192:0.1984127 4210:0.1984127 4214:0.1984127 4217:0.1984127 4219:0.1984127 4226:0.1984127 4283:0.1984127 4292:0.1984127 4310:0.1984127 4326:0.1984127 4329:0.1984127 4332:0.1984127 4337:0.1984127 4345:0.1984127 4352:0.1984127 4362:0.1984127 4363:0.1984127 4365:0.1984127 4377:0.1984127 4390:0.1984127 4528:0.1984127 4648:0.1984127 4777:0.1984127 4902:0.1984127 4938:0.1984127 4973:0.1984127 4974:0.1984127 4975:0.1984127 4976:0.1984127 5003:0.1984127 5004:0.1984127 5017:0.1984127 5045:0.1984127 5048:0.1984127 5052:0.1984127 5183:0.1984127 5256:0.1984127 5273:0.1984127 5366:0.1984127 5524:0.1984127 5528:0.1984127 5532:0.1984127 5534:0.1984127 5557:0.1984127 5672:0.1984127 5730:0.1984127 5773:0.1984127 5850:0.1984127 5958:0.1984127 5968:0.1984127 6218:0.1984127 6344:0.1984127 6423:0.1984127 6488:0.1984127 6498:0.1984127 6510:0.1984127 6532:0.1984127 6536:0.1984127 6538:0.1984127 6550:0.1984127 6566:0.1984127 6590:0.1984127 6638:0.1984127 6646:0.1984127 6652:0.1984127 6663:0.1984127 6676:0.1984127 6686:0.1984127 6756:0.1984127 6770:0.1984127 6796:0.1984127 6856:0.1984127 6888:0.1984127 6908:0.1984127 6916:0.1984127 6965:0.1984127 7048:0.1984127 7126:0.1984127 7145:0.1984127 7170:0.1984127 7242:0.1984127 7273:0.1984127 7305:0.1984127 7336:0.1984127 7361:0.1984127 7366:0.1984127 7401:0.1984127 7404:0.1984127 7410:0.1984127 7418:0.1984127 7542:0.1984127 7548:0.1984127 7664:0.1984127 7808:0.1984127 7931:0.1984127 8423:0.029411759 8425:0.01176471 8431:0.041176472 8434:0.01176471 8437:0.01176471 8441:0.00294 8442:4e-06 8443:1.4e-05 8444:0 8845:0.452941 8846:0.0025190001 8847:-1.1e-05 8848:9.9999997e-06 8849:-0 8850:0 8851:-0 8852:0 8853:-0 8854:0 8855:-0 8856:0 8857:-0 8858:0 8859:-0 8860:0 8861:-0 8862:0 8863:-0 8864:0.117647 #
6.4545048417819277375429010135122 1:0.03754266 2:0.02730375 3:0.051194541 4:0.040955629 5:0.068259388 6:0.075085327 7:0.02047782 8:0.071672358 9:0.047781572 10:0.12627986 11:0.01365188 12:0.054607511 13:0.054607511 14:0.03754266 15:0.044368599 16:0.098976113 17:0.044368599 18:0.044368599 19:0.02730375 20:0.01365188 22:0.34246576 24:0.17123288 25:0.34246576 28:0.17123288 34:0.17123288 35:0.17123288 36:0.34246576 40:0.17123288 42:0.17123288 43:0.17123288 45:0.17123288 46:0.34246576 53:0.34246576 56:0.17123288 61:0.17123288 62:0.17123288 64:0.17123288 68:0.34246576 69:0.34246576 70:0.68493152 72:0.17123288 74:0.17123288 75:0.17123288 77:0.17123288 81:0.17123288 88:0.68493152 89:0.17123288 92:0.17123288 95:0.34246576 96:0.17123288 99:0.34246576 102:0.17123288 103:0.17123288 104:0.17123288 105:0.34246576 106:0.17123288 107:0.17123288 108:0.17123288 109:0.34246576 110:0.51369864 114:0.17123288 116:0.34246576 117:0.51369864 118:0.17123288 123:0.51369864 124:0.17123288 125:0.17123288 128:0.34246576 130:0.34246576 132:0.17123288 134:0.34246576 135:0.34246576 136:0.17123288 137:0.17123288 138:0.17123288 139:0.34246576 140:0.51369864 144:0.17123288 145:0.17123288 146:0.17123288 150:0.17123288 154:0.17123288 156:0.17123288 161:0.34246576 163:0.17123288 165:0.17123288 166:0.8561644 169:0.17123288 170:0.17123288 173:0.68493152 175:0.34246576 176:0.34246576 178:0.34246576 181:0.17123288 185:0.17123288 188:0.17123288 189:0.51369864 192:0.17123288 193:0.17123288 194:0.17123288 195:0.17123288 196:0.34246576 198:0.34246576 201:0.51369864 202:0.34246576 203:0.34246576 204:0.17123288 205:0.34246576 206:0.8561644 207:0.17123288 208:0.17123288 210:0.68493152 212:0.51369864 213:0.17123288 216:1.1986301 217:0.51369864 218:0.34246576 224:0.17123288 226:0.17123288 230:0.34246576 241:0.17123288 245:0.34246576 247:0.17123288 249:0.17123288 250:0.68493152 251:0.17123288 252:0.34246576 253:0.17123288 254:0.17123288 256:0.17123288 258:0.17123288 263:0.17123288 264:0.34246576 265:0.17123288 266:0.17123288 269:0.17123288 270:0.34246576 273:0.68493152 274:0.17123288 275:0.17123288 276:0.34246576 283:0.17123288 284:0.17123288 285:0.34246576 286:0.17123288 290:0.34246576 292:0.17123288 293:0.17123288 295:0.17123288 303:0.34246576 304:0.17123288 306:0.17123288 307:0.17123288 308:0.17123288 310:0.17123288 311:0.17123288 312:0.17123288 313:0.17123288 316:0.34246576 318:0.17123288 323:0.17123288 324:0.17123288 325:0.34246576 326:0.34246576 328:0.34246576 329:0.34246576 330:0.51369864 332:0.51369864 334:0.34246576 336:0.68493152 337:0.34246576 338:0.34246576 339:0.51369864 342:0.17123288 345:0.17123288 346:0.17123288 347:0.17123288 348:0.34246576 350:0.34246576 352:0.17123288 353:0.17123288 355:0.17123288 356:0.17123288 357:0.17123288 361:0.17123288 363:0.17123288 366:0.17123288 368:0.34246576 369:0.17123288 370:0.34246576 375:0.17123288 377:0.34246576 378:0.17123288 379:0.17123288 383:0.17123288 385:0.17123288 387:0.17123288 388:0.17123288 390:0.34246576 391:0.17123288 392:0.17123288 401:0.17123288 408:0.17123288 410:0.34246576 446:0.11454754 453:0.11454754 499:0.11454754 504:0.11454754 506:0.11454754 569:0.11454754 693:0.11454754 706:0.11454754 726:0.11454754 730:0.11454754 808:0.11454754 856:0.11454754 872:0.11454754 910:0.11454754 925:0.11454754 937:0.11454754 1066:0.11454754 1073:0.11454754 1139:0.11454754 1234:0.11454754 1242:0.11454754 1288:0.11454754 1373:0.11454754 1376:0.11454754 1394:0.11454754 1398:0.11454754 1401:0.22909507 1416:0.22909507 1458:0.11454754 1495:0.11454754 1504:0.11454754 1550:0.11454754 1625:0.11454754 1766:0.11454754 1773:0.11454754 1775:0.11454754 1778:0.11454754 1793:0.11454754 1853:0.11454754 1907:0.11454754 1916:0.11454754 1939:0.11454754 1990:0.11454754 1991:0.11454754 2045:0.11454754 2075:0.11454754 2088:0.11454754 2110:0.11454754 2114:0.11454754 2140:0.11454754 2146:0.11454754 2166:0.11454754 2189:0.22909507 2205:0.11454754 2206:0.11454754 2207:0.11454754 2286:0.11454754 2324:0.11454754 2332:0.11454754 2355:0.11454754 2356:0.11454754 2357:0.11454754 2370:0.11454754 2461:0.11454754 2468:0.11454754 2470:0.11454754 2488:0.11454754 2517:0.11454754 2576:0.11454754 2578:0.11454754 2605:0.11454754 2612:0.11454754 2650:0.11454754 2684:0.11454754 2708:0.11454754 2713:0.11454754 2728:0.11454754 2753:0.11454754 2775:0.11454754 2787:0.11454754 2790:0.11454754 2801:0.11454754 2810:0.22909507 2896:0.11454754 2903:0.11454754 2934:0.11454754 3008:0.11454754 3085:0.11454754 3134:0.11454754 3225:0.11454754 3240:0.11454754 3270:0.11454754 3317:0.11454754 3328:0.11454754 3335:0.22909507 3336:0.11454754 3340:0.11454754 3385:0.11454754 3417:0.11454754 3464:0.11454754 3470:0.11454754 3474:0.11454754 3475:0.11454754 3510:0.11454754 3516:0.11454754 3528:0.11454754 3539:0.11454754 3568:0.22909507 3622:0.11454754 3707:0.11454754 3770:0.11454754 3789:0.11454754 3796:0.11454754 3798:0.11454754 3854:0.11454754 3869:0.11454754 3890:0.11454754 3912:0.11454754 3925:0.11454754 3938:0.11454754 3977:0.11454754 3978:0.11454754 4022:0.11454754 4035:0.11454754 4036:0.11454754 4046:0.11454754 4053:0.11454754 4064:0.11454754 4070:0.11454754 4095:0.11454754 4102:0.11454754 4105:0.11454754 4123:0.11454754 4130:0.11454754 4132:0.11454754 4139:0.11454754 4140:0.11454754 4156:0.11454754 4166:0.11454754 4210:0.22909507 4212:0.11454754 4218:0.11454754 4245:0.11454754 4250:0.22909507 4265:0.11454754 4326:0.11454754 4329:0.22909507 4332:0.11454754 4334:0.11454754 4336:0.11454754 4337:0.11454754 4348:0.11454754 4350:0.11454754 4352:0.11454754 4366:0.11454754 4369:0.11454754 4489:0.11454754 4539:0.11454754 4604:0.11454754 4616:0.11454754 4828:0.11454754 4905:0.11454754 4909:0.11454754 4950:0.11454754 4996:0.11454754 5006:0.11454754 5016:0.22909507 5017:0.11454754 5030:0.11454754 5047:0.11454754 5056:0.11454754 5076:0.11454754 5085:0.11454754 5125:0.11454754 5177:0.11454754 5274:0.11454754 5281:0.11454754 5299:0.11454754 5317:0.11454754 5323:0.11454754 5395:0.11454754 5416:0.11454754 5417:0.11454754 5463:0.11454754 5473:0.22909507 5476:0.11454754 5483:0.11454754 5518:0.11454754 5530:0.11454754 5536:0.11454754 5669:0.11454754 5688:0.11454754 5708:0.11454754 5710:0.11454754 5723:0.11454754 5813:0.11454754 5816:0.11454754 5845:0.11454754 5873:0.11454754 5903:0.11454754 6068:0.11454754 6077:0.11454754 6095:0.11454754 6138:0.11454754 6144:0.11454754 6173:0.11454754 6218:0.11454754 6230:0.11454754 6241:0.11454754 6264:0.11454754 6323:0.11454754 6338:0.11454754 6370:0.11454754 6470:0.11454754 6492:0.11454754 6516:0.11454754 6518:0.11454754 6524:0.11454754 6528:0.11454754 6561:0.11454754 6573:0.11454754 6581:0.11454754 6592:0.11454754 6602:0.22909507 6606:0.11454754 6651:0.11454754 6652:0.22909507 6690:0.11454754 6692:0.11454754 6730:0.11454754 6732:0.11454754 6736:0.11454754 6737:0.11454754 6745:0.11454754 6747:0.11454754 6761:0.11454754 6763:0.11454754 6783:0.11454754 6785:0.11454754 6792:0.11454754 6843:0.11454754 6916:0.11454754 6934:0.11454754 6945:0.11454754 6963:0.11454754 6965:0.11454754 7006:0.11454754 7010:0.11454754 7050:0.11454754 7070:0.11454754 7103:0.11454754 7136:0.11454754 7148:0.11454754 7224:0.11454754 7262:0.11454754 7330:0.11454754 7366:0.11454754 7375:0.11454754 7388:0.11454754 7403:0.11454754 7406:0.11454754 7511:0.11454754 7542:0.11454754 7546:0.11454754 7579:0.11454754 7588:0.11454754 7669:0.11454754 7709:0.11454754 7754:0.11454754 7766:0.11454754 7801:0.11454754 7803:0.11454754 7824:0.11454754 7849:0.11454754 8036:0.11454754 8161:0.11454754 8210:0.11454754 8212:0.11454754 8423:0.01365188 8425:0.0068259402 8431:0.02047782 8432:0.017064851 8434:0.01365188 8435:0.02047782 8436:0.02389079 8437:0.0068259402 8440:0.0068259402 8441:0.0074300002 8442:0.000106 8443:9.9999997e-05 8444:3.0000001e-06 8845:0.38907799 8846:0.0079859998 8847:-5.7000001e-05 8848:9.3000002e-05 8849:-1e-06 8850:1e-06 8851:-0 8852:0 8853:-0 8854:0 8855:-0 8856:0 8857:-0 8858:0 8859:-0 8860:0 8861:-0 8862:0 8863:-0 8864:0.18430001 #
2.0098350460419869278894111630507 1:0.046808511 2:0.02553191 3:0.029787229 4:0.029787229 5:0.072340429 6:0.076595753 7:0.021276601 8:0.051063828 9:0.051063828 10:0.12340426 11:0.01702128 12:0.063829787 13:0.046808511 14:0.029787229 15:0.02553191 16:0.12765957 17:0.046808511 18:0.055319149 19:0.01702128 20:0.04255319 21:0.42735043 25:0.21367522 27:0.21367522 28:0.42735043 29:0.21367522 36:0.85470086 41:0.21367522 49:0.21367522 50:0.42735043 57:0.21367522 59:0.21367522 65:0.21367522 66:0.21367522 67:0.21367522 68:0.21367522 70:0.42735043 73:0.21367522 82:0.21367522 85:0.42735043 86:0.21367522 94:0.21367522 96:0.21367522 97:0.21367522 101:0.21367522 104:0.21367522 105:0.85470086 106:0.42735043 108:0.21367522 113:0.42735043 115:0.21367522 116:0.42735043 117:0.21367522 120:0.42735043 121:0.21367522 124:0.21367522 126:0.21367522 127:0.21367522 129:0.21367522 130:0.42735043 132:0.42735043 133:0.21367522 136:0.42735043 137:0.21367522 138:0.42735043 139:0.21367522 140:0.42735043 150:0.42735043 152:0.64102566 161:0.21367522 162:0.21367522 165:0.42735043 168:0.21367522 170:0.21367522 172:0.42735043 173:0.64102566 176:0.21367522 181:0.21367522 185:0.21367522 186:0.21367522 188:0.21367522 189:0.21367522 190:0.21367522 194:0.21367522 195:0.21367522 196:0.42735043 197:0.42735043 202:0.21367522 203:0.64102566 206:0.42735043 209:0.85470086 210:0.64102566 212:0.42735043 213:0.21367522 214:0.42735043 215:0.21367522 216:0.85470086 217:0.42735043 218:0.64102566 220:0.21367522 221:0.21367522 224:0.21367522 238:0.21367522 240:0.21367522 242:0.21367522 243:0.21367522 245:0.21367522 248:0.21367522 250:0.64102566 251:0.21367522 252:0.42735043 255:0.21367522 259:0.42735043 260:0.42735043 261:0.21367522 263:0.21367522 269:0.21367522 275:0.21367522 276:0.85470086 278:0.42735043 280:0.21367522 283:0.21367522 285:0.21367522 289:0.21367522 290:0.21367522 292:0.21367522 293:0.21367522 294:0.21367522 310:0.21367522 316:0.42735043 318:0.42735043 322:0.21367522 324:0.64102566 325:0.42735043 326:0.42735043 327:0.42735043 328:0.42735043 329:0.42735043 330:0.85470086 331:0.42735043 332:0.64102566 333:0.21367522 334:0.21367522 336:0.42735043 337:0.21367522 338:0.42735043 341:0.21367522 343:0.21367522 346:0.42735043 348:0.21367522 350:0.64102566 354:0.21367522 355:0.21367522 356:0.21367522 361:0.21367522 362:0.21367522 364:0.21367522 366:0.64102566 370:0.42735043 373:0.21367522 376:0.42735043 377:0.42735043 385:0.42735043 386:0.21367522 388:0.21367522 406:0.42735043 408:0.21367522 410:0.42735043 416:0.64102566 418:0.21367522 420:0.21367522 425:0.14306152 436:0.14306152 505:0.14306152 550:0.14306152 565:0.14306152 568:0.14306152 590:0.14306152 728:0.14306152 730:0.14306152 732:0.14306152 738:0.14306152 828:0.14306152 985:0.14306152 1009:0.14306152 1015:0.14306152 1156:0.14306152 1186:0.14306152 1320:0.14306152 1333:0.14306152 1352:0.14306152 1372:0.14306152 1403:0.14306152 1416:0.14306152 1469:0.14306152 1659:0.14306152 1705:0.14306152 1713:0.14306152 1740:0.14306152 1892:0.14306152 1930:0.14306152 1943:0.14306152 2036:0.14306152 2097:0.14306152 2106:0.14306152 2113:0.14306152 2115:0.14306152 2116:0.14306152 2132:0.14306152 2138:0.14306152 2173:0.14306152 2276:0.14306152 2278:0.14306152 2316:0.14306152 2325:0.14306152 2338:0.14306152 2346:0.14306152 2416:0.14306152 2418:0.14306152 2436:0.14306152 2485:0.14306152 2540:0.14306152 2550:0.14306152 2597:0.14306152 2606:0.14306152 2609:0.14306152 2652:0.14306152 2660:0.14306152 2678:0.14306152 2724:0.14306152 2736:0.14306152 2748:0.14306152 2764:0.14306152 2777:0.14306152 2785:0.14306152 2806:0.14306152 2808:0.14306152 3013:0.14306152 3016:0.14306152 3043:0.14306152 3052:0.14306152 3059:0.14306152 3221:0.14306152 3249:0.14306152 3305:0.14306152 3306:0.14306152 3361:0.14306152 3417:0.14306152 3442:0.14306152 3450:0.14306152 3461:0.14306152 3476:0.14306152 3480:0.14306152 3537:0.14306152 3627:0.14306152 3705:0.14306152 3724:0.14306152 3770:0.14306152 3795:0.14306152 3818:0.14306152 3893:0.14306152 3916:0.14306152 3930:0.14306152 3934:0.14306152 3950:0.14306152 3954:0.14306152 4057:0.14306152 4066:0.14306152 4067:0.14306152 4070:0.14306152 4126:0.14306152 4136:0.14306152 4186:0.14306152 4196:0.28612304 4197:0.14306152 4203:0.14306152 4210:0.14306152 4218:0.14306152 4250:0.14306152 4260:0.14306152 4276:0.14306152 4283:0.14306152 4294:0.14306152 4318:0.14306152 4327:0.14306152 4328:0.14306152 4332:0.28612304 4346:0.14306152 4355:0.14306152 4362:0.14306152 4376:0.14306152 4377:0.14306152 4406:0.14306152 4428:0.14306152 4496:0.14306152 4761:0.14306152 4820:0.14306152 4850:0.14306152 4870:0.14306152 4901:0.14306152 4973:0.14306152 5006:0.14306152 5017:0.14306152 5020:0.14306152 5040:0.14306152 5045:0.14306152 5050:0.14306152 5118:0.14306152 5185:0.14306152 5188:0.14306152 5216:0.28612304 5236:0.14306152 5265:0.14306152 5381:0.14306152 5510:0.14306152 5524:0.14306152 5526:0.28612304 5529:0.14306152 5566:0.14306152 5573:0.14306152 5610:0.14306152 5673:0.14306152 5716:0.14306152 5794:0.14306152 5814:0.14306152 5855:0.14306152 5876:0.14306152 5885:0.14306152 6214:0.14306152 6322:0.14306152 6329:0.14306152 6370:0.28612304 6450:0.14306152 6485:0.14306152 6486:0.14306152 6494:0.14306152 6504:0.14306152 6508:0.14306152 6530:0.14306152 6538:0.14306152 6552:0.28612304 6572:0.14306152 6576:0.14306152 6588:0.14306152 6589:0.14306152 6609:0.14306152 6612:0.28612304 6616:0.14306152 6621:0.14306152 6624:0.14306152 6648:0.14306152 6651:0.14306152 6659:0.14306152 6675:0.14306152 6690:0.14306152 6730:0.14306152 6733:0.14306152 6741:0.14306152 6766:0.14306152 6776:0.14306152 6821:0.14306152 6868:0.14306152 6927:0.14306152 6932:0.14306152 6973:0.14306152 7002:0.14306152 7003:0.14306152 7010:0.14306152 7089:0.14306152 7131:0.14306152 7229:0.14306152 7241:0.14306152 7282:0.14306152 7321:0.14306152 7329:0.14306152 7339:0.14306152 7410:0.14306152 7416:0.14306152 7463:0.14306152 7527:0.14306152 7536:0.14306152 7550:0.28612304 7717:0.14306152 7720:0.14306152 7736:0.14306152 7765:0.14306152 8130:0.14306152 8137:0.14306152 8162:0.14306152 8209:0.14306152 8218:0.14306152 8324:0.14306152 8325:0.14306152 8331:0.14306152 8366:0.14306152 8410:0.14306152 8421:0.01702128 8423:0.01702128 8426:0.0085106399 8428:0.0085106399 8430:0.0085106399 8431:0.021276601 8432:0.0085106399 8434:0.034042548 8436:0.01702128 8439:0.0085106399 8441:0.0050320001 8442:4e-06 8443:4.3e-05 8444:0 8845:0.391489 8846:0.0060419999 8847:9.9999997e-05 8848:5.7000001e-05 8849:2e-06 8850:1e-06 8851:0 8852:0 8853:0 8854:0 8855:0 8856:0 8857:0 8858:0 8859:0 8860:0 8861:0 8862:0 8863:0 8864:0.13617 #
-0.76743690270227782335155097825918 1:0.04559271 2:0.02431611 3:0.04559271 4:0.066869304 5:0.04255319 6:0.027355621 7:0.021276601 8:0.039513681 9:0.060790271 10:0.10638298 11:0.030395141 12:0.10334346 13:0.036474161 14:0.066869304 15:0.033434652 16:0.13981763 17:0.036474161 18:0.036474161 19:0.00303951 20:0.033434652 22:0.15243903 28:0.15243903 29:0.15243903 30:0.60975611 33:0.15243903 36:0.76219511 37:0.15243903 38:0.15243903 43:0.15243903 46:0.30487806 51:0.15243903 52:0.15243903 56:0.15243903 57:0.15243903 58:0.15243903 61:0.15243903 65:0.15243903 66:0.15243903 67:0.30487806 68:0.45731708 70:0.15243903 72:0.45731708 74:0.30487806 80:0.15243903 81:0.30487806 83:0.15243903 84:0.15243903 85:0.15243903 89:0.30487806 90:0.60975611 93:0.15243903 94:0.30487806 95:0.30487806 96:0.45731708 97:0.30487806 98:0.15243903 110:0.30487806 111:0.30487806 112:0.30487806 114:0.15243903 115:0.15243903 116:0.45731708 117:0.15243903 118:0.30487806 122:0.15243903 123:0.30487806 124:0.15243903 130:0.30487806 133:0.15243903 140:0.30487806 146:0.15243903 149:0.15243903 154:0.15243903 156:0.30487806 158:0.30487806 161:0.15243903 163:0.15243903 164:0.15243903 165:0.15243903 169:0.15243903 170:0.15243903 171:0.15243903 173:0.30487806 175:0.30487806 177:0.15243903 180:0.15243903 181:0.30487806 183:0.15243903 184:0.15243903 187:0.15243903 188:0.15243903 189:0.60975611 192:0.15243903 193:0.15243903 194:0.15243903 195:0.15243903 196:0.30487806 197:0.30487806 198:0.30487806 201:0.30487806 202:0.45731708 204:0.60975611 205:0.30487806 208:0.15243903 209:0.45731708 210:0.45731708 211:0.30487806 212:0.60975611 213:0.15243903 214:0.15243903 215:0.30487806 216:0.76219511 220:0.15243903 221:0.15243903 222:0.15243903 225:0.30487806 229:0.15243903 232:0.15243903 233:0.15243903 234:0.15243903 236:0.15243903 240:0.15243903 243:0.15243903 244:0.15243903 245:0.45731708 246:0.15243903 247:0.15243903 248:0.15243903 249:0.30487806 250:0.45731708 251:0.30487806 252:1.3719512 253:0.15243903 254:0.45731708 255:0.15243903 256:0.30487806 257:0.15243903 260:0.30487806 261:0.15243903 262:0.15243903 263:0.30487806 264:0.15243903 267:0.30487806 270:0.15243903 273:0.15243903 276:0.30487806 278:0.15243903 283:0.30487806 284:0.76219511 285:0.15243903 287:0.15243903 288:0.45731708 289:0.15243903 290:0.15243903 292:0.45731708 294:0.15243903 296:0.45731708 297:0.15243903 304:0.30487806 305:0.15243903 308:0.15243903 309:0.30487806 310:0.30487806 315:0.15243903 316:0.15243903 320:0.15243903 321:0.76219511 323:0.15243903 324:0.30487806 325:0.15243903 326:0.30487806 329:0.15243903 330:1.2195122 331:0.15243903 332:0.91463417 334:0.91463417 336:1.3719512 337:0.15243903 338:0.30487806 340:0.15243903 348:0.15243903 349:0.15243903 350:0.45731708 352:0.30487806 354:0.30487806 356:0.30487806 359:0.15243903 362:0.15243903 364:0.30487806 368:0.15243903 372:0.15243903 373:0.15243903 374:0.15243903 375:0.15243903 376:0.45731708 377:0.15243903 393:0.15243903 403:0.45731708 404:0.15243903 405:0.15243903 406:0.30487806 412:0.15243903 416:0.30487806 420:0.15243903 458:0.1019368 575:0.1019368 588:0.1019368 610:0.2038736 615:0.2038736 661:0.1019368 724:0.1019368 732:0.2038736 736:0.1019368 737:0.1019368 750:0.1019368 774:0.1019368 868:0.1019368 940:0.2038736 1036:0.1019368 1060:0.1019368 1132:0.1019368 1150:0.1019368 1168:0.1019368 1237:0.1019368 1310:0.1019368 1324:0.1019368 1354:0.1019368 1356:0.1019368 1361:0.1019368 1364:0.1019368 1377:0.1019368 1409:0.1019368 1443:0.1019368 1448:0.1019368 1456:0.1019368 1492:0.2038736 1605:0.1019368 1622:0.1019368 1630:0.1019368 1668:0.1019368 1696:0.1019368 1716:0.1019368 1789:0.1019368 1798:0.1019368 1802:0.2038736 1809:0.2038736 1867:0.1019368 1892:0.1019368 1896:0.1019368 1904:0.1019368 1908:0.1019368 1926:0.1019368 1934:0.1019368 1938:0.1019368 1948:0.1019368 1949:0.1019368 1962:0.1019368 2212:0.1019368 2232:0.1019368 2240:0.1019368 2254:0.2038736 2287:0.1019368 2309:0.1019368 2321:0.2038736 2330:0.1019368 2356:0.1019368 2364:0.1019368 2376:0.1019368 2456:0.1019368 2461:0.1019368 2472:0.1019368 2490:0.1019368 2611:0.2038736 2663:0.1019368 2803:0.1019368 2804:0.1019368 2923:0.1019368 2984:0.1019368 3096:0.1019368 3121:0.1019368 3125:0.1019368 3173:0.1019368 3176:0.1019368 3230:0.1019368 3272:0.1019368 3281:0.1019368 3315:0.1019368 3383:0.1019368 3416:0.1019368 3429:0.1019368 3470:0.1019368 3478:0.1019368 3505:0.1019368 3516:0.1019368 3552:0.1019368 3620:0.1019368 3629:0.1019368 3636:0.1019368 3672:0.1019368 3697:0.1019368 3749:0.1019368 3769:0.1019368 3781:0.1019368 3789:0.1019368 3792:0.1019368 3796:0.1019368 3849:0.1019368 3863:0.1019368 3884:0.1019368 3910:0.1019368 3934:0.1019368 3938:0.1019368 3952:0.1019368 3959:0.1019368 3964:0.1019368 3975:0.1019368 4036:0.2038736 4043:0.1019368 4052:0.1019368 4057:0.1019368 4089:0.1019368 4093:0.1019368 4094:0.1019368 4097:0.1019368 4111:0.1019368 4117:0.1019368 4163:0.1019368 4195:0.1019368 4196:0.1019368 4197:0.1019368 4204:0.1019368 4208:0.1019368 4214:0.1019368 4233:0.1019368 4234:0.1019368 4244:0.1019368 4249:0.1019368 4252:0.1019368 4253:0.1019368 4276:0.1019368 4284:0.1019368 4315:0.1019368 4320:0.1019368 4321:0.1019368 4330:0.1019368 4332:0.1019368 4334:0.2038736 4403:0.1019368 4428:0.1019368 4451:0.1019368 4510:0.1019368 4511:0.1019368 4594:0.1019368 4652:0.1019368 4667:0.1019368 4694:0.1019368 4732:0.1019368 4812:0.1019368 4870:0.1019368 4881:0.1019368 4912:0.2038736 4914:0.1019368 4923:0.1019368 4946:0.1019368 4970:0.1019368 4989:0.1019368 4997:0.1019368 5004:0.1019368 5005:0.1019368 5010:0.1019368 5022:0.1019368 5025:0.1019368 5045:0.1019368 5046:0.1019368 5050:0.1019368 5052:0.40774721 5054:0.1019368 5060:0.1019368 5076:0.1019368 5083:0.1019368 5084:0.1019368 5097:0.1019368 5110:0.1019368 5131:0.1019368 5136:0.1019368 5154:0.1019368 5203:0.1019368 5206:0.1019368 5238:0.1019368 5246:0.1019368 5266:0.1019368 5267:0.1019368 5295:0.1019368 5358:0.2038736 5416:0.1019368 5464:0.1019368 5534:0.1019368 5536:0.1019368 5576:0.1019368 5667:0.1019368 5680:0.1019368 5684:0.1019368 5685:0.1019368 5690:0.1019368 5696:0.1019368 5698:0.1019368 5716:0.1019368 5756:0.1019368 5771:0.1019368 5773:0.2038736 5787:0.1019368 5812:0.1019368 5850:0.1019368 5851:0.2038736 5884:0.1019368 5924:0.1019368 5930:0.2038736 5954:0.1019368 6089:0.1019368 6095:0.1019368 6118:0.1019368 6175:0.1019368 6181:0.1019368 6189:0.1019368 6204:0.1019368 6216:0.1019368 6309:0.1019368 6330:0.1019368 6416:0.1019368 6430:0.2038736 6433:0.1019368 6436:0.2038736 6468:0.1019368 6490:0.2038736 6518:0.1019368 6522:0.1019368 6530:0.1019368 6598:0.1019368 6601:0.2038736 6604:0.1019368 6605:0.1019368 6612:0.2038736 6613:0.1019368 6616:0.1019368 6625:0.1019368 6645:0.2038736 6652:0.1019368 6655:0.1019368 6656:0.1019368 6657:0.1019368 6685:0.1019368 6688:0.30581039 6689:0.1019368 6690:0.1019368 6726:0.1019368 6730:0.1019368 6736:0.61162078 6740:0.1019368 6756:0.1019368 6772:0.1019368 6777:0.1019368 6816:0.1019368 6965:0.1019368 6993:0.1019368 7002:0.1019368 7016:0.1019368 7020:0.1019368 7050:0.1019368 7052:0.1019368 7083:0.1019368 7096:0.1019368 7123:0.1019368 7130:0.1019368 7193:0.1019368 7246:0.1019368 7283:0.1019368 7296:0.1019368 7380:0.1019368 7452:0.1019368 7462:0.1019368 7484:0.1019368 7504:0.1019368 7521:0.1019368 7529:0.1019368 7532:0.1019368 7550:0.1019368 7873:0.1019368 8065:0.1019368 8074:0.2038736 8094:0.1019368 8116:0.1019368 8130:0.1019368 8133:0.1019368 8247:0.1019368 8330:0.1019368 8334:0.1019368 8406:0.1019368 8422:0.0060790302 8423:0.04255319 8426:0.0060790302 8427:0.0060790302 8431:0.01823708 8432:0.021276601 8435:0.0060790302 8436:0.036474161 8439:0.0060790302 8441:0.0095279999 8442:-7.5999997e-05 8443:0.00016 8444:-2e-06 8845:0.32522801 8846:0.0060319998 8847:0.00035799999 8848:9.8999997e-05 8849:1.1e-05 8850:2e-06 8851:0 8852:0 8853:0 8854:0 8855:0 8856:0 8857:0 8858:0 8859:0 8860:0 8861:0 8862:0 8863:0 8864:0.206687 #
-3.8670310920173527335919061442837 1:0.099656358 2:0.0137457 3:0.025773199 4:0.027491409 5:0.056701031 6:0.080756024 7:0.01890034 8:0.06185567 9:0.027491409 10:0.12886597 11:0.030927841 12:0.032646049 13:0.041237108 14:0.025773199 15:0.060137458 16:0.092783503 17:0.054982819 18:0.072164953 19:0.027491409 20:0.02061856 21:0.5163511 23:0.17211704 24:0.17211704 25:0.08605852 26:0.43029261 28:0.43029261 29:0.08605852 30:0.77452666 31:0.25817555 32:0.17211704 33:0.17211704 34:0.17211704 35:0.25817555 36:0.17211704 37:0.34423408 38:0.43029261 39:0.25817555 43:0.08605852 46:0.08605852 50:0.08605852 51:0.08605852 52:0.08605852 56:0.17211704 60:0.08605852 61:0.08605852 64:0.08605852 65:0.17211704 70:0.25817555 75:0.43029261 76:0.08605852 77:0.08605852 78:0.08605852 84:0.08605852 85:0.08605852 86:0.08605852 88:0.08605852 90:0.25817555 92:0.08605852 95:0.34423408 97:0.17211704 100:0.17211704 101:0.08605852 103:0.08605852 105:0.5163511 106:0.17211704 107:0.08605852 108:0.25817555 110:0.34423408 112:0.08605852 113:0.08605852 114:0.17211704 116:0.34423408 117:0.17211704 118:0.25817555 119:0.08605852 120:0.08605852 121:0.08605852 123:0.08605852 124:0.08605852 125:0.68846816 126:0.34423408 128:0.5163511 129:0.08605852 130:0.43029261 131:0.08605852 132:0.17211704 133:0.17211704 135:0.17211704 136:0.17211704 137:0.34423408 138:0.34423408 139:0.08605852 140:0.17211704 146:0.17211704 147:0.08605852 150:0.08605852 152:0.08605852 153:0.08605852 155:0.25817555 156:0.08605852 158:0.08605852 161:0.34423408 163:0.08605852 165:0.17211704 166:0.25817555 167:0.17211704 169:0.08605852 170:0.43029261 171:0.08605852 172:0.08605852 173:0.25817555 174:0.08605852 175:0.08605852 176:0.08605852 177:0.25817555 178:0.34423408 180:0.25817555 185:0.08605852 188:0.17211704 190:0.08605852 191:0.08605852 194:0.43029261 195:0.08605852 196:0.25817555 198:0.17211704 201:0.77452666 202:0.25817555 204:0.08605852 205:0.08605852 206:0.25817555 207:0.08605852 208:0.34423408 209:0.34423408 210:1.0327022 211:0.17211704 213:0.25817555 214:0.08605852 215:0.25817555 216:0.94664371 217:0.60240966 218:0.43029261 219:0.34423408 220:0.08605852 221:0.25817555 222:0.17211704 226:0.08605852 227:0.08605852 230:0.17211704 231:0.08605852 232:0.08605852 233:0.17211704 234:0.08605852 236:0.17211704 238:0.17211704 241:0.25817555 245:0.08605852 248:0.08605852 249:0.08605852 250:0.25817555 251:0.08605852 252:0.08605852 255:0.25817555 256:0.25817555 257:0.08605852 258:0.08605852 262:0.08605852 263:0.08605852 264:0.25817555 265:0.17211704 266:0.08605852 268:0.25817555 270:0.17211704 272:0.08605852 273:0.17211704 274:0.08605852 275:0.08605852 276:0.08605852 277:0.25817555 279:0.17211704 281:0.08605852 283:0.08605852 284:0.08605852 286:0.17211704 288:0.08605852 289:0.08605852 290:0.25817555 293:0.17211704 296:0.25817555 301:0.34423408 303:0.08605852 304:0.08605852 306:0.17211704 307:0.25817555 308:0.08605852 309:0.25817555 310:0.25817555 312:0.17211704 315:0.43029261 316:0.17211704 317:0.08605852 318:0.43029261 319:0.08605852 320:0.08605852 321:0.43029261 322:0.17211704 323:0.17211704 324:0.25817555 325:0.34423408 326:0.34423408 327:0.08605852 328:0.43029261 329:0.17211704 330:0.60240966 331:0.17211704 332:0.17211704 333:0.17211704 334:0.08605852 335:0.17211704 336:0.34423408 337:0.08605852 338:0.25817555 339:0.17211704 341:0.5163511 343:0.08605852 344:0.08605852 345:0.08605852 346:0.34423408 349:0.08605852 350:0.34423408 351:0.08605852 353:0.17211704 355:0.17211704 356:0.43029261 357:0.17211704 358:0.08605852 359:0.08605852 361:0.86058521 363:0.25817555 364:0.08605852 366:0.60240966 368:0.25817555 369:0.08605852 370:0.08605852 371:0.17211704 372:0.17211704 373:0.17211704 374:0.08605852 376:0.08605852 377:0.08605852 378:0.43029261 379:0.08605852 380:0.08605852 381:0.25817555 385:0.17211704 386:0.25817555 390:0.25817555 391:0.08605852 396:0.34423408 401:0.08605852 405:0.08605852 406:0.17211704 407:0.08605852 408:0.08605852 410:0.25817555 412:0.08605852 416:0.17211704 423:0.05747126 424:0.05747126 428:0.05747126 435:0.05747126 439:0.05747126 475:0.05747126 476:0.05747126 486:0.05747126 490:0.05747126 517:0.05747126 525:0.1724138 526:0.05747126 537:0.05747126 567:0.05747126 570:0.11494253 578:0.11494253 594:0.05747126 601:0.11494253 602:0.05747126 605:0.05747126 608:0.05747126 609:0.05747126 610:0.05747126 613:0.05747126 619:0.05747126 621:0.05747126 630:0.05747126 638:0.05747126 655:0.05747126 656:0.05747126 663:0.05747126 664:0.05747126 683:0.05747126 693:0.05747126 701:0.05747126 715:0.05747126 719:0.05747126 721:0.05747126 728:0.05747126 745:0.05747126 746:0.11494253 756:0.05747126 761:0.05747126 766:0.11494253 768:0.05747126 773:0.05747126 785:0.05747126 786:0.05747126 790:0.05747126 870:0.05747126 928:0.05747126 1017:0.05747126 1032:0.05747126 1041:0.05747126 1123:0.05747126 1126:0.05747126 1216:0.05747126 1235:0.05747126 1297:0.05747126 1303:0.05747126 1307:0.05747126 1401:0.05747126 1402:0.05747126 1410:0.05747126 1501:0.05747126 1507:0.05747126 1515:0.05747126 1518:0.05747126 1520:0.05747126 1536:0.05747126 1557:0.05747126 1566:0.05747126 1697:0.05747126 1708:0.05747126 1738:0.05747126 1761:0.05747126 1804:0.05747126 1810:0.05747126 1817:0.05747126 1849:0.05747126 1903:0.05747126 1916:0.05747126 1918:0.11494253 1941:0.05747126 1943:0.05747126 2008:0.05747126 2016:0.05747126 2032:0.05747126 2077:0.05747126 2101:0.05747126 2105:0.1724138 2118:0.11494253 2130:0.05747126 2135:0.05747126 2152:0.05747126 2166:0.05747126 2170:0.05747126 2177:0.05747126 2208:0.05747126 2217:0.05747126 2219:0.11494253 2256:0.05747126 2273:0.05747126 2286:0.05747126 2290:0.05747126 2321:0.05747126 2324:0.05747126 2326:0.05747126 2327:0.05747126 2346:0.11494253 2364:0.05747126 2368:0.11494253 2396:0.05747126 2412:0.05747126 2426:0.05747126 2475:0.05747126 2495:0.05747126 2505:0.11494253 2508:0.11494253 2510:0.11494253 2514:0.05747126 2519:0.05747126 2528:0.11494253 2529:0.05747126 2537:0.05747126 2561:0.11494253 2573:0.11494253 2578:0.05747126 2580:0.05747126 2598:0.05747126 2609:0.05747126 2610:0.05747126 2611:0.05747126 2616:0.05747126 2617:0.05747126 2622:0.05747126 2657:0.05747126 2658:0.05747126 2665:0.05747126 2666:0.05747126 2710:0.05747126 2718:0.05747126 2722:0.05747126 2725:0.05747126 2750:0.11494253 2756:0.05747126 2758:0.05747126 2761:0.1724138 2770:0.05747126 2796:0.05747126 2810:0.11494253 2923:0.05747126 2931:0.05747126 2955:0.05747126 3006:0.05747126 3055:0.05747126 3074:0.05747126 3101:0.05747126 3107:0.05747126 3110:0.05747126 3139:0.05747126 3172:0.05747126 3226:0.05747126 3230:0.05747126 3231:0.05747126 3233:0.05747126 3265:0.05747126 3305:0.05747126 3306:0.05747126 3325:0.05747126 3330:0.05747126 3333:0.05747126 3346:0.05747126 3355:0.05747126 3394:0.05747126 3410:0.05747126 3411:0.05747126 3416:0.05747126 3417:0.05747126 3420:0.05747126 3434:0.05747126 3450:0.05747126 3473:0.05747126 3475:0.05747126 3476:0.05747126 3496:0.05747126 3515:0.05747126 3533:0.05747126 3549:0.05747126 3550:0.05747126 3556:0.05747126 3561:0.05747126 3566:0.05747126 3573:0.05747126 3574:0.05747126 3601:0.05747126 3605:0.05747126 3606:0.05747126 3717:0.05747126 3767:0.05747126 3771:0.05747126 3810:0.05747126 3833:0.05747126 3881:0.05747126 3889:0.05747126 3890:0.11494253 3893:0.05747126 3912:0.05747126 3924:0.05747126 3925:0.11494253 3978:0.11494253 4021:0.11494253 4026:0.05747126 4030:0.1724138 4037:0.05747126 4038:0.11494253 4046:0.05747126 4052:0.05747126 4056:0.05747126 4100:0.05747126 4120:0.05747126 4125:0.05747126 4132:0.05747126 4136:0.05747126 4146:0.05747126 4166:0.05747126 4172:0.05747126 4175:0.05747126 4176:0.05747126 4185:0.05747126 4188:0.05747126 4194:0.05747126 4196:0.05747126 4201:0.05747126 4202:0.05747126 4206:0.05747126 4208:0.05747126 4210:0.11494253 4216:0.1724138 4217:0.05747126 4218:0.11494253 4230:0.05747126 4236:0.05747126 4262:0.05747126 4264:0.05747126 4277:0.05747126 4284:0.05747126 4310:0.05747126 4315:0.05747126 4318:0.05747126 4321:0.11494253 4326:0.05747126 4328:0.05747126 4329:0.05747126 4330:0.11494253 4333:0.05747126 4335:0.05747126 4337:0.05747126 4339:0.05747126 4341:0.1724138 4353:0.05747126 4355:0.05747126 4356:0.05747126 4357:0.05747126 4361:0.11494253 4363:0.05747126 4377:0.05747126 4379:0.05747126 4381:0.05747126 4386:0.05747126 4390:0.05747126 4396:0.05747126 4410:0.05747126 4425:0.05747126 4426:0.05747126 4439:0.05747126 4450:0.05747126 4460:0.05747126 4530:0.05747126 4556:0.05747126 4601:0.05747126 4616:0.05747126 4621:0.05747126 4652:0.05747126 4668:0.05747126 4677:0.05747126 4696:0.05747126 4734:0.05747126 4738:0.05747126 4761:0.05747126 4766:0.05747126 4823:0.05747126 4830:0.05747126 4837:0.05747126 4916:0.05747126 4980:0.05747126 4995:0.05747126 5009:0.05747126 5013:0.05747126 5014:0.05747126 5038:0.05747126 5051:0.05747126 5109:0.05747126 5112:0.05747126 5116:0.05747126 5130:0.05747126 5131:0.05747126 5138:0.05747126 5156:0.05747126 5178:0.05747126 5251:0.05747126 5275:0.05747126 5284:0.05747126 5295:0.05747126 5300:0.05747126 5306:0.05747126 5318:0.05747126 5328:0.05747126 5361:0.05747126 5370:0.05747126 5380:0.05747126 5416:0.05747126 5418:0.05747126 5445:0.05747126 5465:0.05747126 5477:0.05747126 5488:0.05747126 5507:0.05747126 5530:0.05747126 5544:0.05747126 5550:0.05747126 5559:0.05747126 5581:0.05747126 5596:0.05747126 5621:0.05747126 5664:0.05747126 5688:0.05747126 5725:0.05747126 5726:0.05747126 5777:0.05747126 5794:0.05747126 5806:0.05747126 5810:0.05747126 5815:0.05747126 5870:0.05747126 5872:0.05747126 5928:0.05747126 5936:0.11494253 6028:0.05747126 6031:0.05747126 6036:0.05747126 6038:0.05747126 6075:0.05747126 6092:0.05747126 6137:0.05747126 6139:0.05747126 6147:0.05747126 6153:0.05747126 6155:0.05747126 6173:0.05747126 6188:0.05747126 6190:0.05747126 6194:0.05747126 6210:0.05747126 6215:0.05747126 6218:0.05747126 6241:0.11494253 6306:0.05747126 6308:0.05747126 6309:0.05747126 6315:0.05747126 6317:0.05747126 6332:0.05747126 6335:0.05747126 6353:0.05747126 6363:0.05747126 6369:0.05747126 6376:0.05747126 6378:0.11494253 6385:0.05747126 6406:0.05747126 6430:0.05747126 6433:0.05747126 6437:0.05747126 6438:0.05747126 6439:0.05747126 6443:0.05747126 6456:0.05747126 6461:0.05747126 6470:0.05747126 6485:0.05747126 6490:0.05747126 6495:0.05747126 6510:0.05747126 6514:0.05747126 6516:0.11494253 6525:0.05747126 6528:0.05747126 6535:0.05747126 6538:0.05747126 6550:0.05747126 6563:0.05747126 6565:0.05747126 6566:0.05747126 6574:0.05747126 6577:0.05747126 6591:0.05747126 6596:0.05747126 6601:0.11494253 6609:0.05747126 6613:0.05747126 6616:0.11494253 6619:0.05747126 6627:0.05747126 6631:0.05747126 6650:0.05747126 6655:0.05747126 6668:0.11494253 6686:0.05747126 6701:0.05747126 6706:0.05747126 6721:0.05747126 6725:0.05747126 6728:0.05747126 6730:0.05747126 6755:0.05747126 6761:0.05747126 6763:0.05747126 6780:0.05747126 6786:0.05747126 6791:0.05747126 6821:0.11494253 6826:0.05747126 6828:0.05747126 6829:0.05747126 6834:0.05747126 6878:0.05747126 6895:0.05747126 6910:0.05747126 6924:0.05747126 6926:0.05747126 6932:0.05747126 6940:0.05747126 6996:0.05747126 7001:0.05747126 7015:0.05747126 7017:0.05747126 7018:0.05747126 7022:0.05747126 7064:0.05747126 7079:0.05747126 7104:0.05747126 7109:0.05747126 7124:0.05747126 7128:0.05747126 7132:0.05747126 7136:0.05747126 7138:0.05747126 7141:0.11494253 7166:0.05747126 7181:0.05747126 7224:0.05747126 7228:0.11494253 7230:0.11494253 7231:0.05747126 7232:0.05747126 7234:0.05747126 7235:0.05747126 7236:0.05747126 7265:0.05747126 7270:0.05747126 7275:0.05747126 7290:0.05747126 7321:0.05747126 7328:0.05747126 7330:0.11494253 7336:0.05747126 7337:0.05747126 7338:0.05747126 7365:0.05747126 7370:0.05747126 7378:0.05747126 7398:0.05747126 7407:0.05747126 7421:0.05747126 7436:0.05747126 7450:0.05747126 7456:0.05747126 7470:0.05747126 7479:0.05747126 7496:0.05747126 7522:0.05747126 7551:0.05747126 7561:0.05747126 7566:0.05747126 7571:0.11494253 7572:0.05747126 7590:0.05747126 7607:0.05747126 7621:0.05747126 7630:0.05747126 7638:0.05747126 7713:0.05747126 7716:0.05747126 7725:0.05747126 7738:0.05747126 7740:0.05747126 7810:0.05747126 7816:0.11494253 7833:0.05747126 7923:0.05747126 7929:0.05747126 7930:0.05747126 7931:0.05747126 8037:0.05747126 8112:0.05747126 8126:0.05747126 8133:0.05747126 8158:0.05747126 8169:0.05747126 8201:0.05747126 8208:0.05747126 8210:0.05747126 8248:0.05747126 8326:0.05747126 8330:0.05747126 8421:0.02061856 8422:0.01546392 8423:0.0034364299 8427:0.0034364299 8428:0.0137457 8429:0.0034364299 8431:0.037800688 8433:0.0034364299 8434:0.01546392 8435:0.00687285 8436:0.0137457 8437:0.00687285 8440:0.01718213 8441:0.028912 8442:-0.00021499999 8443:0.001514 8444:-3.7999998e-05 8845:0.463918 8846:0.027649 8847:0.0024349999 8848:0.001574 8849:0.000306 8850:0.000128 8851:3.4000001e-05 8852:1.2e-05 8853:4e-06 8854:1e-06 8855:0 8856:0 8857:0 8858:0 8859:0 8860:0 8861:0 8862:0 8863:0 8864:0.140893 #
3.3415033392158317582243398646824 1:0.062211979 2:0.03225806 3:0.041474659 4:0.046082951 5:0.062211979 6:0.059907831 7:0.01843318 8:0.043778799 9:0.036866359 10:0.12211981 11:0.020737329 12:0.082949311 13:0.10599078 14:0.03225806 15:0.03225806 16:0.092165902 17:0.052995391 18:0.034562211 19:0.0069124401 20:0.01382488 21:0.23094688 23:0.23094688 25:0.11547344 26:0.34642032 30:0.23094688 32:0.23094688 33:0.34642032 35:0.11547344 36:0.57736719 37:0.46189377 39:0.11547344 40:0.11547344 44:0.11547344 45:0.23094688 46:0.11547344 50:0.11547344 52:0.11547344 53:0.11547344 54:0.23094688 56:0.11547344 57:0.11547344 58:0.23094688 59:0.11547344 61:0.11547344 63:0.11547344 65:0.11547344 68:0.23094688 69:0.11547344 70:0.34642032 71:0.11547344 72:0.23094688 73:0.34642032 74:0.11547344 76:0.11547344 78:0.11547344 82:0.11547344 84:0.11547344 85:0.11547344 86:0.23094688 88:0.11547344 90:0.23094688 91:0.11547344 92:0.23094688 93:0.11547344 94:0.23094688 95:0.23094688 96:0.23094688 97:0.11547344 98:0.11547344 102:0.23094688 103:0.34642032 104:0.46189377 106:0.46189377 107:0.11547344 110:0.34642032 112:0.11547344 113:0.23094688 115:0.11547344 116:0.46189377 117:0.11547344 118:0.11547344 122:0.23094688 123:0.23094688 124:0.11547344 125:0.23094688 126:0.11547344 127:0.11547344 128:0.34642032 129:0.23094688 130:0.11547344 131:0.11547344 132:0.46189377 133:0.23094688 135:0.23094688 136:0.11547344 137:0.11547344 141:0.23094688 144:0.11547344 147:0.11547344 148:0.11547344 150:0.11547344 155:0.11547344 156:0.11547344 161:0.11547344 162:0.11547344 163:0.11547344 165:0.11547344 166:0.34642032 170:0.23094688 172:0.34642032 173:0.23094688 175:0.11547344 176:0.11547344 177:0.11547344 178:0.23094688 183:0.11547344 184:0.11547344 185:0.23094688 188:0.23094688 189:0.11547344 190:0.57736719 192:0.11547344 196:0.11547344 197:0.11547344 200:0.11547344 201:0.57736719 203:0.46189377 204:0.34642032 205:0.57736719 206:0.11547344 209:0.57736719 210:1.1547344 212:0.46189377 213:0.69284064 214:0.23094688 216:0.57736719 217:0.23094688 218:0.11547344 221:0.23094688 224:0.11547344 226:0.11547344 227:0.11547344 229:0.11547344 231:0.11547344 236:0.11547344 238:0.11547344 242:0.23094688 243:0.11547344 244:0.11547344 246:0.23094688 248:0.23094688 249:0.11547344 250:0.46189377 251:0.23094688 252:0.69284064 253:0.34642032 254:0.34642032 255:0.23094688 256:0.34642032 257:0.11547344 260:0.23094688 261:0.46189377 262:0.23094688 263:0.23094688 264:0.34642032 266:0.11547344 267:0.11547344 268:0.23094688 269:0.11547344 270:0.34642032 272:0.23094688 273:1.3856813 274:0.11547344 275:0.11547344 276:0.57736719 277:0.34642032 278:0.23094688 280:0.11547344 281:0.23094688 285:0.11547344 288:0.11547344 290:0.57736719 293:0.23094688 295:0.23094688 296:0.11547344 305:0.46189377 306:0.23094688 307:0.11547344 309:0.11547344 310:0.11547344 313:0.23094688 316:0.11547344 317:0.23094688 321:0.11547344 322:0.11547344 323:0.11547344 324:0.34642032 325:0.46189377 327:0.23094688 328:0.34642032 329:0.23094688 330:0.23094688 331:0.11547344 332:0.46189377 333:0.57736719 334:0.11547344 336:0.69284064 337:0.11547344 338:0.23094688 340:0.11547344 341:0.69284064 342:0.11547344 345:0.23094688 346:0.23094688 350:0.46189377 352:0.23094688 355:0.11547344 357:0.23094688 358:0.23094688 359:0.11547344 361:0.11547344 362:0.23094688 366:0.34642032 368:0.11547344 370:0.34642032 371:0.11547344 372:0.11547344 373:0.11547344 374:0.11547344 376:0.11547344 389:0.11547344 394:0.11547344 397:0.11547344 405:0.11547344 408:0.11547344 410:0.11547344 412:0.11547344 413:0.11547344 417:0.11547344 423:0.15432099 473:0.077160493 474:0.077160493 516:0.077160493 525:0.077160493 527:0.077160493 528:0.077160493 605:0.077160493 614:0.077160493 652:0.15432099 663:0.077160493 673:0.15432099 709:0.077160493 728:0.077160493 729:0.077160493 730:0.077160493 736:0.077160493 738:0.077160493 741:0.23148148 759:0.077160493 789:0.077160493 808:0.077160493 895:0.077160493 913:0.077160493 915:0.077160493 937:0.077160493 1012:0.077160493 1060:0.077160493 1061:0.077160493 1090:0.077160493 1095:0.077160493 1136:0.077160493 1142:0.077160493 1173:0.077160493 1174:0.077160493 1194:0.077160493 1230:0.077160493 1269:0.077160493 1304:0.077160493 1372:0.077160493 1375:0.077160493 1388:0.077160493 1416:0.15432099 1417:0.077160493 1424:0.077160493 1453:0.077160493 1456:0.077160493 1470:0.077160493 1472:0.077160493 1478:0.077160493 1493:0.077160493 1528:0.077160493 1562:0.077160493 1654:0.077160493 1696:0.077160493 1704:0.077160493 1722:0.077160493 1724:0.077160493 1766:0.077160493 1803:0.077160493 1813:0.077160493 1827:0.077160493 1848:0.077160493 1853:0.077160493 1868:0.077160493 1890:0.077160493 1895:0.077160493 1916:0.077160493 1917:0.077160493 1930:0.077160493 1933:0.077160493 1945:0.077160493 1966:0.077160493 2046:0.077160493 2059:0.077160493 2061:0.077160493 2063:0.077160493 2070:0.077160493 2086:0.077160493 2090:0.077160493 2092:0.077160493 2095:0.077160493 2122:0.077160493 2125:0.077160493 2126:0.077160493 2132:0.077160493 2141:0.077160493 2201:0.077160493 2210:0.077160493 2212:0.077160493 2244:0.077160493 2264:0.077160493 2276:0.077160493 2306:0.077160493 2324:0.077160493 2333:0.077160493 2336:0.15432099 2352:0.077160493 2366:0.077160493 2453:0.077160493 2458:0.077160493 2471:0.077160493 2473:0.077160493 2490:0.077160493 2506:0.15432099 2532:0.077160493 2548:0.077160493 2563:0.077160493 2565:0.077160493 2566:0.077160493 2585:0.077160493 2590:0.077160493 2610:0.077160493 2621:0.077160493 2651:0.077160493 2652:0.077160493 2656:0.077160493 2660:0.077160493 2663:0.077160493 2670:0.077160493 2706:0.077160493 2713:0.077160493 2733:0.077160493 2750:0.077160493 2836:0.15432099 2898:0.077160493 2956:0.077160493 2973:0.077160493 3010:0.077160493 3107:0.077160493 3127:0.077160493 3230:0.077160493 3254:0.077160493 3268:0.077160493 3302:0.077160493 3323:0.077160493 3329:0.077160493 3332:0.077160493 3414:0.077160493 3416:0.077160493 3442:0.15432099 3446:0.077160493 3461:0.077160493 3467:0.077160493 3505:0.077160493 3536:0.077160493 3541:0.077160493 3566:0.077160493 3571:0.077160493 3676:0.077160493 3691:0.077160493 3703:0.077160493 3713:0.077160493 3772:0.15432099 3784:0.077160493 3801:0.077160493 3804:0.077160493 3809:0.077160493 3810:0.077160493 3813:0.077160493 3850:0.077160493 3921:0.077160493 3950:0.077160493 4010:0.077160493 4021:0.077160493 4026:0.077160493 4032:0.077160493 4035:0.077160493 4036:0.077160493 4065:0.077160493 4068:0.077160493 4070:0.15432099 4082:0.077160493 4086:0.077160493 4094:0.077160493 4103:0.077160493 4104:0.15432099 4107:0.077160493 4110:0.077160493 4128:0.077160493 4185:0.077160493 4190:0.077160493 4192:0.077160493 4196:0.077160493 4200:0.077160493 4205:0.15432099 4209:0.077160493 4210:0.30864197 4212:0.077160493 4216:0.15432099 4243:0.077160493 4250:0.077160493 4254:0.077160493 4257:0.077160493 4261:0.077160493 4264:0.077160493 4269:0.077160493 4272:0.077160493 4274:0.077160493 4276:0.077160493 4281:0.077160493 4290:0.077160493 4323:0.077160493 4332:0.15432099 4337:0.077160493 4340:0.077160493 4350:0.077160493 4358:0.077160493 4370:0.077160493 4426:0.077160493 4432:0.077160493 4496:0.077160493 4532:0.077160493 4547:0.077160493 4589:0.077160493 4636:0.077160493 4724:0.077160493 4772:0.077160493 4845:0.077160493 4856:0.077160493 4872:0.077160493 4885:0.077160493 4923:0.077160493 4935:0.077160493 4973:0.077160493 4977:0.077160493 4990:0.077160493 5009:0.077160493 5010:0.077160493 5012:0.077160493 5017:0.077160493 5031:0.077160493 5038:0.077160493 5048:0.077160493 5049:0.077160493 5051:0.077160493 5054:0.15432099 5055:0.077160493 5062:0.077160493 5075:0.077160493 5077:0.077160493 5085:0.077160493 5088:0.077160493 5090:0.077160493 5105:0.15432099 5125:0.077160493 5128:0.077160493 5133:0.077160493 5141:0.077160493 5205:0.077160493 5217:0.077160493 5225:0.077160493 5233:0.077160493 5236:0.15432099 5244:0.077160493 5257:0.077160493 5272:0.077160493 5278:0.077160493 5293:0.077160493 5294:0.077160493 5297:0.077160493 5336:0.077160493 5344:0.077160493 5370:0.077160493 5376:0.077160493 5390:0.077160493 5401:0.077160493 5413:0.15432099 5452:0.077160493 5456:0.077160493 5462:0.077160493 5466:0.077160493 5468:0.077160493 5473:0.30864197 5476:0.23148148 5477:0.15432099 5496:0.077160493 5510:0.077160493 5524:0.077160493 5531:0.077160493 5532:0.077160493 5534:0.077160493 5538:0.077160493 5541:0.077160493 5552:0.077160493 5555:0.077160493 5562:0.077160493 5570:0.077160493 5613:0.077160493 5633:0.077160493 5639:0.077160493 5716:0.077160493 5778:0.077160493 5801:0.077160493 5805:0.077160493 5806:0.077160493 5813:0.077160493 5818:0.077160493 5873:0.15432099 5905:0.077160493 5917:0.077160493 5925:0.077160493 6102:0.077160493 6110:0.077160493 6112:0.077160493 6118:0.077160493 6131:0.077160493 6135:0.077160493 6150:0.077160493 6188:0.077160493 6209:0.077160493 6264:0.077160493 6273:0.077160493 6325:0.077160493 6357:0.077160493 6358:0.077160493 6440:0.077160493 6445:0.077160493 6473:0.077160493 6484:0.077160493 6488:0.077160493 6492:0.077160493 6503:0.077160493 6506:0.077160493 6516:0.077160493 6517:0.077160493 6541:0.077160493 6555:0.077160493 6562:0.077160493 6566:0.077160493 6570:0.077160493 6590:0.077160493 6597:0.077160493 6604:0.077160493 6609:0.077160493 6626:0.077160493 6652:0.15432099 6653:0.077160493 6655:0.077160493 6661:0.077160493 6673:0.15432099 6678:0.077160493 6680:0.077160493 6690:0.077160493 6722:0.077160493 6725:0.077160493 6727:0.077160493 6729:0.077160493 6732:0.077160493 6733:0.077160493 6757:0.077160493 6768:0.077160493 6776:0.077160493 6812:0.077160493 6821:0.077160493 6833:0.077160493 6837:0.30864197 6858:0.077160493 6906:0.077160493 6910:0.077160493 6928:0.077160493 6933:0.077160493 7004:0.077160493 7005:0.077160493 7010:0.077160493 7013:0.077160493 7050:0.077160493 7113:0.077160493 7145:0.077160493 7150:0.077160493 7161:0.077160493 7170:0.077160493 7197:0.077160493 7226:0.077160493 7250:0.077160493 7252:0.077160493 7329:0.077160493 7330:0.077160493 7333:0.077160493 7378:0.077160493 7401:0.077160493 7403:0.15432099 7421:0.077160493 7450:0.077160493 7473:0.077160493 7493:0.077160493 7536:0.077160493 7783:0.077160493 7881:0.077160493 7946:0.077160493 8116:0.077160493 8161:0.077160493 8203:0.077160493 8246:0.077160493 8270:0.077160493 8346:0.077160493 8421:0.0092165899 8423:0.02764977 8424:0.0046082898 8427:0.0046082898 8428:0.0046082898 8429:0.0046082898 8431:0.036866359 8432:0.0046082898 8433:0.0046082898 8435:0.046082951 8436:0.02764977 8437:0.0092165899 8441:0.014164 8442:9.9999997e-06 8443:0.000375 8444:2e-06 8845:0.37788001 8846:0.01381 8847:9.0000003e-06 8848:0.00034900001 8849:-3.0000001e-06 8850:1.1e-05 8851:-0 8852:0 8853:-0 8854:0 8855:-0 8856:0 8857:-0 8858:0 8859:-0 8860:0 8861:-0 8862:0 8863:-0 8864:0.156682 #
2.3362819709663948941624767030589 1:0.078651689 2:0.02247191 3:0.052434459 4:0.0411985 5:0.052434459 6:0.033707861 7:0.02247191 8:0.059925091 9:0.063670412 10:0.16853933 11:0.01498127 12:0.048689138 13:0.052434459 14:0.044943821 15:0.02247191 16:0.10486891 17:0.033707861 18:0.033707861 19:0.02247191 20:0.02621723 21:0.56390977 23:0.37593985 24:0.18796992 28:0.56390977 30:0.56390977 31:0.18796992 32:0.37593985 33:0.56390977 34:0.18796992 35:0.18796992 38:0.18796992 42:0.18796992 43:0.18796992 44:0.18796992 45:0.18796992 48:0.18796992 54:0.18796992 61:0.18796992 62:0.18796992 68:0.18796992 69:0.18796992 70:1.3157895 73:0.18796992 75:0.18796992 79:0.18796992 81:0.18796992 86:0.18796992 90:0.18796992 93:0.18796992 95:0.18796992 96:0.37593985 98:0.37593985 99:0.37593985 101:0.18796992 102:0.18796992 105:0.37593985 106:0.18796992 109:0.37593985 110:0.37593985 113:0.18796992 114:0.37593985 116:0.18796992 117:0.18796992 123:0.18796992 126:0.18796992 127:0.18796992 129:0.18796992 130:0.18796992 132:0.18796992 137:0.18796992 138:0.18796992 140:0.18796992 150:0.37593985 152:0.18796992 154:0.18796992 158:0.18796992 160:0.18796992 161:0.18796992 162:0.37593985 163:0.18796992 165:0.18796992 166:0.18796992 168:0.18796992 171:0.18796992 172:0.18796992 173:0.56390977 174:0.37593985 176:0.18796992 180:0.18796992 181:0.18796992 184:0.18796992 185:0.37593985 187:0.18796992 188:0.37593985 190:0.37593985 192:0.18796992 196:0.37593985 197:0.37593985 198:0.37593985 201:0.37593985 202:0.18796992 203:0.56390977 204:0.37593985 206:0.37593985 207:0.37593985 208:0.56390977 209:1.1278195 210:1.3157895 211:0.18796992 212:0.18796992 214:0.18796992 215:0.18796992 216:1.8796992 217:0.37593985 220:0.18796992 221:0.18796992 224:0.18796992 230:0.18796992 237:0.18796992 243:0.56390977 245:0.18796992 250:0.56390977 252:0.37593985 253:0.18796992 254:0.18796992 256:0.37593985 261:0.37593985 263:0.18796992 265:0.18796992 267:0.18796992 269:0.18796992 270:0.37593985 273:0.37593985 274:0.18796992 276:0.37593985 280:0.18796992 281:0.18796992 286:0.18796992 288:0.18796992 289:0.18796992 290:0.56390977 292:0.18796992 294:0.18796992 296:0.18796992 299:0.18796992 300:0.18796992 305:0.18796992 306:0.18796992 309:0.18796992 310:0.18796992 315:0.18796992 316:0.18796992 321:0.56390977 323:0.18796992 324:0.37593985 325:0.37593985 328:0.18796992 329:0.37593985 330:1.1278195 332:0.37593985 333:0.18796992 334:0.18796992 336:0.93984962 337:0.18796992 339:0.18796992 341:0.18796992 345:0.18796992 346:0.18796992 348:0.37593985 353:0.18796992 357:0.18796992 359:0.18796992 360:0.18796992 361:0.18796992 364:0.18796992 365:0.37593985 367:0.18796992 369:0.37593985 370:0.18796992 376:0.18796992 381:0.18796992 383:0.18796992 384:0.18796992 388:0.18796992 398:0.37593985 401:0.18796992 404:0.18796992 410:0.56390977 412:0.18796992 415:0.18796992 431:0.12578617 433:0.12578617 434:0.12578617 470:0.25157234 499:0.12578617 561:0.12578617 562:0.12578617 568:0.12578617 610:0.12578617 616:0.25157234 637:0.12578617 643:0.12578617 656:0.12578617 663:0.12578617 673:0.25157234 689:0.12578617 705:0.12578617 769:0.12578617 844:0.12578617 861:0.12578617 899:0.12578617 917:0.12578617 974:0.12578617 1092:0.12578617 1232:0.12578617 1242:0.12578617 1380:0.12578617 1396:0.12578617 1406:0.12578617 1408:0.12578617 1409:0.12578617 1410:0.12578617 1416:0.25157234 1420:0.12578617 1476:0.12578617 1510:0.12578617 1583:0.12578617 1632:0.12578617 1726:0.12578617 1809:0.12578617 1880:0.12578617 1909:0.12578617 1930:0.12578617 1933:0.12578617 1961:0.12578617 1969:0.12578617 1984:0.12578617 1988:0.12578617 2023:0.12578617 2054:0.12578617 2106:0.12578617 2113:0.12578617 2130:0.12578617 2192:0.12578617 2198:0.12578617 2210:0.12578617 2217:0.12578617 2265:0.12578617 2286:0.12578617 2290:0.12578617 2336:0.12578617 2348:0.12578617 2462:0.12578617 2523:0.12578617 2558:0.12578617 2588:0.12578617 2610:0.12578617 2650:0.12578617 2748:0.12578617 2765:0.12578617 2812:0.12578617 3001:0.12578617 3016:0.12578617 3050:0.12578617 3090:0.12578617 3167:0.12578617 3210:0.12578617 3221:0.12578617 3243:0.12578617 3245:0.12578617 3273:0.12578617 3301:0.12578617 3338:0.12578617 3365:0.12578617 3424:0.12578617 3453:0.12578617 3461:0.12578617 3467:0.12578617 3469:0.12578617 3488:0.12578617 3496:0.12578617 3525:0.12578617 3601:0.12578617 3630:0.12578617 3698:0.12578617 3705:0.12578617 3709:0.12578617 3750:0.12578617 3771:0.12578617 3772:0.12578617 3814:0.12578617 3815:0.12578617 3843:0.12578617 3924:0.12578617 3934:0.12578617 3941:0.12578617 3945:0.12578617 3965:0.12578617 3970:0.12578617 4021:0.12578617 4035:0.12578617 4048:0.12578617 4070:0.3773585 4090:0.12578617 4096:0.12578617 4132:0.12578617 4140:0.12578617 4150:0.12578617 4160:0.12578617 4163:0.12578617 4173:0.12578617 4176:0.12578617 4185:0.12578617 4187:0.12578617 4188:0.12578617 4196:0.12578617 4197:0.25157234 4204:0.25157234 4208:0.25157234 4209:0.12578617 4210:0.12578617 4216:0.12578617 4230:0.12578617 4250:0.12578617 4300:0.12578617 4306:0.12578617 4321:0.12578617 4325:0.12578617 4329:0.12578617 4330:0.25157234 4332:0.12578617 4336:0.50314468 4359:0.12578617 4360:0.12578617 4404:0.12578617 4428:0.12578617 4498:0.12578617 4609:0.12578617 4757:0.12578617 4870:0.25157234 4879:0.12578617 4916:0.12578617 5006:0.12578617 5016:0.25157234 5045:0.12578617 5052:0.12578617 5076:0.12578617 5090:0.12578617 5132:0.12578617 5137:0.12578617 5224:0.12578617 5228:0.12578617 5268:0.12578617 5310:0.12578617 5352:0.12578617 5385:0.12578617 5410:0.12578617 5416:0.12578617 5461:0.12578617 5470:0.12578617 5499:0.12578617 5523:0.12578617 5530:0.12578617 5615:0.12578617 5630:0.12578617 5737:0.12578617 5773:0.12578617 5798:0.12578617 5802:0.12578617 5807:0.12578617 5811:0.12578617 5856:0.12578617 5881:0.12578617 5924:0.12578617 5998:0.12578617 6010:0.12578617 6114:0.12578617 6129:0.12578617 6181:0.12578617 6216:0.12578617 6316:0.12578617 6329:0.12578617 6423:0.12578617 6430:0.12578617 6433:0.12578617 6475:0.12578617 6495:0.12578617 6496:0.12578617 6505:0.12578617 6509:0.12578617 6574:0.12578617 6590:0.25157234 6601:0.12578617 6603:0.12578617 6607:0.12578617 6609:0.12578617 6610:0.12578617 6617:0.12578617 6652:0.12578617 6654:0.12578617 6674:0.12578617 6694:0.12578617 6721:0.12578617 6728:0.12578617 6730:0.25157234 6739:0.12578617 6746:0.12578617 6798:0.12578617 6821:0.12578617 6910:0.12578617 6927:0.12578617 6962:0.12578617 6973:0.12578617 7070:0.12578617 7153:0.12578617 7181:0.12578617 7210:0.12578617 7238:0.12578617 7286:0.12578617 7302:0.12578617 7314:0.12578617 7354:0.12578617 7384:0.12578617 7409:0.12578617 7521:0.12578617 7628:0.12578617 7669:0.12578617 7693:0.12578617 7766:0.12578617 7964:0.12578617 7976:0.12578617 8033:0.12578617 8081:0.12578617 8203:0.25157234 8212:0.12578617 8243:0.12578617 8315:0.12578617 8421:0.02247191 8422:0.00749064 8423:0.01123596 8425:0.00749064 8426:0.00749064 8428:0.00749064 8430:0.00749064 8431:0.048689138 8434:0.01498127 8435:0.01498127 8436:0.037453178 8437:0.00749064 8441:0.007396 8442:1.6e-05 8443:8.8000001e-05 8444:0 8845:0.43071201 8846:0.0057160002 8847:2.4999999e-05 8848:5.3e-05 8849:1e-06 8850:1e-06 8851:0 8852:0 8853:0 8854:0 8855:0 8856:0 8857:0 8858:0 8859:0 8860:0 8861:0 8862:0 8863:0 8864:0.179775 #
-3.7730316045511678169077640632167 1:0.022988509 2:0.034482758 3:0.01149425 4:0.022988509 5:0.080459774 6:0.05747126 8:0.034482758 9:0.01149425 10:0.16091955 11:0.01149425 12:0.13793103 13:0.05747126 14:0.034482758 15:0.068965517 16:0.13793103 17:0.05747126 18:0.034482758 19:0.01149425 20:0.01149425 32:0.58139533 33:0.58139533 45:0.58139533 50:0.58139533 57:0.58139533 70:0.58139533 82:0.58139533 97:0.58139533 110:1.1627907 112:0.58139533 113:0.58139533 115:0.58139533 117:0.58139533 130:1.1627907 132:1.1627907 136:0.58139533 163:0.58139533 172:0.58139533 173:0.58139533 196:0.58139533 204:0.58139533 206:0.58139533 210:0.58139533 212:1.1627907 213:1.1627907 214:1.1627907 216:1.744186 217:0.58139533 218:0.58139533 238:0.58139533 241:0.58139533 245:1.744186 246:0.58139533 250:1.1627907 252:1.1627907 255:0.58139533 256:1.1627907 262:0.58139533 266:0.58139533 275:0.58139533 276:1.1627907 289:0.58139533 290:0.58139533 295:0.58139533 302:0.58139533 305:0.58139533 310:1.1627907 312:0.58139533 316:0.58139533 324:0.58139533 325:0.58139533 326:1.1627907 328:1.1627907 330:0.58139533 334:0.58139533 335:0.58139533 336:0.58139533 339:0.58139533 340:0.58139533 345:0.58139533 348:0.58139533 350:0.58139533 356:0.58139533 357:0.58139533 361:0.58139533 372:0.58139533 375:0.58139533 398:0.58139533 412:0.58139533 652:0.39215687 675:0.39215687 915:0.39215687 1014:0.39215687 1156:0.39215687 1416:0.39215687 1650:0.39215687 1950:0.39215687 2206:0.39215687 2216:0.39215687 2256:0.39215687 2262:0.39215687 2312:0.39215687 2345:0.39215687 2604:0.39215687 2616:0.39215687 2650:0.39215687 2652:0.39215687 2728:0.39215687 3270:0.39215687 3455:0.39215687 3476:0.39215687 3924:0.39215687 4082:0.39215687 4132:0.39215687 4213:0.39215687 4245:0.39215687 4250:0.39215687 4266:0.39215687 4276:0.39215687 4290:0.39215687 4295:0.39215687 4326:0.78431374 4340:0.39215687 4357:0.39215687 4361:0.39215687 4775:0.39215687 4833:0.39215687 4910:0.39215687 4917:0.39215687 4930:0.39215687 5013:0.39215687 5018:0.39215687 5045:0.39215687 5046:0.39215687 5110:0.39215687 5135:0.39215687 5136:0.39215687 5245:0.39215687 5330:0.39215687 5502:0.39215687 5534:0.39215687 5539:0.39215687 5796:0.39215687 5812:0.39215687 5916:0.39215687 6057:0.39215687 6110:0.39215687 6210:0.39215687 6214:0.39215687 6241:0.39215687 6325:0.39215687 6497:0.39215687 6513:0.39215687 6532:0.39215687 6536:0.39215687 6572:0.39215687 6573:0.39215687 6612:0.39215687 6689:0.39215687 6710:0.39215687 6728:0.39215687 6798:0.39215687 6812:0.39215687 6912:0.39215687 6963:0.39215687 7017:0.39215687 7130:0.39215687 7148:0.39215687 7232:0.39215687 7456:0.39215687 7505:0.39215687 7972:0.39215687 8245:0.39215687 8423:0.045977011 8431:0.022988509 8436:0.022988509 8437:0.022988509 8441:0.00066700001 8442:-4.9999999e-06 8443:1e-06 8444:-0 8845:0.37931001 8846:0.000719 8847:-4e-06 8848:1e-06 8849:-0 8850:0 8851:-0 8852:0 8853:-0 8854:0 8855:-0 8856:0 8857:-0 8858:0 8859:-0 8860:0 8861:-0 8862:0 8863:-0 8864:0.114943 #
-2.2800454760521611241586015239591 1:0.032608699 2:0.01811594 3:0.03985507 4:0.01811594 5:0.079710148 6:0.032608699 7:0.02898551 8:0.047101449 9:0.02898551 10:0.19202898 11:0.02536232 12:0.057971019 13:0.079710148 14:0.0072463802 15:0.05072464 16:0.10144927 17:0.072463773 18:0.036231879 19:0.01086957 20:0.03985507 21:0.18181819 30:0.90909094 33:0.18181819 35:0.18181819 36:0.18181819 43:0.18181819 48:0.18181819 50:0.18181819 56:0.18181819 57:0.18181819 65:0.18181819 68:0.18181819 70:0.90909094 77:0.18181819 78:0.18181819 80:0.36363637 83:0.36363637 90:0.36363637 92:0.18181819 101:0.36363637 103:0.36363637 106:0.18181819 108:0.18181819 109:0.36363637 110:0.54545456 111:0.18181819 112:0.18181819 113:0.36363637 116:0.36363637 117:0.54545456 119:0.18181819 120:0.18181819 123:0.18181819 124:0.18181819 125:0.18181819 130:0.54545456 132:0.18181819 135:0.18181819 140:0.18181819 146:0.18181819 150:0.72727275 155:0.18181819 158:0.36363637 165:0.18181819 167:0.18181819 168:0.18181819 170:0.18181819 171:0.18181819 172:0.18181819 173:0.18181819 175:0.18181819 176:0.36363637 177:0.18181819 179:0.18181819 180:0.18181819 181:0.36363637 183:0.18181819 190:0.36363637 193:0.36363637 197:0.18181819 202:0.18181819 203:0.18181819 204:0.36363637 205:0.18181819 206:0.18181819 207:0.54545456 208:0.36363637 209:0.54545456 210:0.90909094 211:0.36363637 212:0.72727275 213:0.90909094 214:0.18181819 215:0.54545456 216:1.2727273 217:1.0909091 218:0.54545456 220:0.54545456 225:0.36363637 228:0.18181819 230:0.18181819 232:0.18181819 236:0.18181819 237:0.18181819 242:0.18181819 243:0.36363637 245:0.36363637 246:0.18181819 249:0.18181819 250:0.54545456 252:0.18181819 253:0.36363637 255:0.18181819 256:0.18181819 257:0.18181819 261:0.18181819 265:0.36363637 268:0.18181819 269:0.18181819 270:0.72727275 271:0.18181819 272:0.18181819 273:0.36363637 275:0.36363637 276:0.54545456 277:0.18181819 278:0.18181819 279:0.18181819 280:0.18181819 296:0.18181819 297:0.18181819 301:0.18181819 304:0.18181819 305:0.18181819 307:0.18181819 308:0.18181819 310:0.18181819 312:0.36363637 314:0.18181819 315:0.18181819 316:0.36363637 318:0.18181819 320:0.18181819 323:0.18181819 325:1.0909091 326:0.36363637 327:0.18181819 328:0.72727275 330:0.72727275 332:0.18181819 333:0.18181819 335:0.18181819 336:0.90909094 337:0.18181819 340:0.18181819 341:0.18181819 342:0.18181819 344:0.18181819 345:0.18181819 347:0.18181819 350:0.90909094 351:0.18181819 352:0.36363637 353:0.36363637 355:0.18181819 356:0.36363637 357:0.18181819 358:0.18181819 362:0.18181819 365:0.36363637 366:0.18181819 369:0.18181819 370:0.36363637 373:0.36363637 378:0.18181819 385:0.36363637 401:0.18181819 402:0.18181819 406:0.36363637 407:0.18181819 410:0.36363637 413:0.36363637 415:0.18181819 417:0.18181819 430:0.1216545 609:0.1216545 613:0.24330901 618:0.1216545 620:0.1216545 675:0.1216545 701:0.1216545 736:0.1216545 878:0.1216545 979:0.1216545 1018:0.1216545 1136:0.1216545 1152:0.1216545 1309:0.1216545 1371:0.1216545 1408:0.1216545 1410:0.24330901 1416:0.1216545 1417:0.1216545 1545:0.1216545 1570:0.1216545 1610:0.1216545 1615:0.1216545 1665:0.1216545 1670:0.1216545 1807:0.1216545 1808:0.1216545 1853:0.1216545 2035:0.1216545 2036:0.1216545 2070:0.24330901 2132:0.1216545 2177:0.1216545 2181:0.1216545 2193:0.1216545 2203:0.1216545 2211:0.1216545 2212:0.1216545 2225:0.1216545 2257:0.1216545 2270:0.1216545 2279:0.1216545 2323:0.1216545 2330:0.1216545 2344:0.1216545 2350:0.1216545 2356:0.1216545 2385:0.1216545 2407:0.1216545 2480:0.1216545 2492:0.1216545 2510:0.1216545 2612:0.1216545 2613:0.1216545 2616:0.1216545 2656:0.1216545 2704:0.1216545 2801:0.1216545 2935:0.1216545 3002:0.1216545 3015:0.1216545 3016:0.1216545 3017:0.1216545 3116:0.1216545 3166:0.1216545 3173:0.1216545 3316:0.1216545 3358:0.1216545 3365:0.1216545 3418:0.1216545 3428:0.1216545 3453:0.1216545 3461:0.1216545 3520:0.1216545 3525:0.1216545 3528:0.1216545 3555:0.1216545 3585:0.1216545 3613:0.1216545 3630:0.24330901 3670:0.1216545 3813:0.1216545 3814:0.1216545 3865:0.1216545 3871:0.1216545 3950:0.1216545 4048:0.1216545 4070:0.1216545 4083:0.24330901 4117:0.1216545 4140:0.1216545 4146:0.1216545 4150:0.1216545 4158:0.1216545 4167:0.1216545 4176:0.1216545 4183:0.1216545 4193:0.1216545 4197:0.1216545 4204:0.1216545 4210:0.1216545 4215:0.1216545 4216:0.1216545 4217:0.1216545 4225:0.1216545 4230:0.1216545 4245:0.1216545 4250:0.24330901 4255:0.1216545 4269:0.1216545 4270:0.1216545 4272:0.1216545 4275:0.1216545 4276:0.1216545 4296:0.1216545 4305:0.1216545 4308:0.1216545 4310:0.1216545 4326:0.1216545 4328:0.1216545 4330:0.1216545 4333:0.1216545 4335:0.1216545 4336:0.1216545 4340:0.1216545 4341:0.1216545 4342:0.1216545 4347:0.1216545 4350:0.1216545 4351:0.1216545 4353:0.1216545 4365:0.1216545 4369:0.1216545 4373:0.1216545 4402:0.1216545 4406:0.1216545 4417:0.1216545 4510:0.1216545 4516:0.1216545 4573:0.1216545 4616:0.1216545 4650:0.1216545 4725:0.1216545 4752:0.1216545 4856:0.1216545 4868:0.1216545 4880:0.1216545 4906:0.1216545 4910:0.1216545 4930:0.1216545 4990:0.1216545 5007:0.1216545 5016:0.1216545 5017:0.1216545 5043:0.1216545 5068:0.1216545 5073:0.1216545 5115:0.1216545 5125:0.1216545 5150:0.1216545 5233:0.1216545 5311:0.1216545 5317:0.1216545 5380:0.1216545 5390:0.1216545 5405:0.1216545 5407:0.1216545 5412:0.1216545 5415:0.1216545 5436:0.1216545 5443:0.1216545 5476:0.1216545 5478:0.1216545 5516:0.1216545 5518:0.1216545 5525:0.24330901 5528:0.1216545 5553:0.1216545 5570:0.1216545 5613:0.1216545 5927:0.1216545 5950:0.1216545 6030:0.1216545 6090:0.1216545 6108:0.1216545 6150:0.1216545 6170:0.1216545 6210:0.1216545 6245:0.1216545 6252:0.1216545 6297:0.1216545 6314:0.1216545 6326:0.1216545 6337:0.1216545 6378:0.1216545 6406:0.1216545 6477:0.1216545 6503:0.24330901 6513:0.1216545 6517:0.1216545 6519:0.1216545 6520:0.1216545 6523:0.1216545 6530:0.1216545 6550:0.1216545 6568:0.1216545 6572:0.1216545 6575:0.1216545 6576:0.1216545 6604:0.1216545 6606:0.1216545 6613:0.1216545 6617:0.1216545 6646:0.1216545 6680:0.1216545 6712:0.1216545 6725:0.1216545 6730:0.1216545 6732:0.1216545 6736:0.24330901 6758:0.1216545 6810:0.1216545 6821:0.1216545 6857:0.1216545 6890:0.1216545 6912:0.1216545 6955:0.1216545 7009:0.24330901 7017:0.1216545 7020:0.24330901 7037:0.1216545 7042:0.1216545 7049:0.1216545 7070:0.1216545 7077:0.1216545 7107:0.1216545 7128:0.1216545 7130:0.1216545 7156:0.1216545 7165:0.1216545 7250:0.1216545 7301:0.24330901 7324:0.1216545 7381:0.1216545 7410:0.1216545 7412:0.1216545 7473:0.1216545 7476:0.1216545 7562:0.1216545 7709:0.1216545 7713:0.1216545 8030:0.1216545 8043:0.1216545 8125:0.1216545 8130:0.1216545 8150:0.1216545 8211:0.1216545 8216:0.1216545 8265:0.1216545 8270:0.1216545 8312:0.1216545 8357:0.1216545 8421:0.0072463802 8422:0.0072463802 8423:0.0072463802 8430:0.0072463802 8431:0.032608699 8435:0.01449275 8436:0.02898551 8437:0.0072463802 8440:0.0072463802 8441:0.0064440002 8442:-9.5000003e-05 8443:7.5000004e-05 8444:-2e-06 8845:0.43115899 8846:0.0054390002 8847:4.9999999e-05 8848:5.3e-05 8849:1e-06 8850:1e-06 8851:0 8852:0 8853:0 8854:0 8855:0 8856:0 8857:0 8858:0 8859:0 8860:0 8861:0 8862:0 8863:0 8864:0.13768101 #
-0.53422832450347712551774748135358 1:0.10780669 2:0.01115242 3:0.055762079 4:0.040892191 5:0.033457249 6:0.085501857 7:0.052044611 8:0.04460967 9:0.033457249 10:0.10408922 11:0.01486989 12:0.026022309 13:0.052044611 14:0.01858736 15:0.070631973 16:0.10408922 17:0.066914499 18:0.066914499 19:0.00371747 20:0.00743494 21:0.74626863 23:0.18656716 25:0.18656716 26:0.74626863 28:0.18656716 29:0.18656716 30:1.119403 31:0.18656716 33:0.37313432 35:0.5597015 36:0.37313432 37:0.37313432 38:0.18656716 46:0.18656716 56:0.18656716 58:0.18656716 62:0.18656716 63:0.18656716 64:0.18656716 66:0.18656716 67:0.37313432 68:0.18656716 70:0.37313432 74:0.18656716 75:0.18656716 76:0.18656716 77:0.37313432 78:0.18656716 81:0.5597015 83:0.37313432 87:0.18656716 95:0.18656716 97:0.18656716 98:0.37313432 100:0.18656716 101:0.18656716 103:0.18656716 105:0.18656716 106:0.18656716 109:0.18656716 110:0.18656716 114:0.18656716 117:0.18656716 118:0.18656716 123:0.37313432 124:0.18656716 127:0.18656716 128:0.37313432 129:0.18656716 130:0.5597015 131:0.18656716 132:0.18656716 135:0.37313432 136:0.37313432 137:0.74626863 138:0.5597015 145:0.37313432 146:0.37313432 147:0.37313432 148:0.5597015 150:0.37313432 151:0.18656716 156:0.18656716 158:0.18656716 161:0.18656716 163:0.18656716 164:0.18656716 166:0.37313432 168:0.18656716 170:0.18656716 172:0.37313432 173:0.37313432 175:0.18656716 181:0.37313432 184:0.18656716 186:0.5597015 188:0.18656716 192:0.18656716 195:0.18656716 201:0.5597015 203:0.93283582 204:0.18656716 205:0.18656716 206:0.18656716 207:0.37313432 210:0.18656716 213:0.18656716 215:0.5597015 216:1.4925373 218:0.37313432 221:0.18656716 230:0.18656716 237:0.37313432 244:0.18656716 246:0.18656716 250:0.18656716 255:0.18656716 256:0.18656716 257:0.18656716 258:0.18656716 261:0.5597015 264:0.18656716 265:0.18656716 267:0.37313432 270:0.18656716 273:0.18656716 276:0.74626863 277:0.18656716 281:0.18656716 290:0.5597015 296:0.18656716 301:0.37313432 305:0.37313432 306:0.18656716 308:0.18656716 309:0.18656716 313:0.5597015 314:0.37313432 315:0.37313432 316:0.18656716 318:0.74626863 321:0.37313432 322:0.18656716 326:0.5597015 327:0.37313432 328:0.18656716 329:0.18656716 330:0.5597015 332:0.18656716 333:0.74626863 335:0.74626863 336:0.37313432 337:0.37313432 339:0.18656716 341:0.74626863 344:0.37313432 345:0.18656716 346:0.37313432 347:0.18656716 349:0.18656716 350:0.18656716 352:0.18656716 354:0.18656716 356:0.18656716 357:0.18656716 358:0.18656716 360:0.18656716 361:0.37313432 362:0.18656716 364:0.37313432 366:0.18656716 367:0.18656716 368:0.18656716 369:0.5597015 370:0.18656716 372:0.18656716 373:0.18656716 376:0.5597015 377:0.18656716 390:0.18656716 403:0.37313432 421:0.2496879 426:0.12484395 438:0.12484395 462:0.12484395 501:0.12484395 529:0.12484395 532:0.12484395 535:0.12484395 538:0.12484395 566:0.12484395 586:0.12484395 601:0.12484395 606:0.12484395 610:0.12484395 613:0.12484395 615:0.12484395 616:0.12484395 621:0.12484395 664:0.12484395 670:0.12484395 701:0.12484395 705:0.12484395 713:0.12484395 721:0.12484395 727:0.12484395 744:0.12484395 745:0.12484395 764:0.12484395 930:0.12484395 1137:0.12484395 1169:0.12484395 1256:0.12484395 1267:0.12484395 1281:0.12484395 1337:0.12484395 1347:0.12484395 1351:0.12484395 1361:0.12484395 1415:0.12484395 1416:0.12484395 1490:0.12484395 1509:0.12484395 1537:0.12484395 1547:0.12484395 1554:0.12484395 1562:0.12484395 1621:0.12484395 1630:0.12484395 1637:0.12484395 1668:0.12484395 1676:0.12484395 1745:0.12484395 1918:0.12484395 1952:0.12484395 1968:0.12484395 1969:0.12484395 2003:0.12484395 2035:0.12484395 2078:0.12484395 2114:0.12484395 2127:0.12484395 2181:0.12484395 2203:0.12484395 2296:0.12484395 2341:0.12484395 2376:0.12484395 2475:0.12484395 2477:0.12484395 2498:0.12484395 2545:0.12484395 2572:0.12484395 2573:0.12484395 2592:0.12484395 2605:0.12484395 2616:0.2496879 2637:0.12484395 2646:0.12484395 2713:0.12484395 2718:0.12484395 2733:0.12484395 2736:0.12484395 2741:0.12484395 2746:0.12484395 2758:0.12484395 2760:0.12484395 2761:0.2496879 2770:0.12484395 2905:0.12484395 2917:0.12484395 2930:0.2496879 2948:0.12484395 2956:0.12484395 2963:0.12484395 2968:0.12484395 2975:0.12484395 3015:0.12484395 3016:0.12484395 3030:0.12484395 3132:0.12484395 3169:0.12484395 3230:0.12484395 3263:0.12484395 3281:0.12484395 3324:0.12484395 3337:0.12484395 3364:0.12484395 3403:0.12484395 3450:0.12484395 3455:0.12484395 3465:0.12484395 3477:0.12484395 3514:0.12484395 3625:0.12484395 3629:0.12484395 3697:0.12484395 3723:0.12484395 3728:0.12484395 3738:0.12484395 3772:0.12484395 3856:0.12484395 3918:0.12484395 4026:0.12484395 4028:0.12484395 4036:0.12484395 4064:0.12484395 4066:0.12484395 4067:0.12484395 4070:0.12484395 4074:0.12484395 4081:0.12484395 4103:0.12484395 4123:0.12484395 4148:0.12484395 4150:0.12484395 4204:0.12484395 4261:0.12484395 4313:0.12484395 4314:0.12484395 4315:0.12484395 4322:0.12484395 4326:0.12484395 4328:0.12484395 4330:0.12484395 4335:0.49937579 4364:0.12484395 4372:0.12484395 4436:0.12484395 4603:0.12484395 4750:0.12484395 4757:0.12484395 4883:0.12484395 4936:0.12484395 5003:0.12484395 5105:0.12484395 5127:0.12484395 5156:0.12484395 5167:0.12484395 5226:0.12484395 5231:0.12484395 5235:0.12484395 5283:0.12484395 5310:0.12484395 5346:0.12484395 5350:0.12484395 5403:0.12484395 5461:0.12484395 5521:0.12484395 5530:0.12484395 5533:0.12484395 5536:0.12484395 5544:0.12484395 5637:0.12484395 5801:0.2496879 5818:0.12484395 5930:0.12484395 6026:0.12484395 6030:0.12484395 6106:0.12484395 6118:0.12484395 6137:0.12484395 6166:0.12484395 6186:0.12484395 6267:0.2496879 6273:0.12484395 6281:0.12484395 6290:0.12484395 6306:0.12484395 6315:0.12484395 6366:0.12484395 6376:0.2496879 6377:0.12484395 6421:0.12484395 6433:0.12484395 6446:0.12484395 6531:0.12484395 6535:0.12484395 6536:0.12484395 6546:0.12484395 6547:0.12484395 6573:0.12484395 6586:0.12484395 6607:0.12484395 6616:0.12484395 6618:0.12484395 6644:0.12484395 6661:0.12484395 6676:0.37453184 6701:0.12484395 6708:0.12484395 6716:0.12484395 6718:0.12484395 6729:0.12484395 6739:0.12484395 6741:0.12484395 6746:0.12484395 6790:0.12484395 6830:0.2496879 6833:0.12484395 6835:0.12484395 6895:0.12484395 6900:0.12484395 6909:0.12484395 6928:0.12484395 6938:0.12484395 6948:0.12484395 6984:0.12484395 7007:0.12484395 7058:0.12484395 7090:0.12484395 7126:0.12484395 7141:0.12484395 7173:0.12484395 7203:0.12484395 7223:0.12484395 7230:0.12484395 7258:0.12484395 7287:0.12484395 7298:0.12484395 7337:0.12484395 7358:0.12484395 7370:0.12484395 7381:0.12484395 7388:0.12484395 7395:0.12484395 7416:0.12484395 7457:0.12484395 7476:0.12484395 7526:0.12484395 7533:0.2496879 7549:0.12484395 7816:0.12484395 8070:0.12484395 8077:0.12484395 8421:0.022304829 8422:0.01115242 8424:0.00743494 8429:0.01486989 8430:0.00743494 8431:0.00743494 8434:0.00743494 8435:0.00743494 8436:0.01486989 8437:0.00743494 8441:0.0056050001 8442:-1.3e-05 8443:5.8000001e-05 8444:-0 8845:0.3829 8846:0.0054159998 8847:-1.8000001e-05 8848:5.8000001e-05 8849:-1e-06 8850:1e-06 8851:-0 8852:0 8853:-0 8854:0 8855:-0 8856:0 8857:-0 8858:0 8859:-0 8860:0 8861:-0 8862:0 8863:-0 8864:0.200743 #
