SVM-light Version V6.02
2 # kernel type
3 # kernel parameter -d 
0.001 # kernel parameter -g 
1 # kernel parameter -s 
1 # kernel parameter -r 
empty# kernel parameter -u 
8864 # highest feature index 
34904 # number of training documents 
310 # number of support vectors plus 1 
23.18015 # threshold b, each following line is a SV (starting with alpha*y)
-23.882002294343237736029550433159 1:0.043478262 2:0.0079051396 3:0.043478262 4:0.055335969 5:0.02371541 6:0.055335969 7:0.027667981 8:0.043478262 9:0.063241109 10:0.083003953 11:0.019762849 12:0.059288539 13:0.11462451 14:0.019762849 15:0.031620551 16:0.12252964 17:0.071146242 18:0.086956523 19:0.01185771 20:0.015810279 21:0.1984127 26:0.59523809 27:0.1984127 28:0.1984127 29:0.1984127 36:0.1984127 38:0.59523809 43:0.1984127 44:0.1984127 61:0.59523809 66:0.1984127 68:0.1984127 72:0.3968254 73:0.3968254 74:0.1984127 75:0.1984127 85:0.1984127 88:0.79365081 89:0.1984127 90:0.1984127 92:0.1984127 93:0.1984127 96:0.3968254 97:0.1984127 98:0.3968254 104:0.1984127 106:0.1984127 112:0.1984127 113:0.3968254 117:0.1984127 124:0.1984127 125:0.1984127 128:0.1984127 130:0.79365081 132:0.3968254 133:0.1984127 134:0.1984127 136:0.3968254 137:0.1984127 145:0.1984127 149:0.1984127 150:0.1984127 155:0.1984127 157:0.1984127 158:0.3968254 161:0.1984127 164:0.1984127 168:0.1984127 169:0.3968254 171:0.1984127 172:0.1984127 173:0.3968254 175:0.1984127 178:0.1984127 183:0.1984127 184:0.1984127 186:0.1984127 189:0.1984127 190:0.3968254 192:0.59523809 193:0.1984127 195:0.1984127 196:0.1984127 197:0.1984127 198:0.3968254 201:0.1984127 203:0.59523809 204:0.1984127 206:0.1984127 209:0.1984127 210:0.1984127 212:0.1984127 213:0.59523809 215:0.1984127 216:0.3968254 217:0.59523809 218:0.59523809 223:0.1984127 226:0.1984127 230:0.1984127 232:0.1984127 239:0.1984127 241:0.3968254 243:0.3968254 244:0.1984127 245:0.1984127 246:0.1984127 249:0.3968254 250:0.59523809 253:0.1984127 255:0.1984127 258:0.1984127 263:0.3968254 264:0.79365081 267:0.1984127 268:0.1984127 270:0.1984127 273:1.9841269 274:0.3968254 275:0.1984127 276:0.59523809 277:0.59523809 278:0.1984127 285:0.1984127 286:0.1984127 287:0.1984127 298:0.3968254 301:0.1984127 303:0.1984127 306:0.1984127 307:0.1984127 312:0.1984127 313:0.1984127 316:0.3968254 321:0.1984127 322:0.1984127 324:0.3968254 326:0.1984127 327:0.1984127 328:0.1984127 329:0.3968254 330:0.99206346 331:0.1984127 333:0.79365081 334:0.1984127 335:0.1984127 336:0.99206346 337:0.99206346 342:0.1984127 346:0.3968254 349:0.1984127 351:0.3968254 356:1.3888888 358:0.1984127 359:0.1984127 360:0.59523809 361:0.1984127 364:0.1984127 365:0.1984127 367:0.1984127 369:0.3968254 370:0.3968254 372:0.3968254 373:0.1984127 376:1.1904762 377:0.3968254 378:0.3968254 380:0.1984127 387:0.1984127 388:0.1984127 398:0.1984127 409:0.3968254 418:0.1984127 419:0.1984127 438:0.13280213 525:0.13280213 528:0.13280213 536:0.13280213 549:0.13280213 575:0.13280213 584:0.13280213 734:0.13280213 770:0.13280213 776:0.13280213 777:0.13280213 868:0.13280213 896:0.13280213 1226:0.26560426 1227:0.13280213 1333:0.13280213 1369:0.13280213 1441:0.13280213 1444:0.13280213 1468:0.13280213 1476:0.13280213 1498:0.13280213 1516:0.13280213 1717:0.13280213 1764:0.13280213 1768:0.13280213 1771:0.13280213 1778:0.13280213 1796:0.13280213 1816:0.13280213 1849:0.13280213 1873:0.13280213 1922:0.13280213 1924:0.13280213 1960:0.13280213 1961:0.13280213 1978:0.13280213 2088:0.13280213 2137:0.13280213 2258:0.13280213 2264:0.13280213 2276:0.13280213 2349:0.13280213 2488:0.13280213 2506:0.13280213 2561:0.13280213 2603:0.13280213 2610:0.13280213 2618:0.26560426 2643:0.13280213 2645:0.13280213 2673:0.13280213 2686:0.13280213 2727:0.13280213 2736:0.13280213 2746:0.13280213 2904:0.13280213 2998:0.13280213 3015:0.13280213 3113:0.13280213 3158:0.13280213 3173:0.13280213 3176:0.13280213 3228:0.13280213 3297:0.13280213 3369:0.13280213 3393:0.13280213 3398:0.13280213 3430:0.13280213 3443:0.13280213 3464:0.13280213 3473:0.13280213 3506:0.13280213 3576:0.13280213 3661:0.13280213 3698:0.13280213 3730:0.13280213 3790:0.13280213 3803:0.13280213 3804:0.13280213 3849:0.13280213 3850:0.13280213 3853:0.13280213 3864:0.13280213 3901:0.13280213 3935:0.13280213 3946:0.13280213 3964:0.13280213 3972:0.13280213 4038:0.13280213 4061:0.26560426 4075:0.13280213 4089:0.13280213 4134:0.13280213 4190:0.13280213 4203:0.13280213 4250:0.13280213 4273:0.26560426 4274:0.13280213 4312:0.13280213 4330:0.13280213 4333:0.13280213 4351:0.13280213 4356:0.13280213 4360:0.13280213 4369:0.13280213 4370:0.13280213 4376:0.13280213 4466:0.13280213 4530:0.13280213 4617:0.13280213 4641:0.13280213 4798:0.13280213 4821:0.13280213 4826:0.13280213 4872:0.13280213 4873:0.13280213 4892:0.13280213 4913:0.13280213 4930:0.13280213 4992:0.13280213 4997:0.13280213 5006:0.13280213 5009:0.13280213 5016:0.13280213 5077:0.13280213 5116:0.13280213 5169:0.13280213 5272:0.13280213 5273:0.13280213 5288:0.13280213 5290:0.13280213 5293:0.13280213 5298:0.13280213 5358:0.13280213 5373:0.13280213 5413:0.13280213 5463:0.26560426 5464:0.13280213 5470:0.13280213 5473:0.39840639 5474:0.13280213 5477:0.13280213 5478:0.13280213 5485:0.13280213 5487:0.13280213 5503:0.13280213 5536:0.26560426 5537:0.13280213 5556:0.39840639 5565:0.13280213 5713:0.13280213 5732:0.13280213 5750:0.13280213 5976:0.13280213 5980:0.13280213 6029:0.13280213 6074:0.13280213 6124:0.13280213 6145:0.13280213 6255:0.13280213 6277:0.13280213 6330:0.13280213 6331:0.13280213 6436:0.13280213 6444:0.13280213 6485:0.13280213 6496:0.13280213 6536:0.13280213 6557:0.13280213 6572:0.13280213 6583:0.13280213 6592:0.13280213 6601:0.13280213 6612:0.13280213 6613:0.13280213 6617:0.13280213 6618:0.13280213 6632:0.13280213 6667:0.13280213 6673:0.26560426 6676:0.13280213 6698:0.13280213 6707:0.13280213 6721:0.13280213 6729:0.13280213 6730:0.13280213 6733:0.26560426 6751:0.13280213 6756:0.39840639 6759:0.13280213 6843:0.13280213 6930:0.13280213 6932:0.13280213 7026:0.13280213 7039:0.13280213 7128:0.13280213 7129:0.13280213 7136:0.13280213 7137:0.53120852 7172:0.13280213 7187:0.13280213 7209:0.26560426 7218:0.13280213 7238:0.13280213 7288:0.13280213 7312:0.13280213 7358:0.13280213 7389:0.13280213 7395:0.13280213 7413:0.13280213 7417:0.13280213 7446:0.13280213 7450:0.13280213 7475:0.13280213 7524:0.13280213 7526:0.13280213 7530:0.26560426 7533:0.13280213 7536:0.13280213 7542:0.13280213 7560:0.13280213 7567:0.13280213 7576:0.13280213 7619:0.13280213 7755:0.13280213 7773:0.13280213 7977:0.13280213 8186:0.13280213 8192:0.13280213 8378:0.13280213 8388:0.13280213 8421:0.0079051396 8430:0.0079051396 8431:0.0079051396 8432:0.0079051396 8435:0.06719368 8436:0.039525691 8440:0.015810279 8441:0.0043609999 8442:-0.00013099999 8443:4.0999999e-05 8444:-3.0000001e-06 8845:0.30829999 8846:0.0052590002 8847:-5.3e-05 8848:5.4e-05 8849:-2e-06 8850:1e-06 8851:-0 8852:0 8853:-0 8854:0 8855:-0 8856:0 8857:-0 8858:0 8859:-0 8860:0 8861:-0 8862:0 8863:-0 8864:0.19367599 #
-6.9287480486699450921150855720043 1:0.016666669 3:0.06666667 4:0.050000001 5:0.033333339 6:0.050000001 7:0.033333339 8:0.10833333 9:0.075000003 10:0.15833333 11:0.00833333 12:0.033333339 13:0.050000001 14:0.041666672 15:0.041666672 16:0.041666672 17:0.1 18:0.06666667 19:0.00833333 20:0.016666669 23:0.42016807 30:0.42016807 64:0.42016807 68:0.84033614 70:0.84033614 74:0.42016807 78:0.42016807 81:0.42016807 88:0.84033614 89:0.84033614 93:0.42016807 110:0.84033614 115:0.42016807 118:0.42016807 129:0.42016807 132:0.42016807 134:0.42016807 137:0.42016807 138:0.42016807 139:0.42016807 145:0.42016807 147:0.42016807 150:0.42016807 156:0.42016807 163:0.84033614 165:0.42016807 168:0.84033614 169:0.42016807 170:0.42016807 173:0.42016807 176:0.84033614 177:0.42016807 178:0.42016807 180:0.42016807 183:0.42016807 186:0.42016807 188:1.2605042 189:0.42016807 193:0.42016807 194:0.42016807 195:0.42016807 203:0.84033614 204:1.2605042 206:0.42016807 207:0.42016807 208:0.42016807 209:0.42016807 210:1.2605042 215:0.42016807 216:0.42016807 217:1.6806723 220:0.42016807 237:0.42016807 244:0.42016807 250:0.42016807 254:0.42016807 258:0.42016807 261:0.42016807 266:0.84033614 267:0.42016807 278:0.84033614 284:0.42016807 288:0.42016807 294:0.42016807 297:0.84033614 303:0.42016807 310:0.42016807 312:0.84033614 317:0.42016807 329:0.42016807 330:0.84033614 332:0.42016807 338:0.42016807 346:0.42016807 347:0.42016807 348:0.42016807 349:0.42016807 350:1.2605042 353:1.2605042 355:0.42016807 357:0.42016807 363:0.42016807 365:0.42016807 366:0.42016807 368:0.42016807 370:0.42016807 375:0.42016807 376:0.42016807 377:0.42016807 389:0.42016807 405:0.42016807 410:0.42016807 470:0.28248587 617:0.28248587 1289:0.28248587 1368:0.28248587 1377:0.28248587 1408:0.28248587 1410:0.28248587 1497:0.28248587 1575:0.28248587 1630:0.28248587 1768:0.28248587 1770:0.28248587 1793:0.28248587 1795:0.28248587 1866:0.28248587 2204:0.56497175 2317:0.28248587 2368:0.28248587 2588:0.28248587 2644:0.28248587 2694:0.28248587 2749:0.28248587 2777:0.28248587 2789:0.28248587 2910:0.28248587 2950:0.28248587 3020:0.28248587 3138:0.28248587 3264:0.28248587 3268:0.28248587 3318:0.28248587 3369:0.28248587 3376:0.28248587 3394:0.28248587 3409:0.28248587 3478:0.28248587 3530:0.28248587 3532:0.28248587 3553:0.28248587 3566:0.28248587 3605:0.28248587 3737:0.28248587 3763:0.28248587 3776:0.28248587 3780:0.28248587 3786:0.28248587 3867:0.28248587 3897:0.28248587 3912:0.28248587 4068:0.28248587 4078:0.28248587 4081:0.28248587 4088:0.28248587 4089:0.28248587 4134:0.28248587 4145:0.28248587 4165:0.28248587 4188:0.28248587 4204:0.28248587 4206:0.28248587 4210:0.28248587 4303:0.28248587 4330:0.28248587 4348:0.28248587 4350:0.28248587 4355:0.28248587 4357:0.28248587 4410:0.28248587 4750:0.28248587 4888:0.28248587 5017:0.28248587 5084:0.28248587 5165:0.28248587 5223:0.28248587 5338:0.28248587 5339:0.28248587 5356:0.28248587 5570:0.28248587 5576:0.28248587 5693:0.28248587 5778:0.28248587 5888:0.28248587 5946:0.28248587 5953:0.28248587 6070:0.28248587 6217:0.28248587 6250:0.28248587 6254:0.28248587 6347:0.28248587 6583:0.28248587 6610:0.28248587 6617:0.28248587 6658:0.28248587 6763:0.28248587 6929:0.28248587 6947:0.28248587 6973:0.28248587 6988:0.28248587 7003:0.28248587 7007:0.28248587 7016:0.28248587 7061:0.28248587 7066:0.28248587 7078:0.28248587 7110:0.28248587 7150:0.28248587 7274:0.28248587 7315:0.28248587 7332:0.28248587 7363:0.28248587 7403:0.28248587 7512:0.28248587 7529:0.28248587 7553:0.28248587 7789:0.28248587 8110:0.28248587 8215:0.28248587 8426:0.016666669 8429:0.016666669 8430:0.033333339 8431:0.041666672 8432:0.016666669 8437:0.016666669 8441:0.001321 8442:-2e-06 8443:3.0000001e-06 8444:-0 8845:0.39166701 8846:0.001018 8847:3.0000001e-06 8848:2e-06 8849:0 8850:0 8851:0 8852:0 8853:0 8854:0 8855:0 8856:0 8857:-0 8858:0 8859:-0 8860:0 8861:-0 8862:0 8863:-0 8864:0.23333301 #
-25.288904781669515386965940706432 1:0.064935073 2:0.021645021 3:0.060606059 4:0.067099556 5:0.03679654 6:0.090909094 7:0.023809521 8:0.067099556 9:0.045454551 10:0.095238097 11:0.01082251 12:0.038961042 13:0.08658009 14:0.02813853 15:0.047619049 16:0.06277056 17:0.043290049 18:0.067099556 19:0.017316019 20:0.023809521 21:0.21691974 23:0.32537961 24:0.32537961 28:0.65075922 30:0.10845987 32:0.32537961 33:0.32537961 35:0.21691974 36:0.10845987 37:0.10845987 38:0.32537961 40:0.21691974 42:0.10845987 43:0.10845987 44:0.32537961 46:0.10845987 50:0.10845987 52:0.10845987 53:0.10845987 56:0.10845987 61:0.21691974 63:0.21691974 64:0.21691974 66:0.32537961 67:0.10845987 68:0.43383947 70:0.21691974 71:0.10845987 72:0.10845987 73:0.10845987 74:0.10845987 76:0.10845987 78:0.43383947 79:0.32537961 81:0.10845987 86:0.65075922 88:0.21691974 89:0.10845987 90:0.32537961 91:0.21691974 92:0.32537961 93:0.10845987 94:0.21691974 95:0.21691974 96:0.21691974 97:0.10845987 98:0.21691974 99:0.10845987 100:0.21691974 102:0.10845987 103:0.21691974 104:0.32537961 106:0.10845987 110:0.43383947 113:0.21691974 115:0.10845987 116:0.21691974 118:0.10845987 121:0.21691974 123:0.43383947 124:0.21691974 125:0.21691974 126:0.54229933 127:0.10845987 128:0.43383947 129:0.32537961 130:0.10845987 131:0.10845987 132:0.10845987 133:0.54229933 135:0.32537961 136:0.10845987 137:0.32537961 138:0.21691974 140:0.21691974 144:0.10845987 145:0.32537961 150:0.10845987 152:0.10845987 153:0.21691974 154:0.10845987 158:0.10845987 160:0.10845987 161:0.10845987 162:0.21691974 163:0.10845987 164:0.21691974 165:0.32537961 166:0.21691974 168:0.10845987 169:0.32537961 170:0.10845987 173:0.43383947 174:0.10845987 175:0.10845987 176:0.21691974 177:0.10845987 178:0.32537961 179:0.21691974 180:0.10845987 181:0.21691974 182:0.10845987 184:0.21691974 185:0.10845987 188:0.43383947 189:0.10845987 190:0.10845987 192:0.10845987 193:0.21691974 194:0.21691974 195:0.21691974 198:0.21691974 201:0.43383947 203:0.21691974 204:0.10845987 205:0.10845987 206:0.21691974 207:0.32537961 209:0.10845987 210:0.54229933 212:0.21691974 213:0.75921911 214:0.10845987 215:0.32537961 216:0.65075922 217:0.43383947 218:0.21691974 221:0.10845987 227:0.10845987 229:0.10845987 236:0.10845987 238:0.10845987 241:0.21691974 242:0.21691974 244:0.21691974 246:0.21691974 247:0.10845987 248:0.10845987 250:0.43383947 251:0.10845987 253:0.10845987 255:0.10845987 256:0.10845987 261:0.10845987 262:0.10845987 263:0.21691974 264:0.10845987 266:0.65075922 268:0.32537961 269:0.21691974 270:0.54229933 272:0.10845987 273:0.10845987 274:0.10845987 275:0.21691974 276:0.43383947 277:0.43383947 278:0.43383947 279:0.10845987 283:0.21691974 284:0.10845987 286:0.21691974 287:0.10845987 288:0.10845987 289:0.21691974 292:0.10845987 294:0.10845987 295:0.10845987 298:0.10845987 301:0.10845987 302:0.10845987 304:0.32537961 305:0.32537961 306:0.21691974 308:0.21691974 309:0.10845987 310:0.32537961 313:0.10845987 315:0.10845987 317:0.10845987 318:0.21691974 319:0.10845987 321:0.32537961 322:0.10845987 323:0.32537961 325:0.10845987 326:0.65075922 328:0.10845987 329:0.32537961 330:0.21691974 333:0.21691974 334:0.10845987 335:0.21691974 336:0.10845987 337:0.10845987 338:0.21691974 341:0.43383947 343:0.10845987 344:0.10845987 346:0.21691974 347:0.21691974 348:0.21691974 349:0.10845987 350:0.10845987 352:0.10845987 353:0.43383947 354:0.10845987 361:0.32537961 363:0.54229933 364:0.32537961 365:0.21691974 366:0.10845987 369:0.10845987 370:0.32537961 372:0.10845987 373:0.32537961 375:0.10845987 376:0.32537961 377:0.21691974 378:0.10845987 380:0.21691974 384:0.10845987 386:0.10845987 387:0.10845987 390:0.10845987 392:0.10845987 394:0.10845987 397:0.10845987 400:0.10845987 401:0.10845987 405:0.10845987 409:0.10845987 410:0.54229933 416:0.21691974 417:0.10845987 433:0.072463773 435:0.072463773 463:0.072463773 478:0.072463773 479:0.072463773 486:0.072463773 490:0.072463773 497:0.072463773 564:0.14492753 565:0.14492753 573:0.072463773 579:0.072463773 613:0.072463773 644:0.072463773 650:0.14492753 666:0.072463773 676:0.072463773 709:0.072463773 717:0.072463773 738:0.072463773 750:0.072463773 761:0.072463773 764:0.072463773 770:0.072463773 809:0.072463773 816:0.072463773 853:0.072463773 868:0.072463773 886:0.072463773 888:0.072463773 898:0.072463773 921:0.072463773 1010:0.072463773 1050:0.072463773 1062:0.072463773 1136:0.072463773 1224:0.072463773 1236:0.072463773 1268:0.072463773 1272:0.072463773 1296:0.072463773 1299:0.072463773 1321:0.072463773 1324:0.072463773 1327:0.072463773 1345:0.072463773 1366:0.072463773 1369:0.14492753 1373:0.072463773 1410:0.072463773 1417:0.072463773 1427:0.072463773 1456:0.072463773 1476:0.072463773 1483:0.072463773 1533:0.072463773 1569:0.072463773 1570:0.072463773 1576:0.072463773 1577:0.072463773 1590:0.072463773 1594:0.072463773 1597:0.072463773 1621:0.072463773 1724:0.072463773 1728:0.14492753 1735:0.072463773 1737:0.072463773 1738:0.072463773 1762:0.072463773 1768:0.072463773 1788:0.072463773 1805:0.072463773 1809:0.072463773 1810:0.072463773 1836:0.072463773 1838:0.072463773 1842:0.072463773 1846:0.14492753 1875:0.072463773 1889:0.072463773 1898:0.072463773 1904:0.14492753 1926:0.072463773 1928:0.072463773 1952:0.072463773 1970:0.072463773 1976:0.072463773 1986:0.072463773 2010:0.14492753 2046:0.072463773 2068:0.072463773 2074:0.072463773 2086:0.14492753 2095:0.072463773 2140:0.072463773 2203:0.14492753 2204:0.072463773 2217:0.072463773 2266:0.072463773 2276:0.072463773 2318:0.072463773 2323:0.072463773 2334:0.072463773 2363:0.072463773 2428:0.072463773 2432:0.072463773 2464:0.072463773 2466:0.072463773 2470:0.072463773 2471:0.072463773 2490:0.072463773 2498:0.072463773 2510:0.14492753 2525:0.072463773 2526:0.072463773 2531:0.072463773 2532:0.072463773 2535:0.072463773 2550:0.072463773 2576:0.072463773 2578:0.14492753 2580:0.072463773 2588:0.072463773 2594:0.14492753 2617:0.072463773 2629:0.072463773 2642:0.072463773 2669:0.072463773 2670:0.14492753 2677:0.072463773 2678:0.072463773 2704:0.072463773 2708:0.072463773 2718:0.072463773 2729:0.072463773 2741:0.14492753 2749:0.072463773 2773:0.072463773 2775:0.072463773 2816:0.072463773 2817:0.072463773 2896:0.072463773 2910:0.072463773 2913:0.072463773 2916:0.072463773 3013:0.072463773 3055:0.072463773 3063:0.072463773 3066:0.072463773 3095:0.072463773 3172:0.072463773 3210:0.072463773 3232:0.072463773 3244:0.072463773 3252:0.072463773 3278:0.072463773 3291:0.072463773 3300:0.072463773 3303:0.14492753 3304:0.072463773 3333:0.14492753 3375:0.072463773 3385:0.072463773 3388:0.072463773 3392:0.072463773 3401:0.072463773 3466:0.14492753 3473:0.072463773 3477:0.072463773 3484:0.072463773 3506:0.072463773 3526:0.072463773 3538:0.072463773 3547:0.072463773 3563:0.14492753 3566:0.072463773 3592:0.072463773 3600:0.072463773 3601:0.072463773 3628:0.072463773 3633:0.072463773 3644:0.072463773 3694:0.072463773 3700:0.072463773 3710:0.072463773 3761:0.072463773 3762:0.072463773 3770:0.072463773 3774:0.072463773 3793:0.072463773 3815:0.072463773 3850:0.072463773 3869:0.072463773 3879:0.072463773 3886:0.072463773 3887:0.072463773 3901:0.072463773 3910:0.072463773 3973:0.072463773 3980:0.072463773 4024:0.072463773 4028:0.072463773 4032:0.072463773 4038:0.072463773 4061:0.072463773 4070:0.072463773 4090:0.072463773 4115:0.072463773 4129:0.072463773 4133:0.072463773 4152:0.072463773 4154:0.072463773 4158:0.072463773 4182:0.072463773 4201:0.072463773 4206:0.072463773 4210:0.072463773 4212:0.072463773 4216:0.072463773 4241:0.072463773 4248:0.072463773 4263:0.072463773 4266:0.072463773 4276:0.072463773 4277:0.14492753 4278:0.14492753 4294:0.072463773 4302:0.072463773 4308:0.072463773 4315:0.072463773 4322:0.072463773 4326:0.14492753 4335:0.14492753 4337:0.072463773 4343:0.072463773 4347:0.072463773 4348:0.072463773 4353:0.072463773 4365:0.072463773 4378:0.072463773 4430:0.072463773 4545:0.072463773 4584:0.072463773 4726:0.072463773 4763:0.072463773 4828:0.072463773 4838:0.072463773 4843:0.072463773 4850:0.072463773 4881:0.072463773 4895:0.072463773 4926:0.14492753 4944:0.072463773 4979:0.072463773 5006:0.072463773 5013:0.072463773 5016:0.14492753 5021:0.072463773 5068:0.072463773 5119:0.072463773 5121:0.072463773 5221:0.072463773 5244:0.072463773 5268:0.072463773 5278:0.072463773 5292:0.072463773 5323:0.14492753 5328:0.072463773 5330:0.072463773 5335:0.072463773 5338:0.072463773 5363:0.072463773 5365:0.072463773 5366:0.072463773 5390:0.072463773 5395:0.072463773 5401:0.072463773 5407:0.14492753 5413:0.072463773 5415:0.072463773 5441:0.072463773 5478:0.072463773 5488:0.072463773 5505:0.072463773 5510:0.072463773 5521:0.14492753 5526:0.072463773 5530:0.072463773 5541:0.072463773 5553:0.2173913 5561:0.072463773 5564:0.072463773 5565:0.072463773 5577:0.072463773 5584:0.072463773 5673:0.072463773 5678:0.072463773 5686:0.072463773 5723:0.072463773 5733:0.072463773 5745:0.072463773 5773:0.072463773 5788:0.072463773 5798:0.072463773 5851:0.072463773 5892:0.072463773 5913:0.072463773 5980:0.072463773 6038:0.072463773 6056:0.072463773 6089:0.072463773 6092:0.14492753 6106:0.072463773 6113:0.072463773 6116:0.072463773 6126:0.072463773 6136:0.072463773 6176:0.072463773 6178:0.072463773 6181:0.072463773 6213:0.072463773 6216:0.072463773 6218:0.072463773 6270:0.072463773 6310:0.072463773 6348:0.072463773 6364:0.072463773 6376:0.072463773 6387:0.072463773 6423:0.072463773 6424:0.072463773 6435:0.072463773 6442:0.072463773 6463:0.072463773 6466:0.072463773 6479:0.072463773 6502:0.072463773 6525:0.072463773 6528:0.072463773 6529:0.14492753 6533:0.072463773 6537:0.072463773 6569:0.072463773 6584:0.072463773 6589:0.072463773 6598:0.072463773 6613:0.072463773 6614:0.072463773 6672:0.072463773 6674:0.072463773 6686:0.072463773 6705:0.072463773 6706:0.072463773 6723:0.072463773 6746:0.072463773 6761:0.072463773 6763:0.072463773 6823:0.072463773 6828:0.14492753 6833:0.072463773 6867:0.072463773 6886:0.072463773 6923:0.072463773 6926:0.072463773 6953:0.072463773 6960:0.072463773 6973:0.072463773 6977:0.072463773 6981:0.072463773 7001:0.072463773 7047:0.072463773 7064:0.072463773 7068:0.072463773 7070:0.072463773 7075:0.072463773 7083:0.072463773 7223:0.072463773 7237:0.072463773 7240:0.072463773 7261:0.072463773 7264:0.072463773 7266:0.072463773 7276:0.072463773 7279:0.072463773 7288:0.072463773 7291:0.072463773 7293:0.072463773 7304:0.072463773 7318:0.072463773 7337:0.072463773 7393:0.072463773 7407:0.072463773 7412:0.072463773 7415:0.072463773 7453:0.072463773 7461:0.072463773 7468:0.072463773 7470:0.072463773 7505:0.072463773 7523:0.072463773 7525:0.072463773 7529:0.072463773 7544:0.072463773 7554:0.072463773 7573:0.072463773 7610:0.14492753 7694:0.072463773 7740:0.072463773 7753:0.072463773 7818:0.072463773 7844:0.072463773 7889:0.072463773 7946:0.072463773 8005:0.072463773 8040:0.072463773 8104:0.072463773 8195:0.072463773 8210:0.072463773 8213:0.072463773 8216:0.14492753 8217:0.072463773 8329:0.072463773 8333:0.072463773 8341:0.072463773 8421:0.0086580096 8422:0.0043290001 8424:0.0086580096 8425:0.0043290001 8426:0.0043290001 8428:0.019480521 8430:0.0043290001 8431:0.019480521 8432:0.0043290001 8435:0.0043290001 8436:0.0043290001 8440:0.0043290001 8441:0.017196 8442:-0.000132 8443:0.00052499998 8444:-9.9999997e-06 8845:0.36363599 8846:0.018252 8847:1.6e-05 8848:0.00057600002 8849:3.0000001e-06 8850:2.1e-05 8851:0 8852:1e-06 8853:0 8854:0 8855:0 8856:0 8857:0 8858:0 8859:0 8860:0 8861:0 8862:0 8863:0 8864:0.220779 #
-31.515960063403554158867336809635 1:0.087878793 2:0.02424242 3:0.07272727 4:0.045454551 5:0.051515151 6:0.084848493 7:0.01515152 8:0.054545451 9:0.02121212 10:0.10606061 11:0.01515152 12:0.06666667 13:0.042424239 14:0.030303029 15:0.06969697 16:0.075757578 17:0.057575759 18:0.07272727 20:0.0060606101 21:0.45592704 23:0.45592704 24:0.30395138 25:0.15197569 26:0.30395138 27:0.15197569 28:0.45592704 29:0.15197569 30:0.60790277 32:0.15197569 33:0.30395138 34:0.15197569 35:0.45592704 36:0.15197569 38:0.15197569 41:0.15197569 43:0.15197569 45:0.15197569 46:0.15197569 53:0.45592704 55:0.15197569 61:0.30395138 62:0.30395138 63:0.15197569 65:0.15197569 66:0.60790277 68:0.30395138 70:0.30395138 72:0.15197569 73:0.30395138 74:0.15197569 76:0.30395138 77:0.15197569 78:0.30395138 80:0.15197569 81:0.15197569 85:0.30395138 86:0.30395138 88:0.45592704 89:0.15197569 92:0.30395138 93:0.15197569 95:0.15197569 96:0.15197569 98:0.15197569 101:0.30395138 103:0.15197569 104:0.15197569 105:0.15197569 106:0.30395138 107:0.15197569 109:0.15197569 110:0.15197569 114:0.15197569 116:0.45592704 117:0.15197569 118:0.15197569 120:0.15197569 121:0.30395138 122:0.15197569 123:0.15197569 124:0.30395138 125:0.15197569 126:0.30395138 130:0.30395138 132:0.30395138 133:0.30395138 134:0.15197569 135:0.60790277 136:0.30395138 138:0.7598784 143:0.15197569 145:0.15197569 152:0.30395138 157:0.15197569 161:0.30395138 163:0.15197569 164:0.45592704 169:0.30395138 170:0.7598784 172:0.15197569 173:0.15197569 175:0.30395138 176:0.15197569 184:0.15197569 185:0.15197569 191:0.15197569 192:0.15197569 197:0.30395138 198:0.15197569 201:0.30395138 203:0.7598784 204:0.30395138 205:0.15197569 206:0.30395138 207:0.30395138 208:0.15197569 210:0.45592704 211:0.15197569 213:0.30395138 214:0.30395138 215:0.15197569 216:0.45592704 217:0.7598784 218:0.45592704 225:0.15197569 226:0.30395138 228:0.15197569 235:0.15197569 241:0.30395138 243:0.30395138 244:0.15197569 245:0.30395138 246:0.30395138 250:0.45592704 252:0.30395138 254:0.15197569 255:0.45592704 256:0.15197569 258:0.45592704 261:0.15197569 263:0.30395138 264:0.15197569 266:0.15197569 268:0.15197569 270:0.30395138 272:0.15197569 274:0.15197569 276:0.30395138 277:0.30395138 282:0.30395138 286:0.15197569 288:0.15197569 290:0.15197569 292:0.45592704 296:0.15197569 297:0.15197569 301:0.45592704 303:0.30395138 304:0.15197569 305:0.15197569 306:0.30395138 308:0.15197569 310:0.45592704 312:0.15197569 314:0.15197569 315:0.60790277 316:0.15197569 317:0.15197569 318:0.30395138 322:0.15197569 323:0.45592704 325:0.15197569 326:0.45592704 328:0.15197569 329:0.30395138 330:0.60790277 331:0.15197569 332:0.15197569 333:0.15197569 335:0.15197569 336:0.15197569 337:0.30395138 338:0.45592704 341:0.7598784 342:0.15197569 343:0.15197569 345:0.15197569 346:0.30395138 348:0.15197569 350:0.15197569 352:0.15197569 356:0.45592704 357:0.30395138 358:0.15197569 361:0.45592704 362:0.15197569 364:0.15197569 367:0.15197569 368:0.45592704 370:0.60790277 371:0.15197569 372:0.45592704 374:0.15197569 375:0.30395138 376:0.30395138 377:0.15197569 378:0.15197569 405:0.15197569 416:0.15197569 424:0.10162602 430:0.10162602 433:0.10162602 461:0.10162602 466:0.10162602 468:0.10162602 488:0.10162602 492:0.10162602 514:0.10162602 526:0.10162602 536:0.10162602 557:0.10162602 561:0.20325203 575:0.10162602 598:0.10162602 601:0.10162602 604:0.10162602 613:0.10162602 616:0.10162602 650:0.10162602 661:0.10162602 677:0.10162602 690:0.10162602 701:0.10162602 706:0.10162602 716:0.10162602 735:0.10162602 761:0.10162602 823:0.10162602 866:0.10162602 918:0.10162602 938:0.10162602 1066:0.10162602 1072:0.10162602 1074:0.10162602 1115:0.10162602 1221:0.10162602 1238:0.10162602 1245:0.10162602 1255:0.10162602 1268:0.10162602 1320:0.10162602 1325:0.10162602 1335:0.10162602 1336:0.10162602 1338:0.10162602 1369:0.10162602 1370:0.10162602 1417:0.10162602 1418:0.10162602 1443:0.10162602 1476:0.10162602 1477:0.10162602 1488:0.10162602 1525:0.10162602 1530:0.10162602 1557:0.10162602 1570:0.10162602 1575:0.10162602 1605:0.10162602 1625:0.10162602 1705:0.10162602 1710:0.10162602 1724:0.20325203 1770:0.10162602 1775:0.10162602 1776:0.10162602 1784:0.10162602 1854:0.10162602 1858:0.10162602 1864:0.10162602 1901:0.10162602 1923:0.10162602 1968:0.10162602 2024:0.10162602 2035:0.10162602 2072:0.10162602 2098:0.10162602 2117:0.10162602 2135:0.10162602 2138:0.10162602 2143:0.10162602 2192:0.10162602 2214:0.10162602 2292:0.10162602 2326:0.10162602 2336:0.10162602 2338:0.10162602 2352:0.10162602 2372:0.10162602 2416:0.10162602 2427:0.10162602 2433:0.10162602 2443:0.10162602 2470:0.10162602 2488:0.10162602 2489:0.10162602 2504:0.10162602 2523:0.10162602 2533:0.10162602 2608:0.10162602 2616:0.10162602 2656:0.10162602 2658:0.10162602 2663:0.10162602 2676:0.10162602 2696:0.10162602 2704:0.10162602 2715:0.10162602 2717:0.10162602 2718:0.10162602 2730:0.10162602 2738:0.10162602 2764:0.10162602 2768:0.20325203 2770:0.10162602 2778:0.10162602 2862:0.10162602 2907:0.10162602 3045:0.10162602 3050:0.10162602 3145:0.10162602 3221:0.10162602 3235:0.10162602 3263:0.10162602 3293:0.10162602 3295:0.10162602 3296:0.10162602 3391:0.10162602 3397:0.10162602 3401:0.10162602 3405:0.10162602 3411:0.10162602 3417:0.20325203 3452:0.10162602 3470:0.10162602 3501:0.10162602 3515:0.10162602 3538:0.10162602 3681:0.10162602 3716:0.10162602 3826:0.10162602 3850:0.10162602 3941:0.10162602 3948:0.10162602 3971:0.10162602 4026:0.10162602 4028:0.10162602 4061:0.10162602 4066:0.10162602 4073:0.10162602 4077:0.10162602 4078:0.10162602 4088:0.10162602 4092:0.10162602 4116:0.10162602 4133:0.10162602 4135:0.10162602 4145:0.10162602 4152:0.10162602 4164:0.10162602 4203:0.10162602 4206:0.10162602 4213:0.10162602 4225:0.10162602 4268:0.10162602 4270:0.10162602 4292:0.10162602 4297:0.10162602 4315:0.10162602 4326:0.10162602 4329:0.10162602 4332:0.10162602 4341:0.20325203 4346:0.10162602 4356:0.20325203 4361:0.10162602 4370:0.10162602 4372:0.10162602 4506:0.10162602 4530:0.10162602 4532:0.10162602 4569:0.10162602 4710:0.10162602 4826:0.10162602 4834:0.10162602 4878:0.10162602 4880:0.10162602 4885:0.10162602 4901:0.10162602 4916:0.10162602 4922:0.10162602 5003:0.20325203 5014:0.10162602 5055:0.20325203 5092:0.10162602 5105:0.10162602 5106:0.10162602 5110:0.10162602 5126:0.10162602 5162:0.10162602 5175:0.10162602 5177:0.10162602 5223:0.10162602 5276:0.20325203 5285:0.10162602 5338:0.10162602 5370:0.10162602 5406:0.10162602 5418:0.10162602 5458:0.10162602 5486:0.10162602 5528:0.10162602 5530:0.10162602 5556:0.10162602 5558:0.10162602 5646:0.10162602 5653:0.10162602 5726:0.10162602 5770:0.10162602 5817:0.10162602 5841:0.10162602 5844:0.10162602 5852:0.10162602 5923:0.10162602 5950:0.10162602 6023:0.10162602 6032:0.10162602 6036:0.10162602 6062:0.10162602 6066:0.10162602 6086:0.10162602 6101:0.10162602 6130:0.10162602 6138:0.10162602 6170:0.10162602 6207:0.20325203 6217:0.10162602 6243:0.10162602 6282:0.10162602 6303:0.20325203 6314:0.10162602 6318:0.10162602 6331:0.10162602 6341:0.10162602 6372:0.10162602 6374:0.10162602 6441:0.10162602 6465:0.10162602 6473:0.10162602 6474:0.10162602 6503:0.10162602 6521:0.10162602 6532:0.10162602 6534:0.10162602 6564:0.10162602 6585:0.10162602 6597:0.10162602 6603:0.20325203 6604:0.10162602 6618:0.10162602 6628:0.10162602 6641:0.10162602 6663:0.10162602 6712:0.10162602 6737:0.10162602 6746:0.10162602 6757:0.10162602 6761:0.10162602 6767:0.10162602 6770:0.10162602 6828:0.20325203 6829:0.10162602 6830:0.10162602 6835:0.10162602 6853:0.10162602 6870:0.10162602 6906:0.10162602 6921:0.10162602 6935:0.10162602 6973:0.10162602 7015:0.10162602 7045:0.10162602 7123:0.10162602 7129:0.10162602 7133:0.10162602 7142:0.10162602 7143:0.10162602 7176:0.10162602 7221:0.10162602 7230:0.20325203 7253:0.10162602 7286:0.10162602 7352:0.10162602 7363:0.10162602 7364:0.10162602 7372:0.10162602 7410:0.30487806 7416:0.10162602 7435:0.10162602 7446:0.20325203 7455:0.10162602 7482:0.10162602 7508:0.10162602 7510:0.10162602 7522:0.10162602 7530:0.10162602 7541:0.10162602 7576:0.10162602 8109:0.10162602 8337:0.10162602 8421:0.018181819 8422:0.02424242 8423:0.01212121 8424:0.0060606101 8428:0.01212121 8431:0.018181819 8434:0.0060606101 8436:0.0060606101 8437:0.01212121 8440:0.0060606101 8441:0.0087940004 8442:0.000197 8443:0.00015000001 8444:7.0000001e-06 8845:0.412121 8846:0.0090880003 8847:3.6000001e-05 8848:0.000139 8849:1e-06 8850:3.0000001e-06 8851:-0 8852:0 8853:-0 8854:0 8855:-0 8856:0 8857:-0 8858:0 8859:-0 8860:0 8861:-0 8862:0 8863:-0 8864:0.20909099 #
-39.833821136140798557789821643382 1:0.02771363 2:0.03464203 3:0.036951501 4:0.02078522 5:0.076212473 6:0.04849885 7:0.030023091 8:0.036951501 9:0.030023091 10:0.18706697 11:0.02078522 12:0.043879911 13:0.076212473 14:0.01847575 15:0.060046189 16:0.1039261 17:0.064665116 18:0.043879911 19:0.0092378799 20:0.030023091 21:0.11574074 30:0.5787037 33:0.11574074 35:0.11574074 36:0.23148148 37:0.11574074 38:0.11574074 43:0.11574074 45:0.23148148 46:0.23148148 48:0.11574074 49:0.11574074 50:0.46296296 55:0.11574074 56:0.11574074 57:0.11574074 58:0.11574074 61:0.11574074 65:0.11574074 68:0.11574074 70:0.69444442 73:0.11574074 76:0.23148148 77:0.11574074 78:0.11574074 80:0.23148148 81:0.11574074 83:0.34722221 90:0.23148148 92:0.11574074 93:0.11574074 96:0.11574074 101:0.23148148 102:0.23148148 103:0.34722221 106:0.23148148 108:0.23148148 109:0.34722221 110:0.34722221 111:0.11574074 112:0.11574074 113:0.34722221 116:0.46296296 117:0.46296296 118:0.11574074 119:0.11574074 120:0.11574074 121:0.11574074 123:0.11574074 124:0.11574074 125:0.46296296 126:0.23148148 130:0.46296296 132:0.11574074 134:0.11574074 135:0.23148148 136:0.34722221 140:0.11574074 142:0.11574074 144:0.11574074 146:0.23148148 150:0.46296296 154:0.11574074 155:0.11574074 158:0.34722221 165:0.11574074 167:0.11574074 168:0.11574074 170:0.11574074 171:0.11574074 172:0.11574074 173:0.11574074 175:0.11574074 176:0.34722221 177:0.23148148 178:0.11574074 179:0.11574074 180:0.11574074 181:0.23148148 183:0.11574074 190:0.5787037 193:0.23148148 197:0.23148148 198:0.11574074 202:0.34722221 203:0.46296296 204:0.34722221 205:0.11574074 206:0.11574074 207:0.34722221 208:0.46296296 209:0.46296296 210:1.6203704 211:0.23148148 212:0.5787037 213:0.5787037 214:0.46296296 215:0.69444442 216:0.81018519 217:0.92592591 218:0.46296296 220:0.34722221 224:0.11574074 225:0.23148148 230:0.11574074 232:0.11574074 236:0.11574074 237:0.11574074 238:0.23148148 242:0.11574074 243:0.23148148 245:0.23148148 246:0.11574074 247:0.11574074 249:0.11574074 250:0.46296296 252:0.11574074 253:0.23148148 254:0.11574074 255:0.11574074 256:0.11574074 257:0.11574074 261:0.11574074 265:0.23148148 266:0.23148148 267:0.11574074 268:0.23148148 269:0.11574074 270:0.69444442 271:0.11574074 272:0.23148148 273:0.23148148 275:0.46296296 276:0.34722221 277:0.23148148 278:0.11574074 279:0.11574074 280:0.23148148 282:0.11574074 289:0.11574074 291:0.11574074 293:0.11574074 296:0.23148148 297:0.23148148 301:0.11574074 302:0.23148148 304:0.11574074 305:0.23148148 306:0.23148148 307:0.11574074 308:0.11574074 309:0.11574074 310:0.5787037 312:0.23148148 313:0.11574074 314:0.11574074 315:0.23148148 316:0.23148148 318:0.11574074 320:0.11574074 322:0.11574074 323:0.11574074 325:0.81018519 326:0.34722221 327:0.34722221 328:0.46296296 330:0.69444442 331:0.11574074 332:0.23148148 333:0.34722221 335:0.34722221 336:1.0416666 337:0.11574074 340:0.11574074 341:0.11574074 342:0.23148148 344:0.11574074 345:0.23148148 347:0.11574074 350:0.81018519 351:0.11574074 352:0.23148148 353:0.34722221 355:0.23148148 356:0.23148148 357:0.11574074 358:0.11574074 359:0.11574074 360:0.11574074 362:0.11574074 365:0.46296296 366:0.23148148 367:0.11574074 369:0.11574074 370:0.23148148 373:0.46296296 375:0.11574074 376:0.23148148 378:0.11574074 385:0.23148148 393:0.11574074 401:0.11574074 402:0.11574074 404:0.11574074 405:0.11574074 406:0.23148148 407:0.11574074 410:0.23148148 413:0.23148148 415:0.11574074 417:0.11574074 430:0.077339523 609:0.077339523 613:0.15467905 618:0.077339523 620:0.077339523 675:0.077339523 701:0.077339523 735:0.077339523 736:0.077339523 750:0.077339523 776:0.077339523 878:0.077339523 908:0.077339523 913:0.077339523 925:0.077339523 936:0.077339523 979:0.077339523 990:0.077339523 1008:0.077339523 1009:0.077339523 1010:0.077339523 1018:0.077339523 1116:0.077339523 1136:0.077339523 1152:0.077339523 1165:0.077339523 1236:0.077339523 1309:0.077339523 1371:0.077339523 1408:0.077339523 1410:0.15467905 1416:0.077339523 1417:0.077339523 1418:0.077339523 1472:0.077339523 1526:0.077339523 1536:0.077339523 1545:0.077339523 1570:0.077339523 1610:0.077339523 1615:0.077339523 1638:0.077339523 1661:0.077339523 1665:0.077339523 1670:0.077339523 1807:0.077339523 1808:0.077339523 1853:0.077339523 1868:0.077339523 1933:0.077339523 2035:0.077339523 2036:0.077339523 2045:0.077339523 2050:0.077339523 2070:0.15467905 2076:0.077339523 2132:0.077339523 2136:0.077339523 2176:0.077339523 2177:0.077339523 2181:0.077339523 2190:0.077339523 2193:0.077339523 2203:0.077339523 2211:0.077339523 2212:0.077339523 2225:0.077339523 2257:0.077339523 2270:0.077339523 2275:0.077339523 2279:0.077339523 2322:0.077339523 2323:0.077339523 2330:0.077339523 2332:0.077339523 2344:0.077339523 2345:0.077339523 2350:0.077339523 2356:0.077339523 2365:0.077339523 2385:0.077339523 2407:0.077339523 2437:0.077339523 2480:0.077339523 2492:0.077339523 2506:0.077339523 2509:0.077339523 2510:0.077339523 2517:0.077339523 2521:0.077339523 2526:0.077339523 2610:0.077339523 2612:0.077339523 2613:0.077339523 2615:0.077339523 2656:0.077339523 2691:0.077339523 2704:0.077339523 2715:0.077339523 2725:0.077339523 2730:0.15467905 2801:0.077339523 2849:0.077339523 2881:0.077339523 2935:0.15467905 3002:0.077339523 3015:0.077339523 3016:0.077339523 3017:0.077339523 3096:0.077339523 3109:0.077339523 3166:0.077339523 3173:0.077339523 3175:0.077339523 3316:0.077339523 3358:0.077339523 3365:0.077339523 3418:0.077339523 3438:0.077339523 3453:0.077339523 3467:0.077339523 3520:0.077339523 3525:0.077339523 3528:0.077339523 3536:0.077339523 3555:0.077339523 3559:0.077339523 3567:0.077339523 3585:0.077339523 3613:0.077339523 3630:0.15467905 3670:0.077339523 3802:0.077339523 3810:0.077339523 3813:0.077339523 3814:0.15467905 3865:0.077339523 3871:0.077339523 3950:0.077339523 3955:0.077339523 3973:0.077339523 4048:0.077339523 4050:0.077339523 4055:0.077339523 4070:0.15467905 4073:0.077339523 4076:0.077339523 4083:0.15467905 4096:0.077339523 4117:0.077339523 4140:0.077339523 4146:0.077339523 4150:0.077339523 4158:0.077339523 4167:0.077339523 4173:0.077339523 4176:0.077339523 4177:0.077339523 4183:0.077339523 4193:0.077339523 4197:0.077339523 4198:0.077339523 4202:0.077339523 4203:0.077339523 4204:0.077339523 4210:0.30935809 4212:0.077339523 4214:0.15467905 4215:0.15467905 4216:0.077339523 4217:0.077339523 4225:0.077339523 4230:0.077339523 4245:0.077339523 4250:0.23201856 4255:0.077339523 4269:0.077339523 4270:0.077339523 4272:0.077339523 4275:0.077339523 4276:0.077339523 4282:0.077339523 4289:0.077339523 4293:0.077339523 4296:0.077339523 4302:0.15467905 4305:0.077339523 4308:0.077339523 4310:0.077339523 4313:0.077339523 4326:0.077339523 4328:0.077339523 4333:0.077339523 4335:0.077339523 4336:0.15467905 4340:0.077339523 4341:0.077339523 4342:0.15467905 4347:0.077339523 4350:0.077339523 4351:0.077339523 4353:0.077339523 4360:0.077339523 4365:0.077339523 4369:0.077339523 4373:0.077339523 4376:0.077339523 4402:0.077339523 4406:0.077339523 4417:0.077339523 4493:0.077339523 4510:0.077339523 4516:0.077339523 4616:0.077339523 4650:0.077339523 4725:0.077339523 4752:0.077339523 4766:0.077339523 4773:0.077339523 4856:0.077339523 4868:0.077339523 4880:0.077339523 4906:0.077339523 4910:0.077339523 4930:0.077339523 4958:0.077339523 4990:0.077339523 5007:0.077339523 5016:0.077339523 5017:0.15467905 5043:0.077339523 5068:0.077339523 5073:0.077339523 5097:0.077339523 5115:0.077339523 5125:0.077339523 5150:0.077339523 5233:0.077339523 5311:0.077339523 5317:0.077339523 5326:0.077339523 5330:0.077339523 5342:0.077339523 5378:0.077339523 5380:0.077339523 5390:0.077339523 5404:0.077339523 5405:0.077339523 5407:0.077339523 5412:0.077339523 5415:0.15467905 5436:0.077339523 5443:0.077339523 5454:0.077339523 5476:0.077339523 5478:0.077339523 5506:0.077339523 5510:0.077339523 5516:0.077339523 5518:0.077339523 5525:0.15467905 5528:0.077339523 5553:0.15467905 5570:0.077339523 5605:0.077339523 5613:0.077339523 5646:0.077339523 5797:0.077339523 5832:0.077339523 5866:0.077339523 5927:0.077339523 5937:0.077339523 5950:0.15467905 6030:0.077339523 6045:0.077339523 6058:0.077339523 6090:0.077339523 6102:0.077339523 6108:0.077339523 6125:0.077339523 6134:0.077339523 6150:0.077339523 6170:0.077339523 6190:0.077339523 6203:0.15467905 6210:0.23201856 6245:0.077339523 6252:0.077339523 6277:0.077339523 6297:0.077339523 6310:0.077339523 6314:0.077339523 6326:0.077339523 6331:0.077339523 6378:0.077339523 6406:0.077339523 6450:0.077339523 6477:0.077339523 6503:0.23201856 6513:0.077339523 6517:0.077339523 6519:0.077339523 6520:0.077339523 6523:0.077339523 6525:0.077339523 6530:0.077339523 6544:0.077339523 6550:0.077339523 6555:0.077339523 6568:0.077339523 6572:0.077339523 6575:0.077339523 6576:0.077339523 6604:0.077339523 6606:0.077339523 6608:0.077339523 6613:0.077339523 6616:0.077339523 6617:0.077339523 6624:0.077339523 6646:0.077339523 6647:0.077339523 6675:0.077339523 6680:0.15467905 6710:0.15467905 6712:0.077339523 6725:0.077339523 6727:0.077339523 6730:0.15467905 6732:0.077339523 6733:0.077339523 6736:0.23201856 6758:0.077339523 6810:0.077339523 6821:0.077339523 6846:0.077339523 6857:0.077339523 6890:0.077339523 6912:0.077339523 6918:0.077339523 6954:0.077339523 7009:0.15467905 7010:0.077339523 7017:0.15467905 7020:0.15467905 7037:0.077339523 7042:0.077339523 7049:0.077339523 7070:0.15467905 7077:0.077339523 7105:0.077339523 7107:0.077339523 7128:0.077339523 7130:0.077339523 7156:0.077339523 7165:0.077339523 7193:0.077339523 7204:0.077339523 7250:0.077339523 7301:0.15467905 7316:0.15467905 7324:0.077339523 7336:0.077339523 7346:0.077339523 7381:0.077339523 7410:0.077339523 7412:0.077339523 7461:0.077339523 7466:0.077339523 7473:0.077339523 7476:0.077339523 7506:0.077339523 7527:0.077339523 7535:0.077339523 7562:0.077339523 7709:0.077339523 7713:0.077339523 7870:0.077339523 8030:0.077339523 8043:0.077339523 8083:0.077339523 8102:0.077339523 8125:0.077339523 8130:0.077339523 8150:0.077339523 8211:0.077339523 8216:0.077339523 8265:0.077339523 8270:0.077339523 8312:0.077339523 8357:0.077339523 8421:0.0046189399 8422:0.0092378799 8423:0.0046189399 8428:0.0069284099 8430:0.0046189399 8431:0.05542725 8435:0.0092378799 8436:0.03464203 8437:0.0046189399 8440:0.0046189399 8441:0.016023999 8442:-0.000176 8443:0.00044900001 8444:-1.2e-05 8845:0.42725199 8846:0.013906 8847:0.00040399999 8848:0.000356 8849:2.4000001e-05 8850:1.1e-05 8851:1e-06 8852:0 8853:0 8854:0 8855:0 8856:0 8857:0 8858:0 8859:0 8860:0 8861:0 8862:0 8863:0 8864:0.147806 #
-6.9426288114341332402545958757401 1:0.065326631 3:0.070351757 4:0.11557789 5:0.0201005 6:0.11557789 7:0.0050251302 8:0.030150751 9:0.045226131 10:0.085427143 11:0.030150751 12:0.035175879 13:0.055276379 14:0.035175879 15:0.10050251 16:0.10552764 17:0.055276379 18:0.01005025 19:0.0050251302 20:0.01507538 23:0.50505048 25:0.25252524 26:0.50505048 28:0.25252524 29:0.25252524 30:0.25252524 35:0.25252524 36:0.75757575 38:0.25252524 61:0.75757575 63:0.25252524 64:0.75757575 66:0.75757575 70:0.25252524 71:0.25252524 73:0.25252524 76:0.25252524 81:0.25252524 84:0.50505048 85:0.25252524 86:0.50505048 88:0.50505048 89:0.25252524 90:0.25252524 92:0.50505048 93:0.25252524 95:1.5151515 96:0.25252524 97:0.25252524 100:0.50505048 103:0.25252524 108:0.25252524 109:0.25252524 117:0.25252524 123:0.50505048 124:1.2626263 126:1.2626263 129:0.25252524 133:0.50505048 134:0.25252524 136:1.010101 137:0.50505048 144:0.25252524 161:0.50505048 169:0.25252524 171:0.50505048 177:0.25252524 183:0.25252524 184:0.50505048 189:0.25252524 190:0.50505048 195:0.75757575 201:0.25252524 203:0.50505048 204:0.75757575 205:0.25252524 210:0.50505048 213:0.25252524 214:0.50505048 215:0.50505048 216:0.75757575 221:0.25252524 223:0.25252524 226:0.25252524 232:0.25252524 237:0.25252524 239:0.25252524 244:0.25252524 250:0.25252524 251:0.25252524 253:0.25252524 254:0.25252524 256:0.25252524 257:0.25252524 261:0.50505048 264:0.25252524 265:0.25252524 266:0.50505048 270:0.25252524 273:0.25252524 276:0.25252524 277:0.50505048 281:0.25252524 286:0.25252524 289:0.50505048 290:0.50505048 295:0.25252524 303:0.25252524 304:0.50505048 307:0.25252524 308:0.50505048 310:0.75757575 312:0.50505048 313:0.25252524 314:0.50505048 315:1.2626263 316:0.25252524 321:0.25252524 323:0.75757575 324:0.25252524 326:1.010101 329:0.25252524 330:0.25252524 331:0.25252524 332:0.25252524 333:0.50505048 335:0.25252524 336:0.75757575 337:0.25252524 338:0.25252524 341:0.25252524 346:0.75757575 352:0.25252524 353:0.25252524 354:0.25252524 355:0.25252524 356:0.50505048 357:0.25252524 364:0.25252524 370:0.25252524 396:0.25252524 404:0.25252524 410:0.25252524 420:0.25252524 466:0.16920474 473:0.16920474 517:0.16920474 526:0.16920474 529:0.16920474 569:0.16920474 595:0.16920474 604:0.16920474 715:0.16920474 723:0.16920474 735:0.16920474 736:0.16920474 770:0.16920474 1223:0.16920474 1226:0.16920474 1228:0.16920474 1264:0.16920474 1288:0.16920474 1295:0.33840948 1324:0.16920474 1336:0.16920474 1337:0.16920474 1416:0.16920474 1437:0.16920474 1464:0.16920474 1531:0.16920474 1626:0.16920474 1686:0.16920474 1693:0.16920474 1709:0.16920474 1723:0.16920474 1733:0.16920474 1771:0.16920474 1777:0.16920474 1790:0.16920474 1803:0.16920474 1856:0.16920474 1857:0.16920474 1876:0.16920474 1907:0.16920474 1908:0.16920474 1910:0.16920474 1912:0.16920474 1914:0.16920474 1915:0.16920474 1932:0.16920474 1957:0.16920474 2004:0.16920474 2020:0.16920474 2061:0.16920474 2161:0.16920474 2195:0.16920474 2346:0.16920474 2461:0.16920474 2466:0.16920474 2486:0.16920474 2488:0.16920474 2492:0.16920474 2495:0.16920474 2497:0.16920474 2524:0.16920474 2526:0.5076142 2533:0.16920474 2583:0.16920474 2666:0.16920474 2670:0.16920474 2690:0.16920474 2721:0.16920474 2726:0.5076142 2746:0.16920474 2753:0.16920474 2889:0.16920474 3236:0.16920474 3238:0.16920474 3384:0.16920474 3421:0.16920474 3432:0.16920474 3554:0.16920474 3664:0.16920474 3681:0.16920474 3695:0.16920474 3795:0.16920474 3804:0.16920474 3810:0.16920474 3904:0.16920474 3912:0.16920474 3914:0.16920474 4030:0.16920474 4061:0.16920474 4076:0.16920474 4085:0.16920474 4095:0.16920474 4100:0.16920474 4103:0.16920474 4204:0.16920474 4216:0.16920474 4266:0.16920474 4286:0.16920474 4289:0.16920474 4304:0.16920474 4310:0.16920474 4323:0.16920474 4330:0.16920474 4333:0.16920474 4435:0.16920474 4470:0.16920474 4523:0.16920474 4651:0.16920474 4746:0.16920474 4796:0.16920474 4896:0.16920474 5010:0.16920474 5023:0.16920474 5065:0.16920474 5095:0.16920474 5138:0.16920474 5156:0.16920474 5223:0.16920474 5236:0.16920474 5284:0.16920474 5308:0.16920474 5324:0.16920474 5336:0.16920474 5413:0.16920474 5461:0.16920474 5533:0.16920474 5541:0.16920474 5555:0.16920474 5625:0.16920474 5724:0.16920474 5784:0.16920474 5790:0.16920474 5805:0.16920474 5815:0.16920474 5903:0.16920474 6064:0.16920474 6090:0.16920474 6100:0.16920474 6144:0.16920474 6161:0.16920474 6171:0.16920474 6201:0.16920474 6214:0.16920474 6216:0.16920474 6250:0.16920474 6254:0.16920474 6277:0.16920474 6289:0.16920474 6290:0.16920474 6308:0.16920474 6310:0.16920474 6315:0.33840948 6316:0.16920474 6326:0.16920474 6436:0.16920474 6463:0.16920474 6466:0.16920474 6471:0.16920474 6492:0.16920474 6526:0.16920474 6536:0.16920474 6537:0.16920474 6589:0.16920474 6614:0.16920474 6639:0.16920474 6653:0.16920474 6661:0.16920474 6673:0.16920474 6713:0.16920474 6723:0.16920474 6736:0.16920474 6737:0.16920474 6752:0.16920474 6764:0.16920474 6829:0.16920474 6924:0.16920474 6934:0.16920474 6936:0.16920474 7044:0.16920474 7077:0.16920474 7081:0.16920474 7115:0.16920474 7124:0.16920474 7136:0.16920474 7156:0.16920474 7284:0.16920474 7403:0.16920474 7929:0.16920474 8095:0.16920474 8215:0.16920474 8410:0.16920474 8422:0.040201001 8424:0.01005025 8427:0.0201005 8428:0.035175879 8431:0.0201005 8432:0.01005025 8435:0.01005025 8436:0.02512563 8437:0.01005025 8439:0.01005025 8441:0.003122 8442:-8.0999998e-05 8443:2.2e-05 8444:-1e-06 8845:0.24120601 8846:0.00296 8847:-5.4e-05 8848:1.7e-05 8849:-1e-06 8850:0 8851:-0 8852:0 8853:-0 8854:0 8855:-0 8856:0 8857:-0 8858:0 8859:-0 8860:0 8861:-0 8862:0 8863:-0 8864:0.33165801 #
-10.19049107911951068672351539135 1:0.070422538 2:0.017605631 3:0.04225352 4:0.049295779 5:0.017605631 6:0.038732391 7:0.035211269 8:0.02816901 9:0.02112676 10:0.10211267 11:0.01408451 12:0.07394366 13:0.095070422 14:0.14788732 15:0.02464789 16:0.070422538 17:0.056338031 18:0.038732391 19:0.01408451 20:0.04225352 21:0.88339221 22:0.3533569 30:0.17667845 31:0.3533569 32:0.3533569 33:0.3533569 36:0.3533569 37:0.17667845 40:0.53003532 54:0.3533569 55:0.17667845 56:0.17667845 57:0.17667845 63:0.3533569 65:0.17667845 70:0.17667845 71:0.17667845 73:0.53003532 74:0.3533569 76:0.17667845 77:0.17667845 81:0.53003532 84:0.3533569 88:0.17667845 89:0.17667845 90:0.7067138 94:0.3533569 98:0.17667845 101:0.17667845 107:0.17667845 109:0.17667845 113:0.17667845 116:0.17667845 121:0.3533569 123:0.17667845 129:0.17667845 130:0.3533569 134:0.53003532 138:0.3533569 141:0.3533569 145:0.17667845 147:0.3533569 148:0.17667845 150:0.17667845 154:0.17667845 156:0.3533569 170:0.3533569 173:0.88339221 174:0.17667845 183:0.17667845 187:0.17667845 193:0.17667845 198:0.17667845 200:0.17667845 201:0.17667845 203:0.17667845 204:0.3533569 206:0.3533569 208:0.17667845 210:0.17667845 212:0.3533569 213:0.53003532 214:1.590106 216:0.17667845 217:0.17667845 218:0.17667845 219:0.17667845 220:0.53003532 224:0.17667845 230:0.17667845 234:0.17667845 236:0.17667845 243:0.3533569 244:0.17667845 245:0.17667845 246:0.53003532 247:0.7067138 250:0.3533569 252:0.53003532 253:0.17667845 254:0.3533569 255:0.17667845 256:0.17667845 261:0.7067138 263:0.17667845 264:0.3533569 268:0.17667845 270:0.53003532 272:0.53003532 273:0.7067138 274:0.53003532 277:0.3533569 278:0.3533569 280:0.3533569 282:0.3533569 283:0.17667845 284:0.53003532 285:0.17667845 286:0.53003532 287:0.3533569 290:0.7067138 292:0.7067138 293:0.17667845 294:1.4134276 295:0.53003532 296:0.88339221 297:0.3533569 299:0.3533569 300:0.17667845 301:0.17667845 308:0.17667845 310:0.3533569 313:0.17667845 314:0.17667845 319:0.17667845 322:0.17667845 323:0.17667845 324:0.3533569 326:0.17667845 329:0.17667845 330:0.3533569 332:0.3533569 334:0.53003532 336:0.17667845 337:0.88339221 338:0.17667845 341:0.17667845 343:0.3533569 348:0.3533569 350:0.17667845 352:0.53003532 353:0.17667845 354:0.17667845 356:0.17667845 357:0.3533569 358:0.3533569 364:0.17667845 368:0.17667845 369:0.17667845 370:0.3533569 372:0.3533569 373:0.17667845 374:0.17667845 375:0.17667845 378:0.17667845 385:0.17667845 393:0.17667845 396:0.3533569 406:0.3533569 409:0.17667845 413:0.3533569 414:0.3533569 415:0.17667845 416:0.17667845 417:0.17667845 420:0.3533569 421:0.11820331 430:0.11820331 432:0.11820331 433:0.11820331 437:0.11820331 456:0.11820331 457:0.11820331 614:0.11820331 634:0.11820331 636:0.11820331 643:0.11820331 656:0.11820331 661:0.11820331 677:0.11820331 732:0.11820331 737:0.11820331 748:0.11820331 806:0.11820331 813:0.11820331 820:0.11820331 1093:0.11820331 1095:0.11820331 1119:0.11820331 1136:0.11820331 1152:0.11820331 1271:0.11820331 1277:0.11820331 1301:0.11820331 1420:0.11820331 1430:0.11820331 1461:0.23640662 1470:0.11820331 1494:0.11820331 1499:0.11820331 1526:0.11820331 1552:0.11820331 1631:0.11820331 1636:0.11820331 1640:0.11820331 1690:0.11820331 1694:0.11820331 1770:0.11820331 1793:0.11820331 1803:0.11820331 1814:0.23640662 1820:0.11820331 1884:0.11820331 1894:0.11820331 1969:0.11820331 2040:0.11820331 2156:0.11820331 2187:0.11820331 2280:0.11820331 2330:0.11820331 2433:0.11820331 2436:0.11820331 2473:0.11820331 2614:0.11820331 2617:0.11820331 2682:0.11820331 2690:0.11820331 2694:0.11820331 2768:0.11820331 2778:0.11820331 2822:0.11820331 2831:0.11820331 2909:0.11820331 2945:0.11820331 2954:0.11820331 2973:0.11820331 3019:0.11820331 3084:0.11820331 3122:0.11820331 3123:0.11820331 3408:0.11820331 3418:0.11820331 3470:0.11820331 3472:0.11820331 3473:0.11820331 3474:0.11820331 3478:0.11820331 3499:0.11820331 3673:0.11820331 3741:0.11820331 3873:0.11820331 3972:0.11820331 4015:0.11820331 4021:0.11820331 4063:0.11820331 4084:0.11820331 4098:0.11820331 4121:0.23640662 4170:0.11820331 4213:0.11820331 4254:0.11820331 4255:0.11820331 4263:0.11820331 4268:0.11820331 4280:0.11820331 4284:0.11820331 4286:0.23640662 4287:0.11820331 4294:0.23640662 4295:0.11820331 4296:0.11820331 4297:0.11820331 4338:0.11820331 4358:0.11820331 4370:0.11820331 4396:0.11820331 4406:0.11820331 4414:0.11820331 4416:0.11820331 4488:0.11820331 4614:0.11820331 4697:0.11820331 4724:0.11820331 4874:0.23640662 4890:0.11820331 4916:0.11820331 4930:0.23640662 4934:0.11820331 4941:0.11820331 4948:0.11820331 4950:0.11820331 4956:0.11820331 5006:0.11820331 5016:0.11820331 5046:0.11820331 5047:0.11820331 5052:0.11820331 5072:0.11820331 5090:0.11820331 5096:0.11820331 5108:0.11820331 5132:0.11820331 5221:0.23640662 5222:0.11820331 5240:0.11820331 5263:0.11820331 5281:0.11820331 5289:0.11820331 5373:0.11820331 5401:0.11820331 5412:0.23640662 5443:0.11820331 5446:0.11820331 5452:0.11820331 5461:0.11820331 5464:0.23640662 5474:0.11820331 5483:0.11820331 5494:0.11820331 5496:0.11820331 5556:0.11820331 5558:0.11820331 5570:0.11820331 5574:0.11820331 5609:0.11820331 5617:0.11820331 5654:0.23640662 5670:0.11820331 5681:0.11820331 5690:0.11820331 5694:0.11820331 5707:0.11820331 5723:0.11820331 5738:0.23640662 5747:0.23640662 5810:0.11820331 5813:0.11820331 5814:0.23640662 5845:0.11820331 5847:0.11820331 5850:0.11820331 5853:0.11820331 5874:0.11820331 5882:0.11820331 5887:0.11820331 5892:0.35460994 5894:0.11820331 5895:0.11820331 5900:0.11820331 5910:0.23640662 5914:0.11820331 5924:0.11820331 5929:0.11820331 5934:0.35460994 5950:0.11820331 5954:0.11820331 5985:0.11820331 5993:0.11820331 6014:0.11820331 6032:0.11820331 6173:0.11820331 6204:0.11820331 6214:0.11820331 6273:0.11820331 6296:0.11820331 6396:0.11820331 6455:0.11820331 6476:0.11820331 6481:0.11820331 6490:0.11820331 6529:0.11820331 6598:0.11820331 6604:0.11820331 6606:0.11820331 6644:0.11820331 6647:0.11820331 6690:0.23640662 6692:0.11820331 6730:0.11820331 6741:0.11820331 6743:0.11820331 6748:0.11820331 6753:0.11820331 6757:0.11820331 6764:0.11820331 6821:0.11820331 6865:0.11820331 6873:0.11820331 6973:0.11820331 6974:0.11820331 7013:0.11820331 7046:0.11820331 7047:0.11820331 7050:0.11820331 7072:0.11820331 7086:0.11820331 7137:0.11820331 7152:0.11820331 7157:0.11820331 7172:0.11820331 7173:0.11820331 7284:0.11820331 7373:0.11820331 7400:0.11820331 7414:0.11820331 7420:0.11820331 7452:0.11820331 7454:0.11820331 7473:0.11820331 7496:0.11820331 7513:0.11820331 7575:0.11820331 7713:0.11820331 7877:0.11820331 7937:0.23640662 8134:0.23640662 8183:0.11820331 8270:0.11820331 8278:0.11820331 8285:0.11820331 8294:0.11820331 8301:0.11820331 8337:0.11820331 8343:0.11820331 8413:0.11820331 8420:0.11820331 8421:0.031690139 8423:0.017605631 8424:0.01408451 8426:0.052816901 8427:0.01408451 8429:0.01408451 8431:0.0070422501 8435:0.02816901 8436:0.0070422501 8437:0.01056338 8439:0.01056338 8440:0.0070422501 8441:0.006387 8442:3.0000001e-06 8443:7.9999998e-05 8444:0 8845:0.28873199 8846:0.0072869998 8847:-0.000367 8848:0.000113 8849:-1.1e-05 8850:2e-06 8851:-0 8852:0 8853:-0 8854:0 8855:-0 8856:0 8857:-0 8858:0 8859:-0 8860:0 8861:-0 8862:0 8863:-0 8864:0.13732401 #
-0.74639576408404195717594120651484 1:0.036437251 2:0.0242915 3:0.01214575 4:0.056680162 5:0.048583001 6:0.1417004 7:0.016194331 8:0.072874486 9:0.056680162 10:0.056680162 11:0.020242911 12:0.06477733 13:0.056680162 14:0.0242915 15:0.0242915 16:0.080971658 17:0.089068823 18:0.072874486 19:0.016194331 20:0.028340081 26:0.60975611 28:0.20325203 30:0.20325203 36:0.20325203 38:0.60975611 46:0.20325203 50:0.20325203 53:0.20325203 55:0.20325203 56:0.40650406 68:0.20325203 74:0.20325203 76:0.20325203 82:0.20325203 85:0.60975611 86:0.40650406 90:0.40650406 95:0.20325203 96:0.20325203 97:0.20325203 98:0.40650406 99:0.20325203 102:0.20325203 103:0.20325203 106:0.40650406 108:0.60975611 110:0.20325203 112:0.20325203 116:0.40650406 118:0.20325203 124:0.60975611 125:0.20325203 126:1.2195122 128:0.20325203 129:0.40650406 130:0.20325203 131:0.20325203 132:0.60975611 133:1.0162601 134:0.20325203 136:0.60975611 137:1.2195122 138:0.40650406 144:0.20325203 146:0.20325203 147:0.20325203 157:0.20325203 164:0.40650406 167:0.20325203 168:0.40650406 169:0.20325203 171:0.20325203 172:0.40650406 175:0.20325203 176:0.40650406 177:0.60975611 178:0.40650406 180:0.20325203 182:0.20325203 184:0.40650406 185:0.20325203 186:0.40650406 189:0.20325203 193:0.20325203 194:0.20325203 195:0.40650406 197:0.20325203 198:0.40650406 204:0.20325203 206:0.20325203 207:0.20325203 209:0.60975611 211:0.20325203 212:0.20325203 213:0.20325203 214:0.20325203 216:0.20325203 217:0.20325203 220:0.20325203 221:0.40650406 224:0.20325203 226:0.20325203 237:0.20325203 242:0.20325203 245:0.20325203 246:0.60975611 248:0.20325203 250:0.40650406 252:0.60975611 254:0.20325203 257:0.20325203 258:0.40650406 259:0.20325203 262:0.40650406 265:0.40650406 266:0.20325203 269:0.40650406 272:0.20325203 274:0.20325203 276:0.20325203 277:0.20325203 278:0.20325203 279:0.40650406 281:0.20325203 283:0.20325203 289:0.20325203 292:0.20325203 296:0.20325203 298:0.20325203 310:0.20325203 315:0.20325203 316:0.40650406 317:0.20325203 318:0.20325203 321:0.20325203 324:0.40650406 325:0.20325203 326:0.60975611 328:0.60975611 330:0.20325203 332:0.40650406 333:0.20325203 336:0.40650406 337:0.60975611 340:0.20325203 341:0.40650406 344:0.20325203 345:0.40650406 346:0.40650406 348:0.81300813 349:0.40650406 350:0.20325203 352:0.20325203 353:0.60975611 357:0.20325203 360:0.60975611 361:0.20325203 363:0.20325203 364:0.20325203 366:0.40650406 367:0.20325203 368:0.40650406 369:0.20325203 370:0.40650406 371:0.20325203 372:0.20325203 373:0.40650406 376:0.20325203 377:0.20325203 378:0.20325203 381:0.40650406 386:0.40650406 405:0.20325203 406:0.60975611 409:0.20325203 410:0.20325203 420:0.20325203 528:0.13605443 533:0.13605443 534:0.13605443 578:0.13605443 611:0.13605443 726:0.13605443 770:0.27210885 772:0.13605443 924:0.13605443 1013:0.13605443 1076:0.13605443 1117:0.13605443 1121:0.13605443 1128:0.13605443 1377:0.13605443 1481:0.13605443 1528:0.13605443 1646:0.13605443 1708:0.13605443 1710:0.13605443 1712:0.13605443 1729:0.13605443 1732:0.13605443 1816:0.13605443 1817:0.13605443 1915:0.13605443 1928:0.13605443 1953:0.13605443 1976:0.13605443 1978:0.13605443 1981:0.13605443 2053:0.13605443 2074:0.13605443 2129:0.13605443 2137:0.13605443 2169:0.13605443 2171:0.13605443 2176:0.13605443 2209:0.13605443 2245:0.13605443 2332:0.13605443 2340:0.13605443 2377:0.13605443 2485:0.13605443 2498:0.13605443 2499:0.13605443 2502:0.13605443 2532:0.27210885 2533:0.27210885 2537:0.27210885 2572:0.13605443 2584:0.13605443 2594:0.13605443 2606:0.13605443 2637:0.13605443 2646:0.13605443 2648:0.13605443 2650:0.13605443 2665:0.13605443 2666:0.13605443 2669:0.13605443 2679:0.27210885 2689:0.13605443 2732:0.13605443 2737:0.27210885 2745:0.13605443 2746:0.13605443 2749:0.13605443 2753:0.27210885 2760:0.13605443 2768:0.13605443 2773:0.13605443 2895:0.13605443 2925:0.13605443 2957:0.13605443 3160:0.13605443 3290:0.27210885 3346:0.13605443 3364:0.13605443 3372:0.13605443 3385:0.13605443 3421:0.13605443 3442:0.13605443 3452:0.13605443 3516:0.13605443 3525:0.13605443 3533:0.13605443 3544:0.13605443 3545:0.13605443 3548:0.13605443 3566:0.13605443 3573:0.13605443 3609:0.13605443 3650:0.13605443 3685:0.13605443 3698:0.13605443 3718:0.13605443 3736:0.13605443 3737:0.13605443 3798:0.13605443 3872:0.13605443 3892:0.13605443 3910:0.13605443 3918:0.13605443 3960:0.13605443 3966:0.13605443 3967:0.13605443 4096:0.13605443 4131:0.13605443 4147:0.13605443 4184:0.13605443 4186:0.27210885 4224:0.13605443 4257:0.13605443 4277:0.13605443 4298:0.13605443 4336:0.13605443 4348:0.13605443 4410:0.13605443 4426:0.13605443 4436:0.13605443 4486:0.13605443 4538:0.13605443 4741:0.13605443 4856:0.13605443 4916:0.13605443 4926:0.13605443 4936:0.13605443 4937:0.13605443 4968:0.13605443 5012:0.13605443 5020:0.13605443 5046:0.13605443 5052:0.13605443 5059:0.13605443 5096:0.13605443 5148:0.13605443 5168:0.13605443 5169:0.13605443 5181:0.13605443 5255:0.13605443 5256:0.13605443 5306:0.13605443 5308:0.13605443 5326:0.13605443 5393:0.13605443 5395:0.13605443 5454:0.13605443 5483:0.13605443 5530:0.13605443 5549:0.13605443 5564:0.13605443 5586:0.27210885 5626:0.13605443 5668:0.13605443 5795:0.13605443 5846:0.13605443 5937:0.13605443 5971:0.13605443 6204:0.13605443 6316:0.13605443 6324:0.13605443 6326:0.13605443 6357:0.13605443 6361:0.13605443 6430:0.13605443 6485:0.13605443 6486:0.13605443 6516:0.13605443 6524:0.13605443 6537:0.13605443 6538:0.13605443 6576:0.13605443 6577:0.13605443 6578:0.13605443 6609:0.13605443 6650:0.13605443 6658:0.13605443 6662:0.13605443 6724:0.13605443 6736:0.13605443 6746:0.13605443 6748:0.13605443 6750:0.13605443 6805:0.13605443 6838:0.27210885 6897:0.13605443 6906:0.13605443 6908:0.13605443 6924:0.13605443 6930:0.13605443 6964:0.13605443 6967:0.13605443 6968:0.13605443 6975:0.13605443 6982:0.13605443 6998:0.13605443 7014:0.13605443 7058:0.13605443 7065:0.13605443 7069:0.13605443 7074:0.13605443 7141:0.13605443 7206:0.27210885 7220:0.13605443 7226:0.13605443 7276:0.13605443 7282:0.13605443 7326:0.13605443 7333:0.13605443 7344:0.13605443 7377:0.13605443 7380:0.13605443 7397:0.13605443 7409:0.13605443 7426:0.13605443 7452:0.13605443 7462:0.13605443 7478:0.13605443 7526:0.13605443 7552:0.13605443 7563:0.13605443 7628:0.13605443 7638:0.13605443 7726:0.27210885 8103:0.13605443 8126:0.13605443 8133:0.13605443 8136:0.13605443 8189:0.13605443 8207:0.13605443 8406:0.13605443 8422:0.0080971699 8423:0.020242911 8428:0.048583001 8429:0.0080971699 8430:0.016194331 8432:0.0080971699 8436:0.01214575 8437:0.0080971699 8439:0.0080971699 8440:0.0080971699 8441:0.0056039998 8442:5.9999998e-05 8443:5.6000001e-05 8444:1e-06 8845:0.33198401 8846:0.0035540001 8847:-3.7999998e-05 8848:2.9999999e-05 8849:-1e-06 8850:0 8851:-0 8852:0 8853:-0 8854:0 8855:-0 8856:0 8857:-0 8858:0 8859:-0 8860:0 8861:-0 8862:0 8863:-0 8864:0.14979801 #
-6.0146527501592794706652966851834 1:0.06849315 2:0.01369863 3:0.01369863 4:0.01369863 5:0.02739726 6:0.05479452 7:0.04109589 8:0.02739726 9:0.04109589 10:0.1780822 11:0.02739726 12:0.05479452 13:0.1369863 14:0.02739726 15:0.05479452 16:0.1369863 17:0.02739726 18:0.05479452 21:0.69444442 29:1.3888888 30:0.69444442 33:0.69444442 58:0.69444442 62:0.69444442 81:0.69444442 110:0.69444442 118:0.69444442 124:0.69444442 130:0.69444442 133:0.69444442 134:0.69444442 149:0.69444442 153:0.69444442 155:0.69444442 165:0.69444442 176:0.69444442 186:0.69444442 195:0.69444442 197:0.69444442 203:0.69444442 205:0.69444442 206:0.69444442 210:3.4722223 215:1.3888888 216:1.3888888 218:0.69444442 221:1.3888888 250:2.0833333 252:0.69444442 267:0.69444442 268:0.69444442 273:3.4722223 276:1.3888888 286:0.69444442 298:0.69444442 310:0.69444442 312:1.3888888 316:0.69444442 327:1.3888888 328:0.69444442 330:0.69444442 331:0.69444442 332:0.69444442 333:0.69444442 334:0.69444442 336:0.69444442 337:0.69444442 356:1.3888888 361:0.69444442 366:0.69444442 373:0.69444442 376:0.69444442 429:0.46948355 595:0.46948355 597:0.46948355 610:0.46948355 673:0.46948355 1176:0.46948355 1258:0.46948355 1629:0.46948355 2210:0.46948355 2373:0.46948355 2481:0.46948355 2606:0.46948355 2686:0.46948355 2986:0.46948355 3076:0.46948355 3116:0.46948355 3318:0.46948355 3536:0.46948355 3734:0.46948355 3912:0.46948355 3956:0.46948355 4062:0.46948355 4110:0.46948355 4124:0.46948355 4210:1.4084507 4216:0.93896711 4310:0.46948355 4312:0.46948355 4328:0.46948355 4330:0.46948355 4361:0.46948355 4421:0.46948355 4433:0.46948355 5015:0.93896711 5018:0.46948355 5050:0.46948355 5355:0.46948355 5365:0.46948355 5467:0.46948355 5468:0.46948355 5473:0.93896711 5476:0.46948355 5533:0.46948355 5537:0.46948355 5733:0.46948355 5966:0.46948355 6203:0.46948355 6250:0.46948355 6252:0.46948355 6331:0.46948355 6549:0.46948355 6553:0.46948355 6576:0.46948355 6605:0.46948355 6621:0.46948355 6650:0.46948355 6673:0.46948355 6698:0.46948355 6734:0.46948355 6756:0.46948355 7127:0.46948355 7132:0.46948355 7230:0.46948355 7330:0.46948355 7473:0.46948355 7527:0.46948355 8421:0.02739726 8423:0.02739726 8431:0.09589041 8435:0.10958904 8436:0.02739726 8441:0.000355 8442:4e-06 8443:0 8444:0 8845:0.39726001 8846:0.00028000001 8847:-1e-06 8848:0 8849:-0 8850:0 8851:-0 8852:0 8853:-0 8854:0 8855:-0 8856:0 8857:-0 8858:0 8859:-0 8860:0 8861:-0 8862:0 8863:-0 8864:0.123288 #
-1.0153129315184514780412428081036 1:0.068702288 2:0.019083969 3:0.01526718 4:0.01526718 5:0.072519086 6:0.11068702 7:0.030534349 8:0.045801532 9:0.057251912 10:0.1259542 11:0.02671756 12:0.03435114 13:0.041984729 14:0.02671756 15:0.061068699 16:0.087786257 17:0.038167939 18:0.083969466 19:0.0038167899 20:0.03435114 26:0.76628351 28:0.38314176 30:0.38314176 32:0.19157088 35:0.76628351 36:0.19157088 37:0.19157088 38:0.38314176 39:0.19157088 47:0.19157088 55:0.19157088 56:0.19157088 60:0.38314176 70:0.19157088 71:0.19157088 74:0.38314176 86:0.19157088 90:0.19157088 96:0.38314176 101:0.57471263 102:0.38314176 103:0.19157088 104:0.19157088 105:0.57471263 106:0.76628351 110:0.19157088 114:0.19157088 116:0.19157088 117:0.19157088 118:0.19157088 121:0.76628351 122:0.38314176 125:0.95785439 126:0.57471263 128:0.19157088 129:0.57471263 130:0.57471263 132:0.38314176 133:0.38314176 134:0.19157088 135:0.19157088 136:0.19157088 138:0.19157088 141:0.38314176 146:0.38314176 148:0.19157088 150:0.19157088 156:0.19157088 158:0.19157088 161:0.38314176 165:0.19157088 166:0.19157088 168:0.38314176 169:0.19157088 170:0.19157088 175:0.19157088 176:0.19157088 177:0.19157088 180:0.19157088 183:0.19157088 185:0.19157088 186:0.38314176 190:0.95785439 191:0.19157088 192:0.19157088 194:0.19157088 195:0.19157088 198:0.38314176 202:0.19157088 203:0.38314176 204:0.19157088 206:0.95785439 209:0.95785439 210:0.76628351 211:0.19157088 212:0.38314176 213:0.38314176 215:0.19157088 216:0.76628351 217:0.38314176 218:0.19157088 220:0.38314176 224:0.19157088 226:0.19157088 227:0.19157088 230:0.57471263 231:0.19157088 246:0.19157088 248:0.19157088 250:0.19157088 251:0.19157088 252:0.38314176 257:0.38314176 258:0.19157088 265:0.19157088 268:0.19157088 269:0.38314176 273:0.19157088 274:0.19157088 275:0.19157088 276:0.19157088 278:0.38314176 280:0.19157088 281:0.19157088 289:0.19157088 290:0.57471263 295:0.19157088 296:0.19157088 301:0.19157088 305:0.38314176 306:0.19157088 307:0.19157088 308:0.38314176 309:0.19157088 315:0.19157088 316:0.38314176 318:0.76628351 320:0.19157088 321:0.19157088 324:0.19157088 325:0.19157088 326:0.19157088 327:0.57471263 330:0.76628351 333:0.19157088 334:0.19157088 335:0.76628351 336:0.76628351 338:0.38314176 346:0.19157088 347:0.19157088 349:0.38314176 350:0.38314176 352:0.19157088 356:0.19157088 357:0.19157088 360:0.19157088 361:0.38314176 365:0.38314176 366:0.38314176 367:0.19157088 368:0.38314176 371:0.19157088 373:0.76628351 376:0.19157088 377:0.38314176 378:0.76628351 380:0.19157088 381:0.19157088 401:0.19157088 405:0.57471263 410:0.19157088 413:0.19157088 416:0.19157088 418:0.19157088 521:0.12820514 525:0.12820514 528:0.12820514 529:0.12820514 565:0.12820514 577:0.12820514 606:0.12820514 616:0.12820514 646:0.12820514 708:0.25641027 716:0.12820514 718:0.12820514 734:0.12820514 747:0.12820514 766:0.12820514 768:0.12820514 781:0.12820514 958:0.12820514 1115:0.12820514 1136:0.12820514 1205:0.12820514 1416:0.12820514 1430:0.12820514 1490:0.25641027 1729:0.12820514 1813:0.12820514 1926:0.12820514 1935:0.12820514 2026:0.38461539 2055:0.12820514 2060:0.12820514 2070:0.12820514 2096:0.12820514 2101:0.12820514 2110:0.12820514 2116:0.12820514 2121:0.12820514 2130:0.12820514 2132:0.12820514 2133:0.12820514 2216:0.12820514 2289:0.12820514 2336:0.12820514 2346:0.12820514 2373:0.12820514 2430:0.12820514 2432:0.12820514 2435:0.12820514 2437:0.12820514 2447:0.12820514 2456:0.12820514 2504:0.12820514 2505:0.25641027 2514:0.12820514 2517:0.12820514 2525:0.12820514 2536:0.12820514 2538:0.12820514 2580:0.12820514 2590:0.25641027 2592:0.12820514 2602:0.12820514 2611:0.12820514 2612:0.12820514 2657:0.12820514 2658:0.12820514 2675:0.12820514 2678:0.12820514 2695:0.12820514 2705:0.12820514 2738:0.12820514 2778:0.12820514 2828:0.12820514 2830:0.12820514 2925:0.25641027 2968:0.12820514 3010:0.12820514 3130:0.12820514 3166:0.12820514 3235:0.12820514 3239:0.12820514 3302:0.12820514 3329:0.12820514 3369:0.12820514 3370:0.12820514 3391:0.12820514 3412:0.12820514 3509:0.12820514 3530:0.12820514 3550:0.12820514 3616:0.12820514 3674:0.12820514 3706:0.12820514 3734:0.12820514 3735:0.12820514 3806:0.25641027 3809:0.12820514 3818:0.12820514 3820:0.12820514 3830:0.12820514 3852:0.12820514 3881:0.12820514 3906:0.12820514 3973:0.12820514 3977:0.12820514 4060:0.12820514 4071:0.12820514 4074:0.12820514 4086:0.12820514 4121:0.12820514 4126:0.25641027 4130:0.12820514 4132:0.12820514 4185:0.12820514 4186:0.12820514 4190:0.25641027 4198:0.12820514 4203:0.12820514 4209:0.12820514 4213:0.12820514 4220:0.12820514 4230:0.12820514 4248:0.12820514 4251:0.12820514 4265:0.12820514 4276:0.12820514 4318:0.12820514 4327:0.12820514 4336:0.25641027 4338:0.12820514 4349:0.12820514 4356:0.12820514 4377:0.12820514 4405:0.12820514 4413:0.12820514 4496:0.12820514 4530:0.12820514 4541:0.12820514 4604:0.12820514 4610:0.12820514 4615:0.12820514 4626:0.12820514 4933:0.12820514 4968:0.12820514 5009:0.12820514 5031:0.12820514 5052:0.12820514 5057:0.12820514 5150:0.12820514 5152:0.12820514 5171:0.12820514 5303:0.12820514 5366:0.12820514 5383:0.12820514 5398:0.12820514 5480:0.12820514 5490:0.12820514 5520:0.12820514 5527:0.12820514 5565:0.12820514 5580:0.12820514 5618:0.12820514 5636:0.12820514 5795:0.12820514 5806:0.12820514 5809:0.12820514 5817:0.12820514 5918:0.12820514 5935:0.12820514 6026:0.12820514 6102:0.12820514 6118:0.12820514 6122:0.12820514 6156:0.12820514 6161:0.12820514 6175:0.12820514 6186:0.12820514 6318:0.12820514 6321:0.12820514 6325:0.12820514 6361:0.12820514 6367:0.12820514 6373:0.12820514 6378:0.12820514 6410:0.12820514 6435:0.12820514 6490:0.12820514 6506:0.12820514 6526:0.12820514 6541:0.12820514 6546:0.12820514 6550:0.12820514 6603:0.12820514 6606:0.12820514 6609:0.12820514 6616:0.12820514 6674:0.12820514 6696:0.12820514 6701:0.12820514 6705:0.12820514 6707:0.12820514 6716:0.12820514 6724:0.12820514 6727:0.12820514 6733:0.12820514 6735:0.12820514 6765:0.12820514 6768:0.12820514 6925:0.12820514 6948:0.12820514 6990:0.12820514 6994:0.12820514 7010:0.12820514 7017:0.12820514 7050:0.12820514 7130:0.12820514 7160:0.12820514 7205:0.12820514 7238:0.25641027 7301:0.12820514 7305:0.12820514 7321:0.12820514 7322:0.12820514 7346:0.12820514 7361:0.12820514 7376:0.12820514 7424:0.12820514 7468:0.12820514 7469:0.12820514 7473:0.12820514 7478:0.12820514 7535:0.12820514 7549:0.12820514 7557:0.12820514 7561:0.12820514 7573:0.12820514 7576:0.12820514 7578:0.12820514 7601:0.12820514 7635:0.12820514 8028:0.12820514 8101:0.12820514 8106:0.25641027 8210:0.12820514 8269:0.12820514 8330:0.12820514 8378:0.12820514 8422:0.0076335901 8423:0.01145038 8428:0.02290076 8430:0.01526718 8431:0.030534349 8433:0.0076335901 8434:0.02290076 8435:0.0076335901 8436:0.030534349 8437:0.0076335901 8440:0.02671756 8441:0.005835 8442:-6.0999999e-05 8443:6.2999999e-05 8444:-1e-06 8845:0.44274801 8846:0.0061989999 8847:4.5000001e-05 8848:6.7000001e-05 8849:1e-06 8850:1e-06 8851:0 8852:0 8853:0 8854:0 8855:0 8856:0 8857:0 8858:0 8859:0 8860:0 8861:0 8862:0 8863:0 8864:0.148855 #
-17.860423754822384978524496546015 1:0.05341246 2:0.0089020804 3:0.056379821 4:0.047477741 5:0.041543029 6:0.050445098 7:0.02670623 8:0.029673589 9:0.056379821 10:0.077151343 11:0.02670623 12:0.1008902 13:0.05341246 14:0.020771511 15:0.056379821 16:0.1008902 17:0.068249263 18:0.059347179 19:0.017804161 20:0.047477741 21:0.44642857 28:0.14880952 29:0.14880952 30:0.29761904 31:0.14880952 35:0.14880952 36:0.59523809 37:0.44642857 38:0.14880952 39:0.14880952 48:0.14880952 53:0.14880952 55:0.14880952 61:0.44642857 63:0.29761904 64:0.29761904 68:0.14880952 70:0.29761904 72:0.14880952 73:0.14880952 75:0.29761904 76:0.29761904 78:0.29761904 79:0.14880952 84:0.44642857 85:0.14880952 89:0.14880952 90:0.29761904 91:0.14880952 92:0.14880952 93:0.14880952 95:0.14880952 96:0.29761904 97:0.14880952 98:0.14880952 99:0.14880952 101:0.14880952 103:0.14880952 107:0.14880952 108:0.14880952 109:0.14880952 110:0.14880952 112:0.14880952 115:0.29761904 117:0.14880952 119:0.14880952 120:0.44642857 123:0.29761904 124:0.14880952 125:0.29761904 126:0.44642857 130:0.29761904 135:0.14880952 136:0.14880952 137:0.44642857 138:0.29761904 144:0.29761904 147:0.14880952 148:0.14880952 149:0.14880952 150:0.14880952 152:0.14880952 153:0.14880952 156:0.14880952 162:0.14880952 165:0.14880952 166:0.14880952 169:0.14880952 173:0.44642857 176:0.14880952 180:0.29761904 181:0.14880952 184:0.29761904 186:0.14880952 189:0.59523809 190:0.14880952 194:0.14880952 195:0.14880952 196:0.29761904 197:0.29761904 198:0.29761904 200:0.29761904 201:0.29761904 203:0.14880952 205:0.14880952 206:0.14880952 207:0.14880952 208:0.14880952 209:0.29761904 210:0.14880952 212:0.14880952 213:0.74404764 215:0.14880952 216:0.44642857 217:0.29761904 218:0.59523809 223:0.14880952 224:0.14880952 226:0.14880952 227:0.14880952 230:0.14880952 231:0.14880952 236:0.14880952 238:0.29761904 241:0.14880952 243:0.14880952 244:0.29761904 245:0.14880952 246:0.29761904 249:0.14880952 250:0.14880952 252:2.0833333 254:0.14880952 255:0.14880952 256:0.29761904 257:0.29761904 258:0.29761904 260:0.29761904 261:0.14880952 263:0.14880952 265:0.14880952 266:0.14880952 268:0.14880952 269:0.14880952 272:0.44642857 274:0.14880952 275:0.14880952 276:0.44642857 277:0.29761904 278:0.14880952 279:0.14880952 287:0.14880952 291:0.14880952 292:0.14880952 294:0.14880952 295:0.14880952 296:0.29761904 301:0.14880952 302:0.14880952 303:0.14880952 305:0.14880952 306:0.14880952 308:0.14880952 309:0.29761904 310:0.14880952 312:0.44642857 313:0.29761904 314:0.14880952 316:0.29761904 318:0.14880952 320:0.14880952 321:0.29761904 323:0.29761904 324:0.14880952 325:0.29761904 327:0.44642857 328:0.14880952 329:0.14880952 330:0.59523809 331:0.14880952 332:0.44642857 333:0.14880952 334:0.29761904 336:0.44642857 337:0.59523809 339:0.14880952 340:0.44642857 341:0.29761904 343:0.44642857 344:0.14880952 346:0.89285713 347:0.14880952 348:0.14880952 350:0.14880952 352:0.29761904 355:0.44642857 356:0.14880952 357:0.14880952 360:0.14880952 363:0.14880952 364:0.14880952 365:0.14880952 369:0.14880952 370:0.74404764 371:0.29761904 372:0.14880952 373:0.14880952 375:0.14880952 376:0.29761904 377:0.29761904 378:0.14880952 380:0.14880952 381:0.14880952 383:0.14880952 389:0.14880952 391:0.14880952 398:0.14880952 400:0.14880952 402:0.14880952 403:0.29761904 405:0.44642857 409:0.14880952 410:0.14880952 412:0.29761904 413:0.29761904 415:0.29761904 416:0.29761904 429:0.099502489 431:0.099502489 436:0.099502489 562:0.099502489 586:0.099502489 605:0.099502489 618:0.099502489 626:0.099502489 712:0.099502489 725:0.099502489 734:0.099502489 736:0.099502489 740:0.099502489 746:0.099502489 750:0.099502489 756:0.099502489 776:0.099502489 781:0.099502489 966:0.099502489 1075:0.099502489 1108:0.099502489 1230:0.19900498 1239:0.099502489 1264:0.099502489 1278:0.099502489 1284:0.19900498 1380:0.099502489 1408:0.099502489 1413:0.099502489 1452:0.099502489 1479:0.099502489 1509:0.099502489 1513:0.099502489 1527:0.099502489 1537:0.099502489 1570:0.099502489 1578:0.099502489 1591:0.099502489 1690:0.099502489 1696:0.099502489 1697:0.099502489 1715:0.099502489 1784:0.099502489 1813:0.099502489 1818:0.099502489 1836:0.099502489 1852:0.099502489 1861:0.099502489 1920:0.099502489 1921:0.099502489 1932:0.099502489 1957:0.099502489 1973:0.099502489 2000:0.099502489 2036:0.099502489 2070:0.099502489 2153:0.099502489 2173:0.099502489 2189:0.099502489 2215:0.099502489 2252:0.099502489 2305:0.099502489 2310:0.099502489 2344:0.099502489 2389:0.099502489 2402:0.099502489 2410:0.099502489 2415:0.099502489 2461:0.19900498 2489:0.099502489 2515:0.099502489 2519:0.099502489 2525:0.099502489 2526:0.099502489 2530:0.099502489 2609:0.099502489 2617:0.099502489 2701:0.099502489 2724:0.099502489 2743:0.099502489 2746:0.19900498 2769:0.099502489 2777:0.099502489 2885:0.099502489 2898:0.099502489 2956:0.099502489 2976:0.099502489 2996:0.099502489 3012:0.099502489 3052:0.099502489 3077:0.099502489 3136:0.099502489 3255:0.099502489 3309:0.099502489 3330:0.099502489 3389:0.099502489 3463:0.099502489 3474:0.099502489 3476:0.099502489 3537:0.099502489 3609:0.099502489 3616:0.099502489 3637:0.099502489 3690:0.099502489 3699:0.099502489 3738:0.099502489 3794:0.099502489 3796:0.099502489 3797:0.099502489 3798:0.099502489 3801:0.099502489 3887:0.099502489 3909:0.099502489 3930:0.19900498 3943:0.099502489 3952:0.099502489 3963:0.099502489 3970:0.099502489 4003:0.099502489 4015:0.099502489 4021:0.099502489 4036:0.099502489 4076:0.099502489 4110:0.099502489 4138:0.099502489 4149:0.099502489 4169:0.099502489 4189:0.099502489 4195:0.099502489 4201:0.099502489 4252:0.099502489 4265:0.099502489 4266:0.099502489 4269:0.099502489 4276:0.19900498 4312:0.099502489 4323:0.099502489 4327:0.099502489 4332:0.099502489 4346:0.099502489 4347:0.099502489 4365:0.099502489 4370:0.099502489 4371:0.099502489 4376:0.099502489 4463:0.099502489 4484:0.099502489 4524:0.099502489 4544:0.099502489 4606:0.099502489 4627:0.099502489 4721:0.099502489 4770:0.099502489 4771:0.099502489 4838:0.099502489 4861:0.099502489 4892:0.099502489 4893:0.099502489 4908:0.099502489 4937:0.19900498 4989:0.099502489 5017:0.099502489 5044:0.099502489 5046:0.19900498 5049:0.099502489 5050:0.099502489 5052:0.29850745 5054:0.099502489 5056:0.099502489 5057:0.099502489 5058:0.099502489 5060:0.099502489 5094:0.099502489 5118:0.099502489 5129:0.099502489 5137:0.099502489 5141:0.19900498 5164:0.099502489 5175:0.099502489 5205:0.099502489 5212:0.099502489 5236:0.099502489 5272:0.099502489 5303:0.099502489 5325:0.099502489 5380:0.099502489 5390:0.099502489 5455:0.099502489 5458:0.099502489 5460:0.099502489 5496:0.099502489 5503:0.099502489 5530:0.099502489 5532:0.099502489 5533:0.099502489 5543:0.099502489 5548:0.099502489 5572:0.099502489 5583:0.099502489 5750:0.099502489 5830:0.099502489 5845:0.099502489 5896:0.099502489 5916:0.099502489 5927:0.099502489 5939:0.099502489 6021:0.099502489 6048:0.099502489 6075:0.099502489 6107:0.099502489 6135:0.099502489 6165:0.099502489 6198:0.099502489 6200:0.099502489 6213:0.099502489 6252:0.19900498 6256:0.099502489 6268:0.099502489 6272:0.099502489 6292:0.099502489 6328:0.099502489 6331:0.099502489 6377:0.099502489 6403:0.099502489 6421:0.099502489 6437:0.099502489 6476:0.099502489 6478:0.099502489 6491:0.099502489 6517:0.099502489 6520:0.099502489 6547:0.099502489 6548:0.099502489 6552:0.099502489 6573:0.099502489 6584:0.099502489 6603:0.099502489 6613:0.099502489 6616:0.099502489 6618:0.099502489 6638:0.099502489 6643:0.099502489 6652:0.19900498 6678:0.099502489 6691:0.099502489 6695:0.099502489 6723:0.099502489 6734:0.099502489 6740:0.099502489 6752:0.099502489 6755:0.29850745 6798:0.099502489 6805:0.099502489 6813:0.099502489 6816:0.099502489 6835:0.099502489 6837:0.099502489 6864:0.099502489 6875:0.099502489 6879:0.099502489 6896:0.099502489 6923:0.19900498 6926:0.19900498 6936:0.099502489 6937:0.099502489 6944:0.099502489 6973:0.099502489 7010:0.099502489 7041:0.099502489 7052:0.099502489 7102:0.099502489 7113:0.099502489 7114:0.099502489 7140:0.099502489 7146:0.099502489 7212:0.099502489 7268:0.099502489 7295:0.099502489 7320:0.099502489 7397:0.099502489 7407:0.099502489 7413:0.099502489 7416:0.19900498 7418:0.099502489 7423:0.099502489 7424:0.099502489 7444:0.099502489 7472:0.099502489 7516:0.099502489 7525:0.099502489 7536:0.099502489 7546:0.099502489 7560:0.099502489 7570:0.099502489 7613:0.099502489 7628:0.099502489 7670:0.099502489 7781:0.099502489 7831:0.099502489 7980:0.099502489 8005:0.099502489 8053:0.099502489 8063:0.099502489 8073:0.099502489 8101:0.099502489 8112:0.099502489 8120:0.099502489 8200:0.099502489 8209:0.099502489 8252:0.099502489 8257:0.099502489 8272:0.099502489 8277:0.099502489 8306:0.099502489 8312:0.099502489 8330:0.099502489 8337:0.099502489 8421:0.017804161 8423:0.074183978 8424:0.01186944 8426:0.0059347199 8427:0.017804161 8428:0.0148368 8429:0.0059347199 8431:0.0059347199 8432:0.02373887 8433:0.0059347199 8436:0.017804161 8437:0.0059347199 8440:0.0059347199 8441:0.010155 8442:-3.7000002e-05 8443:0.00017299999 8444:-1e-06 8845:0.296736 8846:0.0086449999 8847:0.00052200002 8848:0.00017499999 8849:2.1e-05 8850:4.9999999e-06 8851:1e-06 8852:0 8853:0 8854:0 8855:0 8856:0 8857:0 8858:0 8859:0 8860:0 8861:0 8862:0 8863:0 8864:0.216617 #
-57.547577775002331179621251067147 1:0.022988509 2:0.034482758 3:0.01149425 4:0.022988509 5:0.080459774 6:0.05747126 8:0.034482758 9:0.01149425 10:0.16091955 11:0.01149425 12:0.13793103 13:0.05747126 14:0.034482758 15:0.068965517 16:0.13793103 17:0.05747126 18:0.034482758 19:0.01149425 20:0.01149425 32:0.58139533 33:0.58139533 45:0.58139533 50:0.58139533 57:0.58139533 70:0.58139533 82:0.58139533 97:0.58139533 110:1.1627907 112:0.58139533 113:0.58139533 115:0.58139533 117:0.58139533 130:1.1627907 132:1.1627907 136:0.58139533 163:0.58139533 172:0.58139533 173:0.58139533 196:0.58139533 204:0.58139533 206:0.58139533 210:0.58139533 212:1.1627907 213:1.1627907 214:1.1627907 216:1.744186 217:0.58139533 218:0.58139533 238:0.58139533 241:0.58139533 245:1.744186 246:0.58139533 250:1.1627907 252:1.1627907 255:0.58139533 256:1.1627907 262:0.58139533 266:0.58139533 275:0.58139533 276:1.1627907 289:0.58139533 290:0.58139533 295:0.58139533 302:0.58139533 305:0.58139533 310:1.1627907 312:0.58139533 316:0.58139533 324:0.58139533 325:0.58139533 326:1.1627907 328:1.1627907 330:0.58139533 334:0.58139533 335:0.58139533 336:0.58139533 339:0.58139533 340:0.58139533 345:0.58139533 348:0.58139533 350:0.58139533 356:0.58139533 357:0.58139533 361:0.58139533 372:0.58139533 375:0.58139533 398:0.58139533 412:0.58139533 652:0.39215687 675:0.39215687 915:0.39215687 1014:0.39215687 1156:0.39215687 1416:0.39215687 1650:0.39215687 1950:0.39215687 2206:0.39215687 2216:0.39215687 2256:0.39215687 2262:0.39215687 2312:0.39215687 2345:0.39215687 2604:0.39215687 2616:0.39215687 2650:0.39215687 2652:0.39215687 2728:0.39215687 3270:0.39215687 3455:0.39215687 3476:0.39215687 3924:0.39215687 4082:0.39215687 4132:0.39215687 4213:0.39215687 4245:0.39215687 4250:0.39215687 4266:0.39215687 4276:0.39215687 4290:0.39215687 4295:0.39215687 4326:0.78431374 4340:0.39215687 4357:0.39215687 4361:0.39215687 4775:0.39215687 4833:0.39215687 4910:0.39215687 4917:0.39215687 4930:0.39215687 5013:0.39215687 5018:0.39215687 5045:0.39215687 5046:0.39215687 5110:0.39215687 5135:0.39215687 5136:0.39215687 5245:0.39215687 5330:0.39215687 5502:0.39215687 5534:0.39215687 5539:0.39215687 5796:0.39215687 5812:0.39215687 5916:0.39215687 6057:0.39215687 6110:0.39215687 6210:0.39215687 6214:0.39215687 6241:0.39215687 6325:0.39215687 6497:0.39215687 6513:0.39215687 6532:0.39215687 6536:0.39215687 6572:0.39215687 6573:0.39215687 6612:0.39215687 6689:0.39215687 6710:0.39215687 6728:0.39215687 6798:0.39215687 6812:0.39215687 6912:0.39215687 6963:0.39215687 7017:0.39215687 7130:0.39215687 7148:0.39215687 7232:0.39215687 7456:0.39215687 7505:0.39215687 7972:0.39215687 8245:0.39215687 8423:0.045977011 8431:0.022988509 8436:0.022988509 8437:0.022988509 8441:0.00066700001 8442:-4.9999999e-06 8443:1e-06 8444:-0 8845:0.37931001 8846:0.000719 8847:-4e-06 8848:1e-06 8849:-0 8850:0 8851:-0 8852:0 8853:-0 8854:0 8855:-0 8856:0 8857:-0 8858:0 8859:-0 8860:0 8861:-0 8862:0 8863:-0 8864:0.114943 #
-3.5424166642637828772421926259995 1:0.04636785 2:0.01081917 3:0.069551781 4:0.04018547 5:0.0309119 6:0.06800618 7:0.04018547 8:0.038639881 9:0.054095831 10:0.094281301 11:0.035548691 12:0.08655332 13:0.05255023 14:0.05255023 15:0.038639881 16:0.10973725 17:0.051004641 18:0.0618238 19:0.00618238 20:0.01236476 21:0.23219815 22:0.077399381 23:0.15479876 25:0.077399381 26:0.15479876 28:0.15479876 29:0.077399381 30:0.3869969 31:0.077399381 32:0.15479876 34:0.077399381 36:0.30959752 37:0.15479876 38:0.23219815 43:0.23219815 45:0.077399381 50:0.077399381 52:0.077399381 54:0.077399381 61:0.15479876 63:0.23219815 64:0.3869969 65:0.077399381 66:0.15479876 67:0.15479876 69:0.23219815 70:0.23219815 71:0.15479876 72:0.3869969 73:0.3869969 74:0.23219815 75:0.077399381 76:0.30959752 77:0.077399381 78:0.15479876 80:0.077399381 81:0.077399381 82:0.077399381 83:0.23219815 84:0.15479876 85:0.15479876 86:0.15479876 87:0.077399381 89:0.23219815 90:0.30959752 91:0.077399381 92:0.15479876 93:0.077399381 94:0.077399381 97:0.15479876 103:0.23219815 106:0.077399381 109:0.077399381 110:0.077399381 112:0.077399381 113:0.30959752 114:0.077399381 115:0.077399381 116:0.30959752 117:0.077399381 118:0.15479876 121:0.30959752 123:0.15479876 125:0.23219815 126:0.15479876 127:0.23219815 128:0.23219815 130:0.3869969 131:0.15479876 132:0.30959752 134:0.15479876 135:0.077399381 136:0.3869969 137:0.15479876 138:0.3869969 139:0.077399381 141:0.15479876 143:0.23219815 144:0.077399381 145:0.077399381 146:0.23219815 147:0.077399381 148:0.15479876 149:0.077399381 151:0.077399381 152:0.15479876 153:0.077399381 154:0.077399381 155:0.15479876 156:0.23219815 157:0.077399381 158:0.077399381 162:0.077399381 163:0.15479876 164:0.077399381 168:0.077399381 169:0.077399381 170:0.077399381 171:0.23219815 172:0.15479876 173:0.077399381 174:0.15479876 175:0.077399381 176:0.3869969 177:0.15479876 178:0.077399381 179:0.077399381 181:0.077399381 183:0.15479876 184:0.077399381 185:0.30959752 186:0.15479876 187:0.077399381 188:0.077399381 189:0.30959752 190:0.3869969 191:0.15479876 192:0.23219815 193:0.23219815 194:0.15479876 195:0.077399381 196:0.077399381 197:0.15479876 201:0.23219815 203:0.30959752 204:0.3869969 206:0.23219815 207:0.23219815 208:0.077399381 209:0.30959752 210:0.54179567 211:0.077399381 212:0.15479876 213:0.23219815 214:0.30959752 215:0.23219815 216:0.77399379 217:0.23219815 218:0.3869969 221:0.077399381 223:0.15479876 224:0.077399381 227:0.15479876 229:0.30959752 230:0.15479876 231:0.077399381 232:0.30959752 233:0.077399381 235:0.077399381 236:0.077399381 237:0.23219815 241:0.15479876 243:0.3869969 244:0.077399381 246:0.30959752 248:0.4643963 249:0.23219815 250:0.61919504 251:0.077399381 252:0.4643963 254:0.30959752 255:0.15479876 256:0.54179567 257:0.15479876 258:0.15479876 259:0.077399381 260:0.15479876 261:0.23219815 263:0.23219815 266:0.077399381 268:0.077399381 269:0.15479876 270:0.15479876 273:0.23219815 274:0.077399381 275:0.30959752 276:0.4643963 277:0.23219815 278:0.30959752 280:0.077399381 281:0.077399381 283:0.15479876 284:0.15479876 286:0.4643963 287:0.23219815 289:0.077399381 290:0.30959752 291:0.077399381 292:0.3869969 293:0.077399381 294:0.077399381 296:0.30959752 297:0.15479876 300:0.077399381 302:0.15479876 304:0.077399381 305:0.077399381 306:0.077399381 308:0.077399381 309:0.23219815 310:0.077399381 311:0.15479876 312:0.15479876 313:0.23219815 314:0.077399381 315:0.15479876 316:0.077399381 318:0.15479876 320:0.077399381 321:0.30959752 323:0.23219815 324:0.23219815 325:0.15479876 326:0.77399379 327:0.30959752 328:0.23219815 329:0.15479876 330:0.3869969 331:0.15479876 332:0.54179567 334:0.30959752 335:0.23219815 336:0.54179567 337:0.15479876 338:0.61919504 340:0.15479876 342:0.077399381 343:0.15479876 345:0.23219815 346:0.077399381 347:0.077399381 349:0.15479876 350:0.15479876 352:0.4643963 353:0.23219815 354:0.077399381 355:0.077399381 356:0.15479876 357:0.30959752 358:0.30959752 361:0.15479876 363:0.077399381 364:0.23219815 365:0.077399381 366:0.30959752 367:0.23219815 368:0.30959752 370:0.23219815 371:0.15479876 372:0.15479876 373:0.30959752 374:0.15479876 375:0.15479876 376:0.30959752 377:0.077399381 378:0.077399381 379:0.077399381 381:0.077399381 387:0.077399381 394:0.077399381 396:0.077399381 402:0.077399381 407:0.077399381 410:0.15479876 413:0.077399381 414:0.077399381 416:0.15479876 431:0.051679589 438:0.10335917 443:0.051679589 464:0.051679589 473:0.051679589 515:0.051679589 527:0.051679589 530:0.051679589 569:0.051679589 578:0.051679589 597:0.051679589 601:0.051679589 607:0.051679589 610:0.051679589 611:0.051679589 616:0.051679589 632:0.051679589 646:0.051679589 654:0.051679589 689:0.051679589 728:0.051679589 734:0.051679589 737:0.051679589 738:0.051679589 747:0.051679589 757:0.051679589 763:0.051679589 772:0.051679589 773:0.051679589 873:0.051679589 876:0.051679589 880:0.051679589 906:0.051679589 1010:0.051679589 1052:0.051679589 1100:0.051679589 1229:0.051679589 1237:0.051679589 1263:0.051679589 1273:0.10335917 1281:0.051679589 1283:0.10335917 1284:0.051679589 1285:0.051679589 1312:0.051679589 1325:0.051679589 1332:0.051679589 1343:0.051679589 1352:0.051679589 1385:0.051679589 1391:0.051679589 1393:0.051679589 1413:0.051679589 1418:0.10335917 1423:0.051679589 1427:0.051679589 1443:0.051679589 1450:0.051679589 1451:0.051679589 1452:0.051679589 1459:0.051679589 1470:0.051679589 1475:0.051679589 1476:0.10335917 1477:0.051679589 1483:0.051679589 1486:0.051679589 1490:0.051679589 1506:0.051679589 1526:0.051679589 1529:0.051679589 1531:0.051679589 1535:0.051679589 1549:0.051679589 1567:0.051679589 1576:0.051679589 1610:0.051679589 1630:0.051679589 1645:0.051679589 1664:0.10335917 1670:0.051679589 1690:0.051679589 1694:0.051679589 1713:0.051679589 1716:0.051679589 1725:0.051679589 1738:0.051679589 1749:0.051679589 1789:0.051679589 1790:0.051679589 1792:0.051679589 1801:0.051679589 1807:0.051679589 1809:0.051679589 1818:0.051679589 1823:0.051679589 1843:0.10335917 1875:0.051679589 1884:0.051679589 1950:0.10335917 2061:0.051679589 2070:0.051679589 2076:0.051679589 2134:0.051679589 2190:0.051679589 2216:0.051679589 2260:0.051679589 2268:0.051679589 2273:0.051679589 2276:0.051679589 2278:0.051679589 2292:0.051679589 2316:0.051679589 2330:0.051679589 2332:0.10335917 2336:0.051679589 2352:0.051679589 2361:0.051679589 2364:0.051679589 2421:0.051679589 2422:0.051679589 2423:0.051679589 2436:0.051679589 2464:0.051679589 2477:0.051679589 2509:0.051679589 2513:0.051679589 2518:0.051679589 2530:0.051679589 2532:0.051679589 2541:0.051679589 2548:0.10335917 2563:0.051679589 2568:0.051679589 2576:0.051679589 2603:0.051679589 2604:0.051679589 2606:0.051679589 2612:0.051679589 2616:0.051679589 2635:0.051679589 2637:0.051679589 2648:0.051679589 2650:0.10335917 2656:0.051679589 2690:0.051679589 2697:0.051679589 2720:0.051679589 2726:0.051679589 2727:0.051679589 2730:0.051679589 2736:0.051679589 2738:0.051679589 2746:0.051679589 2754:0.051679589 2766:0.051679589 2767:0.051679589 2770:0.051679589 2771:0.051679589 2777:0.051679589 2787:0.051679589 2821:0.051679589 2837:0.051679589 2872:0.10335917 2876:0.051679589 2886:0.051679589 2916:0.051679589 2921:0.051679589 2925:0.051679589 2931:0.051679589 2956:0.051679589 2974:0.051679589 2976:0.051679589 2983:0.051679589 3033:0.051679589 3044:0.051679589 3052:0.051679589 3075:0.051679589 3086:0.051679589 3109:0.051679589 3112:0.051679589 3124:0.10335917 3132:0.051679589 3153:0.051679589 3168:0.051679589 3252:0.051679589 3269:0.051679589 3275:0.051679589 3297:0.051679589 3372:0.051679589 3381:0.051679589 3416:0.051679589 3427:0.051679589 3430:0.051679589 3432:0.051679589 3455:0.051679589 3456:0.051679589 3473:0.051679589 3496:0.051679589 3497:0.051679589 3515:0.051679589 3523:0.051679589 3526:0.051679589 3527:0.051679589 3532:0.051679589 3536:0.051679589 3552:0.051679589 3556:0.051679589 3573:0.051679589 3594:0.051679589 3630:0.051679589 3669:0.051679589 3674:0.051679589 3689:0.051679589 3703:0.10335917 3710:0.051679589 3718:0.051679589 3728:0.051679589 3738:0.051679589 3744:0.051679589 3777:0.051679589 3785:0.051679589 3791:0.051679589 3793:0.051679589 3795:0.051679589 3810:0.10335917 3813:0.051679589 3817:0.051679589 3818:0.051679589 3829:0.051679589 3832:0.051679589 3848:0.051679589 3849:0.051679589 3857:0.051679589 3875:0.051679589 3877:0.051679589 3878:0.051679589 3884:0.051679589 3887:0.051679589 3909:0.051679589 3934:0.051679589 3955:0.051679589 3957:0.051679589 4023:0.051679589 4030:0.051679589 4038:0.051679589 4065:0.051679589 4066:0.051679589 4074:0.10335917 4083:0.051679589 4090:0.051679589 4091:0.051679589 4093:0.051679589 4097:0.051679589 4128:0.051679589 4136:0.10335917 4152:0.051679589 4155:0.10335917 4162:0.051679589 4185:0.051679589 4192:0.10335917 4193:0.051679589 4203:0.10335917 4204:0.051679589 4209:0.051679589 4215:0.10335917 4218:0.051679589 4230:0.051679589 4257:0.051679589 4258:0.051679589 4263:0.051679589 4269:0.051679589 4278:0.051679589 4286:0.051679589 4290:0.051679589 4291:0.051679589 4292:0.051679589 4304:0.051679589 4311:0.051679589 4315:0.051679589 4321:0.10335917 4326:0.051679589 4328:0.051679589 4329:0.051679589 4330:0.051679589 4334:0.051679589 4335:0.10335917 4336:0.051679589 4349:0.051679589 4353:0.051679589 4357:0.051679589 4366:0.051679589 4368:0.051679589 4370:0.051679589 4371:0.051679589 4376:0.051679589 4436:0.051679589 4466:0.051679589 4470:0.051679589 4484:0.051679589 4553:0.051679589 4556:0.051679589 4586:0.051679589 4587:0.051679589 4590:0.051679589 4594:0.051679589 4604:0.051679589 4616:0.051679589 4629:0.051679589 4643:0.051679589 4650:0.051679589 4656:0.10335917 4663:0.051679589 4718:0.051679589 4738:0.051679589 4743:0.051679589 4758:0.10335917 4825:0.051679589 4830:0.051679589 4863:0.051679589 4867:0.051679589 4869:0.051679589 4872:0.051679589 4876:0.051679589 4889:0.051679589 4921:0.051679589 4923:0.051679589 4930:0.051679589 4938:0.051679589 4963:0.051679589 4970:0.051679589 4971:0.10335917 4973:0.051679589 4979:0.051679589 4986:0.051679589 4990:0.051679589 4997:0.051679589 5003:0.051679589 5006:0.051679589 5008:0.051679589 5009:0.10335917 5013:0.051679589 5016:0.051679589 5017:0.051679589 5021:0.051679589 5041:0.10335917 5049:0.051679589 5050:0.051679589 5054:0.051679589 5060:0.051679589 5081:0.051679589 5083:0.051679589 5090:0.051679589 5092:0.051679589 5110:0.051679589 5113:0.051679589 5121:0.051679589 5123:0.051679589 5126:0.051679589 5130:0.051679589 5136:0.051679589 5138:0.051679589 5140:0.051679589 5152:0.051679589 5153:0.051679589 5167:0.051679589 5173:0.051679589 5181:0.051679589 5202:0.051679589 5216:0.051679589 5226:0.10335917 5232:0.051679589 5271:0.051679589 5273:0.051679589 5278:0.051679589 5327:0.051679589 5376:0.051679589 5388:0.051679589 5396:0.051679589 5414:0.10335917 5476:0.10335917 5477:0.051679589 5486:0.051679589 5513:0.10335917 5518:0.051679589 5521:0.051679589 5524:0.051679589 5526:0.10335917 5538:0.051679589 5540:0.051679589 5542:0.051679589 5543:0.051679589 5556:0.051679589 5566:0.051679589 5568:0.051679589 5572:0.051679589 5575:0.051679589 5614:0.051679589 5628:0.051679589 5661:0.051679589 5664:0.051679589 5692:0.10335917 5726:0.051679589 5732:0.051679589 5735:0.051679589 5736:0.051679589 5737:0.051679589 5739:0.051679589 5754:0.051679589 5756:0.051679589 5758:0.051679589 5789:0.051679589 5806:0.051679589 5807:0.051679589 5814:0.051679589 5816:0.051679589 5829:0.051679589 5846:0.051679589 5848:0.051679589 5850:0.10335917 5852:0.051679589 5876:0.051679589 5896:0.051679589 5927:0.10335917 5928:0.051679589 5934:0.051679589 5952:0.10335917 6007:0.051679589 6043:0.051679589 6054:0.051679589 6087:0.051679589 6116:0.051679589 6121:0.051679589 6164:0.051679589 6183:0.051679589 6185:0.051679589 6189:0.051679589 6212:0.051679589 6224:0.051679589 6232:0.051679589 6248:0.051679589 6250:0.051679589 6266:0.051679589 6269:0.051679589 6274:0.051679589 6296:0.051679589 6302:0.051679589 6309:0.051679589 6325:0.051679589 6370:0.051679589 6378:0.051679589 6416:0.051679589 6428:0.051679589 6430:0.051679589 6432:0.051679589 6434:0.051679589 6467:0.051679589 6472:0.051679589 6478:0.051679589 6482:0.051679589 6485:0.051679589 6486:0.051679589 6513:0.051679589 6516:0.051679589 6521:0.051679589 6523:0.051679589 6526:0.051679589 6528:0.051679589 6534:0.051679589 6536:0.10335917 6537:0.051679589 6538:0.10335917 6543:0.051679589 6545:0.051679589 6546:0.051679589 6557:0.051679589 6572:0.051679589 6576:0.051679589 6577:0.051679589 6584:0.051679589 6594:0.051679589 6604:0.051679589 6610:0.051679589 6616:0.10335917 6617:0.051679589 6631:0.051679589 6637:0.051679589 6646:0.051679589 6648:0.051679589 6649:0.051679589 6652:0.10335917 6656:0.051679589 6658:0.051679589 6687:0.051679589 6692:0.051679589 6694:0.051679589 6696:0.051679589 6702:0.051679589 6705:0.051679589 6714:0.051679589 6726:0.051679589 6731:0.051679589 6732:0.10335917 6736:0.051679589 6737:0.051679589 6738:0.051679589 6745:0.051679589 6758:0.051679589 6761:0.051679589 6764:0.051679589 6766:0.051679589 6768:0.051679589 6773:0.051679589 6774:0.051679589 6775:0.051679589 6776:0.051679589 6810:0.051679589 6813:0.051679589 6850:0.051679589 6871:0.051679589 6872:0.051679589 6913:0.051679589 6914:0.051679589 6917:0.051679589 6932:0.051679589 6947:0.051679589 6989:0.051679589 6990:0.051679589 7010:0.051679589 7016:0.051679589 7043:0.051679589 7048:0.051679589 7054:0.051679589 7055:0.051679589 7056:0.10335917 7061:0.051679589 7063:0.051679589 7078:0.051679589 7086:0.051679589 7112:0.051679589 7130:0.051679589 7132:0.051679589 7145:0.051679589 7152:0.051679589 7157:0.051679589 7158:0.051679589 7164:0.051679589 7165:0.051679589 7174:0.051679589 7176:0.051679589 7221:0.051679589 7236:0.051679589 7263:0.051679589 7289:0.051679589 7290:0.10335917 7303:0.051679589 7327:0.051679589 7330:0.10335917 7331:0.051679589 7346:0.10335917 7351:0.051679589 7371:0.051679589 7374:0.051679589 7375:0.051679589 7376:0.051679589 7401:0.051679589 7404:0.051679589 7414:0.051679589 7429:0.051679589 7436:0.051679589 7446:0.051679589 7454:0.051679589 7461:0.10335917 7470:0.051679589 7480:0.051679589 7492:0.051679589 7493:0.051679589 7508:0.051679589 7511:0.051679589 7525:0.051679589 7526:0.051679589 7536:0.051679589 7538:0.051679589 7545:0.051679589 7579:0.051679589 7596:0.051679589 7636:0.051679589 7743:0.051679589 7887:0.051679589 7938:0.051679589 8043:0.051679589 8141:0.051679589 8210:0.051679589 8215:0.051679589 8273:0.051679589 8286:0.051679589 8323:0.051679589 8326:0.051679589 8421:0.00927357 8422:0.00618238 8423:0.01854714 8424:0.0077279801 8426:0.00309119 8427:0.00618238 8428:0.00618238 8429:0.00309119 8430:0.00309119 8431:0.02163833 8432:0.01236476 8433:0.00309119 8435:0.00927357 8436:0.020092741 8437:0.01081917 8440:0.00309119 8441:0.038417 8442:0.00031 8443:0.0025180001 8444:6.0999999e-05 8845:0.31839299 8846:0.037397999 8847:0.0039539998 8848:0.002778 8849:0.000566 8850:0.00026599999 8851:7.1000002e-05 8852:2.9000001e-05 8853:9.0000003e-06 8854:3.0000001e-06 8855:1e-06 8856:0 8857:0 8858:0 8859:0 8860:0 8861:0 8862:0 8863:0 8864:0.202473 #
